761 100
family -0.116918 -0.313261 0.218714 -0.189141 0.112219 0.051252 0.100639 -0.100586 -0.366801 0.502662 0.238459 0.132825 -0.087079 -0.150956 -0.002385 0.453529 0.401825 0.145116 0.406557 0.136003 -0.076906 0.300667 0.390897 -0.489326 0.222164 -0.314842 -0.136358 0.151340 0.173425 -0.042696 0.100284 0.023481 -0.390585 0.394697 -0.198909 0.192320 0.392858 -0.313081 -0.162564 -0.386226 -0.015668 0.227469 -0.166743 -0.101344 0.163761 0.260119 -0.182744 0.142037 -0.146932 -0.132179 -0.131065 -0.292952 -0.201235 0.013706 0.164528 -0.110196 0.323431 0.064900 -0.041567 -0.329629 -0.205192 -0.354288 0.098469 -0.099456 -0.088513 0.581725 0.166246 -0.269052 0.329586 0.179653 -0.128687 -0.174385 0.098992 -0.277461 -0.058352 0.037443 -0.298439 0.076873 -0.269875 -0.406787 0.157185 0.209095 0.119016 -0.013133 0.294234 0.412367 0.058553 -0.026471 0.337642 0.100009 -0.062075 0.259188 0.105025 0.334276 0.177003 0.100868 -0.185948 0.548439 0.001535 -0.038730 
american -0.161740 -0.464539 0.326073 -0.249518 0.137393 0.055057 0.132479 -0.151661 -0.524298 0.676209 0.358853 0.175312 -0.130168 -0.190827 0.002399 0.652026 0.537675 0.171662 0.563383 0.189712 -0.119946 0.426353 0.550991 -0.686904 0.299054 -0.456037 -0.183763 0.204627 0.223777 -0.061166 0.136699 0.029318 -0.558132 0.529710 -0.269521 0.259708 0.534811 -0.445071 -0.248750 -0.551566 -0.026390 0.321738 -0.234301 -0.135278 0.216575 0.390795 -0.252235 0.185665 -0.205280 -0.164304 -0.187889 -0.384781 -0.279059 0.028594 0.216884 -0.127904 0.418350 0.075636 -0.072619 -0.476880 -0.308239 -0.492080 0.152227 -0.149198 -0.109959 0.813056 0.235098 -0.348111 0.473599 0.249882 -0.203939 -0.261734 0.129711 -0.373965 -0.059950 0.032755 -0.418046 0.078116 -0.370921 -0.572996 0.217095 0.304684 0.135917 -0.052420 0.409196 0.569881 0.082192 -0.035028 0.465034 0.131871 -0.095468 0.378966 0.141402 0.458509 0.242314 0.143267 -0.253056 0.749327 -0.015243 -0.062030 
united -0.185727 -0.424816 0.302274 -0.229281 0.132355 0.054690 0.140057 -0.140928 -0.470757 0.664752 0.332102 0.158474 -0.106278 -0.205503 0.002313 0.603374 0.526535 0.187918 0.532241 0.184958 -0.107634 0.419062 0.521927 -0.630055 0.270655 -0.391314 -0.155261 0.183730 0.210847 -0.045703 0.132475 0.032075 -0.503040 0.516844 -0.262553 0.229083 0.494628 -0.413914 -0.220807 -0.506065 -0.010374 0.310547 -0.221907 -0.135365 0.226238 0.344379 -0.227782 0.193076 -0.195946 -0.182646 -0.166943 -0.375280 -0.270427 0.013196 0.217492 -0.144356 0.408098 0.071363 -0.044335 -0.425095 -0.259562 -0.462013 0.134128 -0.125495 -0.099029 0.745050 0.233422 -0.338223 0.439519 0.227211 -0.185881 -0.224389 0.138886 -0.364974 -0.061091 0.029296 -0.396031 0.105311 -0.361042 -0.528820 0.229858 0.287037 0.140906 -0.013676 0.403592 0.536822 0.068767 -0.057620 0.431017 0.124801 -0.083610 0.344363 0.139562 0.422562 0.246476 0.114870 -0.237876 0.692139 -0.019355 -0.043602 
national -0.163409 -0.380140 0.275589 -0.211623 0.143473 0.054610 0.121239 -0.136019 -0.442006 0.614838 0.296342 0.171925 -0.108247 -0.194902 -0.002915 0.565510 0.490591 0.155780 0.503951 0.149679 -0.107495 0.378060 0.480880 -0.615526 0.262201 -0.392601 -0.157897 0.187873 0.222890 -0.063142 0.115239 0.037193 -0.477816 0.491960 -0.224747 0.237587 0.457810 -0.368093 -0.186227 -0.478312 0.001584 0.290948 -0.224299 -0.110696 0.214144 0.316556 -0.217024 0.165511 -0.173216 -0.175277 -0.139913 -0.347065 -0.244267 0.008926 0.182433 -0.143180 0.383508 0.094334 -0.062610 -0.412163 -0.253313 -0.423006 0.132357 -0.124111 -0.094916 0.709233 0.196518 -0.319023 0.410546 0.214578 -0.152766 -0.207690 0.123513 -0.338641 -0.075609 0.029734 -0.346976 0.077745 -0.344826 -0.503689 0.205271 0.270993 0.130677 -0.040350 0.365690 0.490388 0.047784 -0.041675 0.391157 0.127206 -0.073932 0.317429 0.127454 0.409683 0.225192 0.131914 -0.224674 0.659429 -0.001543 -0.057240 
states -0.158990 -0.386232 0.260416 -0.204612 0.134655 0.056802 0.107832 -0.114259 -0.431847 0.601438 0.295976 0.166589 -0.095512 -0.174668 -0.002209 0.552098 0.459091 0.170219 0.485332 0.174979 -0.097495 0.378420 0.481069 -0.590080 0.264141 -0.384886 -0.152223 0.167517 0.212034 -0.063461 0.116583 0.031314 -0.460325 0.480414 -0.230324 0.200133 0.449418 -0.358275 -0.196009 -0.450060 -0.022055 0.276489 -0.207458 -0.125966 0.204856 0.301872 -0.202911 0.164835 -0.166790 -0.150000 -0.153751 -0.327544 -0.239452 0.024973 0.181875 -0.127068 0.377390 0.085646 -0.042917 -0.389636 -0.248654 -0.416261 0.128045 -0.113761 -0.109742 0.680630 0.210024 -0.307263 0.408390 0.220405 -0.158750 -0.227425 0.132997 -0.319107 -0.072687 0.049331 -0.360199 0.080918 -0.308802 -0.466793 0.192129 0.254008 0.123437 -0.038715 0.360819 0.491660 0.068380 -0.029316 0.392196 0.126414 -0.071147 0.318538 0.122612 0.391620 0.213301 0.118812 -0.206902 0.639616 -0.018583 -0.050144 
world -0.134873 -0.355403 0.245147 -0.200439 0.132857 0.063496 0.098939 -0.110723 -0.422585 0.565287 0.285960 0.158183 -0.110457 -0.178425 0.009709 0.522897 0.465092 0.159066 0.453735 0.151164 -0.086723 0.344030 0.458182 -0.575611 0.255118 -0.360082 -0.162781 0.164640 0.193500 -0.042867 0.122340 0.034620 -0.451843 0.452025 -0.226122 0.213262 0.447429 -0.343189 -0.180477 -0.456880 -0.006825 0.261370 -0.190173 -0.100218 0.200427 0.308668 -0.198679 0.153636 -0.172887 -0.159228 -0.150589 -0.323638 -0.224427 0.018382 0.182877 -0.133740 0.366536 0.070618 -0.064478 -0.366070 -0.243502 -0.398867 0.108084 -0.102274 -0.102611 0.646913 0.197373 -0.290954 0.390987 0.201545 -0.145819 -0.202686 0.127699 -0.303669 -0.058258 0.034090 -0.329530 0.093146 -0.322032 -0.463753 0.186294 0.249145 0.127541 -0.016087 0.340931 0.469877 0.045834 -0.041548 0.376066 0.129264 -0.060498 0.303350 0.111280 0.362538 0.216421 0.122886 -0.215971 0.613183 -0.015685 -0.056278 
years -0.153472 -0.437849 0.305380 -0.246994 0.142512 0.059925 0.118815 -0.144206 -0.488628 0.686586 0.328985 0.190816 -0.128152 -0.187315 0.008718 0.617235 0.541656 0.192791 0.533783 0.189127 -0.103356 0.413929 0.543077 -0.672781 0.297439 -0.432289 -0.187108 0.201646 0.230985 -0.058439 0.143692 0.052830 -0.543799 0.540310 -0.248374 0.251573 0.528536 -0.410980 -0.207663 -0.524624 -0.015782 0.323423 -0.249825 -0.133681 0.226740 0.371488 -0.247130 0.186724 -0.186820 -0.178141 -0.159949 -0.379883 -0.265055 0.021995 0.213854 -0.133998 0.434413 0.095428 -0.063542 -0.451277 -0.293388 -0.472466 0.133454 -0.148417 -0.124885 0.790571 0.228155 -0.364320 0.447507 0.247626 -0.183294 -0.239684 0.135414 -0.371889 -0.081648 0.048024 -0.407471 0.099420 -0.375569 -0.537198 0.206397 0.283497 0.161067 -0.026407 0.403115 0.551668 0.071537 -0.040796 0.450441 0.148544 -0.072943 0.366556 0.141250 0.435778 0.230836 0.137933 -0.242737 0.743995 -0.013911 -0.049728 
time -0.128691 -0.349585 0.250620 -0.199468 0.116819 0.056255 0.098814 -0.122674 -0.397699 0.550921 0.280518 0.143728 -0.097457 -0.158946 0.008522 0.498495 0.442902 0.151866 0.446619 0.145474 -0.079668 0.344946 0.444586 -0.545229 0.235430 -0.349872 -0.149042 0.154828 0.200526 -0.043087 0.105326 0.042046 -0.435331 0.443499 -0.217333 0.208318 0.428088 -0.347019 -0.182667 -0.425891 -0.010989 0.267638 -0.201189 -0.115724 0.191022 0.305508 -0.190408 0.161199 -0.168424 -0.155585 -0.143596 -0.311837 -0.227513 0.012528 0.179485 -0.119466 0.349539 0.066043 -0.045224 -0.370919 -0.235974 -0.389799 0.117198 -0.116279 -0.101482 0.636641 0.177953 -0.297348 0.373768 0.190044 -0.153781 -0.201140 0.108495 -0.309557 -0.069255 0.035961 -0.327349 0.069539 -0.298924 -0.454609 0.172956 0.236921 0.133255 -0.030735 0.322159 0.453858 0.058662 -0.026795 0.368088 0.113454 -0.067116 0.293988 0.128330 0.369490 0.201709 0.105843 -0.207598 0.602581 -0.012849 -0.040313 
part -0.126219 -0.348168 0.246627 -0.206056 0.122363 0.043715 0.105085 -0.117639 -0.380401 0.547228 0.258027 0.139310 -0.092364 -0.151710 0.003497 0.481187 0.429001 0.146601 0.432812 0.153835 -0.089360 0.327871 0.426038 -0.536774 0.226788 -0.347321 -0.145125 0.149245 0.194048 -0.040307 0.103952 0.039556 -0.427240 0.419914 -0.199808 0.200442 0.419009 -0.338358 -0.178384 -0.411418 -0.011199 0.255495 -0.198317 -0.118352 0.188660 0.280970 -0.188063 0.144736 -0.149286 -0.147373 -0.125063 -0.312964 -0.213255 0.004418 0.165336 -0.117295 0.347672 0.066234 -0.041271 -0.356253 -0.220817 -0.372058 0.106668 -0.116511 -0.093909 0.624839 0.177863 -0.282126 0.362347 0.195632 -0.139307 -0.204961 0.120358 -0.304242 -0.061698 0.029414 -0.315663 0.082833 -0.296691 -0.430095 0.169475 0.225825 0.126926 -0.018215 0.313503 0.439384 0.053353 -0.028746 0.351287 0.107255 -0.062086 0.274132 0.122274 0.354651 0.192161 0.110858 -0.184869 0.592304 -0.000795 -0.038421 
located -0.165574 -0.433168 0.309622 -0.246121 0.155320 0.059244 0.138332 -0.136614 -0.464950 0.673757 0.326330 0.177437 -0.106936 -0.214586 -0.005285 0.609832 0.528354 0.172334 0.532471 0.176064 -0.113430 0.431914 0.541973 -0.681644 0.297084 -0.435291 -0.169508 0.202531 0.235479 -0.070014 0.133825 0.040995 -0.511354 0.544860 -0.249879 0.240073 0.508130 -0.409750 -0.219684 -0.534944 -0.017901 0.309213 -0.243167 -0.140201 0.220390 0.356075 -0.244306 0.195686 -0.204737 -0.186188 -0.155887 -0.392395 -0.286296 0.010201 0.223140 -0.145380 0.433435 0.102824 -0.068660 -0.423451 -0.294339 -0.481757 0.155204 -0.144066 -0.103682 0.783259 0.226076 -0.356970 0.438401 0.237081 -0.180648 -0.264707 0.131898 -0.369697 -0.078589 0.065754 -0.378960 0.086969 -0.348509 -0.542790 0.229526 0.276786 0.152511 -0.029307 0.412188 0.548221 0.056347 -0.026141 0.426233 0.154819 -0.085193 0.355298 0.152207 0.457638 0.241888 0.130282 -0.254219 0.734697 -0.009418 -0.044048 
city -0.147728 -0.364335 0.246357 -0.207861 0.127334 0.053788 0.109717 -0.113273 -0.401308 0.554462 0.265477 0.142872 -0.095924 -0.171904 -0.001169 0.501159 0.448436 0.158946 0.443781 0.157761 -0.093292 0.337652 0.433231 -0.558535 0.232667 -0.354065 -0.155599 0.169289 0.189955 -0.046392 0.119246 0.034551 -0.445890 0.451860 -0.209293 0.212199 0.429328 -0.340824 -0.173679 -0.430394 -0.016032 0.261604 -0.190966 -0.114432 0.183125 0.305686 -0.201421 0.164771 -0.156981 -0.144719 -0.127317 -0.325952 -0.222755 0.016288 0.172416 -0.114092 0.339852 0.082273 -0.056612 -0.364866 -0.232833 -0.397914 0.122143 -0.113441 -0.105967 0.636792 0.182022 -0.286247 0.367060 0.195762 -0.140879 -0.212551 0.124248 -0.312344 -0.069324 0.044441 -0.332802 0.077017 -0.312539 -0.456739 0.187068 0.239468 0.117765 -0.020989 0.341339 0.452705 0.045239 -0.040093 0.369760 0.112525 -0.063155 0.298609 0.132338 0.372282 0.192942 0.119666 -0.209686 0.602574 0.002120 -0.038540 
university -0.153500 -0.390760 0.271414 -0.207001 0.133503 0.060206 0.129517 -0.120316 -0.443094 0.601238 0.284633 0.160226 -0.093625 -0.181644 0.013599 0.545422 0.464860 0.153148 0.478120 0.173475 -0.091490 0.360084 0.474957 -0.601450 0.251823 -0.369351 -0.168862 0.173088 0.199911 -0.054809 0.128461 0.032913 -0.476217 0.475477 -0.224382 0.228937 0.460798 -0.374194 -0.199684 -0.460985 0.004616 0.288121 -0.219279 -0.122437 0.188150 0.326035 -0.221238 0.168781 -0.166952 -0.161455 -0.148630 -0.344708 -0.232006 0.002703 0.189256 -0.115097 0.383098 0.084996 -0.049816 -0.396665 -0.253492 -0.424058 0.123315 -0.130146 -0.108218 0.695881 0.194290 -0.323228 0.400532 0.209444 -0.165717 -0.227390 0.111494 -0.317765 -0.067005 0.040134 -0.356879 0.093261 -0.341461 -0.492617 0.190276 0.257961 0.142160 -0.026749 0.354899 0.486546 0.061244 -0.047918 0.387131 0.131536 -0.060228 0.321160 0.136855 0.399427 0.218098 0.119216 -0.223708 0.653380 0.000306 -0.044992 
state -0.117748 -0.302117 0.218749 -0.167992 0.095402 0.044350 0.090108 -0.106321 -0.342942 0.482073 0.233144 0.132549 -0.074321 -0.140829 0.011541 0.432103 0.381266 0.127483 0.384447 0.126517 -0.085016 0.290906 0.379303 -0.478497 0.210761 -0.309010 -0.132589 0.143888 0.163171 -0.039922 0.095949 0.030589 -0.372184 0.381906 -0.175662 0.182515 0.363286 -0.300702 -0.150346 -0.365976 -0.000517 0.228200 -0.168084 -0.104387 0.162382 0.250297 -0.169070 0.130648 -0.136413 -0.129383 -0.109730 -0.279258 -0.187883 0.015939 0.158330 -0.105510 0.297159 0.060123 -0.038099 -0.312958 -0.198623 -0.337511 0.105084 -0.090581 -0.077433 0.546546 0.157954 -0.256474 0.317246 0.164560 -0.124975 -0.167665 0.096332 -0.263635 -0.044277 0.027960 -0.280817 0.073641 -0.258588 -0.376994 0.161102 0.206337 0.113870 -0.027863 0.280185 0.379754 0.049329 -0.031093 0.315027 0.104285 -0.057633 0.252305 0.111792 0.319699 0.174082 0.093333 -0.163302 0.522556 0.002695 -0.037987 
including -0.106777 -0.282565 0.198906 -0.165510 0.098357 0.045689 0.083729 -0.097427 -0.326618 0.440085 0.219080 0.117256 -0.080650 -0.130787 0.002650 0.403051 0.349406 0.116644 0.351356 0.127650 -0.074068 0.274581 0.355618 -0.449636 0.184921 -0.287531 -0.120117 0.125565 0.150643 -0.044237 0.090254 0.028929 -0.355654 0.356737 -0.170250 0.169901 0.339507 -0.280781 -0.141531 -0.348858 -0.001012 0.208093 -0.152948 -0.090254 0.148066 0.234171 -0.158371 0.130180 -0.134416 -0.126226 -0.117401 -0.248634 -0.173607 0.005192 0.145161 -0.090589 0.280502 0.053651 -0.038233 -0.295073 -0.184588 -0.315428 0.098387 -0.097588 -0.077789 0.512899 0.144080 -0.227588 0.301798 0.152650 -0.113692 -0.162865 0.098590 -0.244383 -0.047157 0.034272 -0.257464 0.067262 -0.249922 -0.352576 0.137009 0.193219 0.099950 -0.012504 0.262028 0.362127 0.041671 -0.025139 0.298211 0.089580 -0.057559 0.239589 0.103587 0.290321 0.162599 0.089469 -0.155351 0.475899 -0.001750 -0.041298 
south -0.113719 -0.290508 0.201570 -0.167170 0.100919 0.035609 0.081120 -0.090766 -0.323310 0.436757 0.216433 0.109786 -0.083896 -0.136651 0.005332 0.402795 0.346660 0.132087 0.354039 0.110037 -0.070743 0.281725 0.348286 -0.436077 0.185628 -0.271483 -0.119621 0.128428 0.150823 -0.037298 0.088356 0.032117 -0.349467 0.361393 -0.174529 0.156249 0.347192 -0.266726 -0.151832 -0.343595 -0.002469 0.208674 -0.162776 -0.087161 0.142006 0.237316 -0.162585 0.119134 -0.124936 -0.126986 -0.117025 -0.250684 -0.186545 0.007049 0.134004 -0.090327 0.285503 0.058750 -0.038432 -0.287532 -0.177527 -0.304453 0.099357 -0.084387 -0.084714 0.509156 0.138434 -0.231628 0.302446 0.149930 -0.118446 -0.156436 0.088528 -0.246686 -0.053797 0.030164 -0.263795 0.069952 -0.243178 -0.360182 0.147324 0.179548 0.092356 -0.016145 0.267534 0.361551 0.043811 -0.031685 0.288088 0.099707 -0.043406 0.225764 0.101604 0.297143 0.161221 0.097646 -0.154932 0.485325 -0.002693 -0.043315 
school -0.154830 -0.369154 0.263214 -0.211137 0.134380 0.047712 0.109239 -0.111147 -0.419001 0.582941 0.275927 0.159407 -0.095765 -0.168739 -0.007547 0.534604 0.450871 0.166907 0.460056 0.165340 -0.101344 0.351508 0.445791 -0.584385 0.244511 -0.357799 -0.155546 0.168210 0.206388 -0.041663 0.118552 0.046606 -0.452124 0.464902 -0.222713 0.203915 0.443505 -0.347918 -0.186119 -0.453834 -0.005412 0.273056 -0.203929 -0.115195 0.191042 0.303002 -0.209939 0.156010 -0.177230 -0.145488 -0.137952 -0.314840 -0.223355 0.004540 0.188856 -0.127773 0.355355 0.073041 -0.050465 -0.381217 -0.237023 -0.394404 0.113089 -0.123364 -0.098353 0.668179 0.193914 -0.305093 0.378959 0.195444 -0.153579 -0.223222 0.128246 -0.323131 -0.065800 0.040063 -0.339650 0.087761 -0.323149 -0.473087 0.197679 0.248330 0.134128 -0.030530 0.347273 0.455755 0.046244 -0.034106 0.386919 0.129928 -0.073449 0.305548 0.130160 0.388167 0.203577 0.124406 -0.221235 0.618273 -0.007049 -0.039391 
north -0.139050 -0.332324 0.226470 -0.197528 0.108446 0.048028 0.109319 -0.100891 -0.370113 0.525125 0.258530 0.136907 -0.084648 -0.160272 0.002361 0.462578 0.410870 0.146991 0.423542 0.136027 -0.079239 0.316757 0.408543 -0.522749 0.226043 -0.334241 -0.145120 0.155621 0.179199 -0.039557 0.110560 0.035705 -0.399295 0.416339 -0.201214 0.193877 0.403603 -0.316363 -0.162580 -0.403635 -0.006490 0.249868 -0.177444 -0.112805 0.179562 0.278383 -0.182851 0.134083 -0.154183 -0.149520 -0.130080 -0.298331 -0.204301 0.005538 0.159638 -0.103709 0.336457 0.073471 -0.045814 -0.335992 -0.210305 -0.371424 0.114910 -0.098493 -0.084479 0.597431 0.159520 -0.275690 0.340290 0.184335 -0.142657 -0.190671 0.113453 -0.283492 -0.062595 0.040365 -0.297177 0.082221 -0.285112 -0.422764 0.164416 0.216164 0.112336 -0.012816 0.315926 0.415171 0.051412 -0.038510 0.333590 0.116777 -0.065760 0.265555 0.112249 0.339187 0.178160 0.099671 -0.182840 0.556101 -0.008045 -0.045279 
year -0.098561 -0.262676 0.185770 -0.147279 0.082762 0.035570 0.077919 -0.078453 -0.295700 0.421048 0.206252 0.115388 -0.077519 -0.123049 0.008990 0.378912 0.334587 0.120617 0.331163 0.110824 -0.064634 0.261433 0.330367 -0.419423 0.169053 -0.267157 -0.115112 0.113831 0.148569 -0.034905 0.075807 0.029194 -0.328326 0.325297 -0.162726 0.150993 0.318075 -0.251355 -0.140261 -0.321902 0.000736 0.200144 -0.146953 -0.077027 0.137431 0.218018 -0.139726 0.116380 -0.127520 -0.112378 -0.097513 -0.239705 -0.161018 0.015268 0.132979 -0.092795 0.263140 0.059136 -0.029673 -0.278969 -0.166659 -0.283096 0.084066 -0.085807 -0.079525 0.482221 0.136395 -0.220884 0.281827 0.138062 -0.114004 -0.154363 0.081998 -0.227753 -0.042351 0.019427 -0.242097 0.052263 -0.226826 -0.326775 0.128800 0.181666 0.098830 -0.022676 0.239165 0.334545 0.036566 -0.026467 0.269892 0.085898 -0.053729 0.217239 0.083120 0.277836 0.145496 0.082264 -0.145610 0.441931 -0.007090 -0.035861 
county -0.144941 -0.348450 0.226949 -0.201169 0.112170 0.059234 0.111893 -0.101966 -0.370092 0.528386 0.267315 0.140935 -0.089476 -0.166331 0.003244 0.482607 0.418666 0.158517 0.415577 0.132518 -0.092955 0.337662 0.424111 -0.525088 0.218088 -0.321536 -0.125176 0.155603 0.185474 -0.054385 0.112821 0.045630 -0.400582 0.431627 -0.199257 0.192217 0.408162 -0.330461 -0.175291 -0.407117 0.000626 0.259763 -0.181135 -0.104036 0.184117 0.262924 -0.179859 0.141942 -0.159013 -0.145265 -0.143287 -0.303998 -0.225850 0.000388 0.155945 -0.115283 0.329786 0.073584 -0.031610 -0.347178 -0.220619 -0.356749 0.117259 -0.096975 -0.097973 0.607619 0.173643 -0.278965 0.339246 0.183103 -0.147387 -0.191427 0.102949 -0.306815 -0.046767 0.045810 -0.314129 0.083866 -0.283132 -0.429999 0.177567 0.213037 0.106238 -0.022102 0.327006 0.412053 0.064401 -0.029157 0.355695 0.099041 -0.056954 0.266386 0.106965 0.351918 0.172087 0.115625 -0.178600 0.557887 -0.021210 -0.044282 
area -0.104168 -0.272549 0.181041 -0.162019 0.092759 0.045882 0.090051 -0.087622 -0.297163 0.419135 0.211218 0.113047 -0.072952 -0.129851 -0.005032 0.380038 0.340557 0.123248 0.336666 0.105342 -0.071359 0.261681 0.337927 -0.419417 0.177482 -0.273155 -0.116326 0.121853 0.147331 -0.036793 0.078346 0.027083 -0.336137 0.328798 -0.165191 0.162522 0.317263 -0.256124 -0.139596 -0.329800 -0.011608 0.203552 -0.144479 -0.089860 0.136756 0.229410 -0.151289 0.112138 -0.115433 -0.114551 -0.103969 -0.246189 -0.163355 0.010439 0.132994 -0.097113 0.264021 0.056029 -0.031704 -0.280244 -0.180369 -0.292914 0.093948 -0.090096 -0.068419 0.486593 0.128767 -0.228438 0.281352 0.142894 -0.115991 -0.153321 0.093809 -0.237732 -0.054862 0.024299 -0.234745 0.059719 -0.231649 -0.337257 0.129109 0.168714 0.100958 -0.018228 0.247597 0.342547 0.046135 -0.018981 0.272623 0.093121 -0.056542 0.213463 0.088209 0.278341 0.139468 0.078649 -0.155568 0.463932 -0.004472 -0.035779 
member -0.121887 -0.287980 0.215488 -0.173015 0.097242 0.037384 0.102658 -0.095542 -0.324096 0.463879 0.233325 0.115099 -0.084906 -0.141872 -0.003978 0.409170 0.355603 0.123767 0.372555 0.112366 -0.071387 0.288419 0.369626 -0.451456 0.204155 -0.295130 -0.115135 0.132077 0.168832 -0.050224 0.085479 0.019227 -0.351997 0.375016 -0.181827 0.178234 0.346215 -0.293631 -0.149553 -0.365323 -0.000808 0.225960 -0.153920 -0.099761 0.151472 0.241030 -0.158798 0.136575 -0.131893 -0.133501 -0.119627 -0.257315 -0.175032 0.009673 0.137452 -0.098208 0.295445 0.068155 -0.046396 -0.313830 -0.189890 -0.330977 0.098591 -0.098050 -0.076612 0.538372 0.156323 -0.247497 0.315028 0.165738 -0.125249 -0.159360 0.100633 -0.241738 -0.051364 0.026185 -0.263425 0.057496 -0.262489 -0.379312 0.147943 0.197968 0.096298 -0.023908 0.267132 0.362836 0.034620 -0.030513 0.304571 0.091643 -0.045368 0.247680 0.101088 0.307436 0.167987 0.090446 -0.170916 0.502172 -0.011838 -0.038664 
played -0.116299 -0.327550 0.219321 -0.190535 0.110953 0.050245 0.098447 -0.095178 -0.377018 0.506523 0.257001 0.136386 -0.097871 -0.139504 0.010687 0.455971 0.395588 0.133156 0.401210 0.140820 -0.066369 0.304712 0.393512 -0.507207 0.212618 -0.321338 -0.139841 0.141754 0.163871 -0.048623 0.107940 0.026306 -0.390999 0.399216 -0.191321 0.187739 0.393910 -0.310832 -0.168466 -0.384018 -0.007451 0.232071 -0.184310 -0.099122 0.152600 0.273675 -0.169706 0.150125 -0.158299 -0.130875 -0.125968 -0.283724 -0.207504 0.014024 0.156815 -0.102995 0.309793 0.075896 -0.043651 -0.337968 -0.224548 -0.337976 0.099106 -0.104055 -0.085659 0.582981 0.161973 -0.261938 0.347196 0.183380 -0.131166 -0.173400 0.116904 -0.270501 -0.064173 0.033559 -0.280443 0.071587 -0.276050 -0.400510 0.163082 0.218974 0.099739 -0.030096 0.286901 0.398609 0.036011 -0.033144 0.323959 0.095715 -0.063921 0.263156 0.120892 0.320841 0.174175 0.111603 -0.174282 0.545020 0.000480 -0.042593 
made -0.052996 -0.123294 0.090822 -0.074950 0.042646 0.022794 0.040337 -0.046051 -0.140850 0.199491 0.102517 0.055246 -0.040187 -0.059095 -0.000988 0.184788 0.160328 0.060014 0.158731 0.053920 -0.032003 0.119795 0.158495 -0.204525 0.090983 -0.131043 -0.051273 0.057746 0.072886 -0.018057 0.040954 0.017640 -0.159192 0.155118 -0.072966 0.070571 0.151877 -0.121209 -0.064229 -0.153141 -0.007585 0.098439 -0.070273 -0.044683 0.069361 0.104719 -0.066751 0.053844 -0.056052 -0.057257 -0.045631 -0.119161 -0.079069 0.010343 0.062642 -0.048183 0.122940 0.022281 -0.012312 -0.133093 -0.081099 -0.136179 0.035834 -0.038322 -0.032529 0.237063 0.070772 -0.108474 0.137409 0.070584 -0.057526 -0.069418 0.037741 -0.114342 -0.017906 0.016452 -0.119011 0.029739 -0.115098 -0.166062 0.061535 0.086990 0.041453 -0.005431 0.120860 0.164470 0.021401 -0.014998 0.127934 0.046845 -0.022118 0.108756 0.040297 0.130036 0.067266 0.043715 -0.076347 0.218852 -0.001960 -0.015255 
march -0.075250 -0.197159 0.135314 -0.113481 0.061318 0.022341 0.063803 -0.058603 -0.223298 0.304012 0.153582 0.077590 -0.051691 -0.086381 0.009312 0.278906 0.244773 0.077551 0.240467 0.085898 -0.049250 0.183597 0.241447 -0.296604 0.125195 -0.190590 -0.077030 0.081960 0.103616 -0.019261 0.062118 0.015801 -0.239373 0.238958 -0.118462 0.116349 0.231874 -0.190784 -0.099483 -0.239586 0.000715 0.134771 -0.107263 -0.053587 0.093638 0.159963 -0.108346 0.080082 -0.091555 -0.080977 -0.080029 -0.167158 -0.117454 0.010786 0.095221 -0.063805 0.189448 0.037198 -0.022166 -0.193441 -0.131428 -0.212056 0.059530 -0.062718 -0.058183 0.349634 0.100286 -0.148578 0.205063 0.110658 -0.081936 -0.105673 0.066612 -0.158936 -0.034990 0.021350 -0.172480 0.038781 -0.168128 -0.237486 0.099245 0.129563 0.061211 -0.008662 0.184248 0.246450 0.035413 -0.016498 0.190926 0.059306 -0.034176 0.163017 0.069403 0.195407 0.106594 0.064638 -0.113910 0.327916 -0.004441 -0.027408 
district -0.116510 -0.283724 0.186541 -0.158887 0.100477 0.043113 0.092517 -0.078709 -0.317942 0.444037 0.222531 0.123452 -0.082523 -0.131239 0.012877 0.394081 0.344814 0.128248 0.358887 0.111554 -0.069588 0.281297 0.358316 -0.443895 0.186079 -0.285087 -0.119933 0.124126 0.166742 -0.035981 0.096362 0.037699 -0.338244 0.361491 -0.172321 0.167364 0.345774 -0.281851 -0.134331 -0.340248 -0.018576 0.200754 -0.143854 -0.094339 0.151457 0.225115 -0.163454 0.114566 -0.122097 -0.113906 -0.114644 -0.254546 -0.188188 0.004596 0.142568 -0.086346 0.269611 0.070786 -0.033314 -0.290117 -0.195347 -0.313792 0.099052 -0.079586 -0.089572 0.519350 0.132222 -0.233367 0.294501 0.154139 -0.122400 -0.170672 0.096647 -0.252057 -0.046429 0.041738 -0.260228 0.067406 -0.226702 -0.359914 0.137029 0.173710 0.094589 -0.019400 0.264077 0.356266 0.037046 -0.020631 0.294778 0.094201 -0.047627 0.233119 0.088604 0.293307 0.147930 0.079184 -0.156624 0.486532 -0.010672 -0.039948 
war -0.119441 -0.318055 0.228570 -0.183669 0.108958 0.038390 0.101175 -0.098383 -0.357148 0.493136 0.241952 0.134337 -0.079635 -0.148490 0.010978 0.465143 0.393545 0.136764 0.393436 0.143886 -0.076320 0.315344 0.386329 -0.502416 0.209391 -0.307626 -0.131761 0.148772 0.166241 -0.038044 0.096069 0.029804 -0.384648 0.398818 -0.191269 0.187578 0.383521 -0.303991 -0.161609 -0.396796 -0.005982 0.231085 -0.183408 -0.101559 0.169409 0.270051 -0.183987 0.143768 -0.139654 -0.134829 -0.121348 -0.282904 -0.197223 0.004080 0.150349 -0.113154 0.312822 0.054888 -0.050357 -0.327121 -0.201808 -0.350585 0.104823 -0.094450 -0.089157 0.573727 0.169956 -0.261442 0.332868 0.172767 -0.130458 -0.177855 0.100519 -0.279338 -0.054170 0.029553 -0.297366 0.077306 -0.271035 -0.396373 0.169141 0.209720 0.114030 -0.024898 0.297488 0.396661 0.050583 -0.035196 0.332721 0.111165 -0.060892 0.268166 0.111717 0.334459 0.182450 0.105349 -0.179533 0.548292 -0.001690 -0.042753 
film -0.156088 -0.386160 0.286986 -0.226880 0.117635 0.040709 0.127446 -0.124293 -0.434094 0.615344 0.294333 0.155599 -0.106135 -0.173257 0.007836 0.564841 0.491669 0.172292 0.506137 0.173512 -0.108180 0.380520 0.477129 -0.615447 0.257954 -0.409551 -0.174744 0.186088 0.224915 -0.053915 0.110052 0.040342 -0.490122 0.503591 -0.245544 0.238823 0.488128 -0.383815 -0.212594 -0.480348 -0.000220 0.281823 -0.202290 -0.135368 0.203623 0.344863 -0.215806 0.162426 -0.171703 -0.169013 -0.149369 -0.341192 -0.241435 0.003741 0.199979 -0.135477 0.377336 0.065111 -0.057375 -0.417488 -0.265523 -0.431538 0.116542 -0.127813 -0.101871 0.728031 0.194559 -0.329006 0.424948 0.198137 -0.175627 -0.229317 0.136351 -0.331996 -0.068291 0.029845 -0.362079 0.073127 -0.344807 -0.487313 0.206030 0.272471 0.152782 -0.016252 0.344232 0.495933 0.059065 -0.043387 0.391021 0.145945 -0.085801 0.310882 0.145192 0.410932 0.221493 0.117267 -0.216507 0.679507 0.009549 -0.067105 
september -0.031690 -0.094952 0.059198 -0.050045 0.032980 0.017886 0.027604 -0.027210 -0.104413 0.138952 0.074093 0.044115 -0.029864 -0.048586 0.004790 0.131771 0.114963 0.039726 0.120451 0.040780 -0.026170 0.090122 0.112196 -0.147570 0.060079 -0.092365 -0.034817 0.042993 0.056240 -0.012926 0.034529 0.004572 -0.107111 0.113067 -0.057573 0.051669 0.112861 -0.094835 -0.042526 -0.113832 -0.001746 0.071126 -0.047913 -0.029047 0.046513 0.070925 -0.054427 0.037827 -0.045958 -0.038989 -0.040423 -0.082232 -0.060696 -0.001065 0.041225 -0.030823 0.094960 0.014514 -0.012937 -0.097471 -0.063730 -0.096955 0.030480 -0.028385 -0.029450 0.162968 0.043415 -0.076508 0.098696 0.055356 -0.033920 -0.053283 0.033080 -0.080413 -0.019246 0.006209 -0.081267 0.024371 -0.082799 -0.118764 0.049656 0.058990 0.032902 -0.005429 0.083328 0.115135 0.012468 -0.013170 0.096073 0.030312 -0.013560 0.072339 0.033616 0.090450 0.054626 0.027804 -0.054867 0.159801 -0.000729 -0.012112 
international -0.077757 -0.210253 0.150473 -0.118169 0.075311 0.032070 0.062551 -0.072559 -0.243897 0.331824 0.167208 0.089468 -0.057070 -0.094711 0.006998 0.309151 0.262029 0.090762 0.265711 0.083269 -0.055192 0.208764 0.262621 -0.329662 0.136516 -0.214712 -0.085721 0.095394 0.116054 -0.031652 0.066197 0.013870 -0.265910 0.259305 -0.123495 0.121416 0.251356 -0.200356 -0.104657 -0.255364 -0.003442 0.150568 -0.112217 -0.067681 0.109621 0.172679 -0.115883 0.094404 -0.093552 -0.090956 -0.077231 -0.188564 -0.135974 0.012421 0.110342 -0.064823 0.209518 0.036902 -0.033535 -0.216578 -0.133927 -0.231194 0.062444 -0.062532 -0.058666 0.384051 0.111467 -0.176196 0.222249 0.119857 -0.084376 -0.122478 0.064070 -0.183851 -0.036582 0.021345 -0.198404 0.044873 -0.178157 -0.263894 0.113080 0.138167 0.080415 -0.020398 0.189278 0.271733 0.038096 -0.018291 0.211753 0.073363 -0.043864 0.173679 0.068429 0.220544 0.113054 0.060732 -0.116750 0.360242 0.002890 -0.027545 
series -0.109448 -0.301456 0.218707 -0.177623 0.103581 0.040206 0.097864 -0.092995 -0.351349 0.472556 0.241510 0.116486 -0.086569 -0.135522 0.008616 0.441955 0.385571 0.128601 0.380908 0.132872 -0.072588 0.288382 0.375190 -0.474954 0.204529 -0.302662 -0.125552 0.139377 0.160165 -0.041009 0.099898 0.020934 -0.378628 0.376519 -0.191022 0.179866 0.365139 -0.299295 -0.155716 -0.370259 -0.015109 0.218794 -0.172013 -0.093617 0.163169 0.249184 -0.163452 0.126133 -0.130128 -0.137078 -0.117004 -0.272242 -0.191598 0.012466 0.154234 -0.094279 0.291705 0.057961 -0.033732 -0.318541 -0.200642 -0.334858 0.096192 -0.105948 -0.076190 0.556667 0.160084 -0.252398 0.313107 0.158217 -0.122984 -0.174988 0.093786 -0.254788 -0.058823 0.031421 -0.282789 0.058992 -0.260782 -0.379239 0.143833 0.201508 0.100487 -0.027839 0.271421 0.387875 0.043948 -0.028303 0.313576 0.108014 -0.053130 0.247576 0.097825 0.321590 0.164729 0.090854 -0.172342 0.527412 -0.004079 -0.046735 
january -0.028373 -0.085627 0.063995 -0.046118 0.025136 0.010421 0.028967 -0.023300 -0.094306 0.131080 0.070527 0.037481 -0.027963 -0.038552 -0.000666 0.119867 0.100190 0.037397 0.107298 0.035962 -0.021604 0.080159 0.102479 -0.129904 0.058816 -0.088298 -0.030801 0.041992 0.041532 -0.016922 0.024196 0.006940 -0.103837 0.111153 -0.053180 0.048398 0.102675 -0.082330 -0.039983 -0.104953 -0.003356 0.058970 -0.044848 -0.023795 0.042375 0.071779 -0.051787 0.040029 -0.036252 -0.037253 -0.036440 -0.073993 -0.057790 0.002497 0.036835 -0.026462 0.082011 0.017529 -0.016529 -0.087429 -0.053756 -0.089311 0.031300 -0.022815 -0.022266 0.150554 0.043301 -0.072469 0.091660 0.049621 -0.036453 -0.050704 0.023464 -0.071551 -0.018598 0.006748 -0.076892 0.016878 -0.075174 -0.109353 0.046041 0.062436 0.031170 -0.009902 0.082519 0.107898 0.012251 -0.006043 0.092428 0.028638 -0.011989 0.074474 0.030524 0.089422 0.051130 0.031204 -0.048081 0.140351 0.003871 -0.010735 
august -0.019314 -0.059253 0.044852 -0.033135 0.022001 0.003697 0.014709 -0.023743 -0.063756 0.096279 0.043584 0.023553 -0.012732 -0.029147 0.001645 0.081860 0.075555 0.021712 0.074171 0.020062 -0.012743 0.056466 0.069519 -0.095535 0.037897 -0.063918 -0.024386 0.022060 0.033027 -0.004013 0.015230 0.000739 -0.076538 0.072012 -0.035080 0.029968 0.073248 -0.059781 -0.028370 -0.075413 -0.003990 0.041508 -0.030727 -0.016404 0.034898 0.049536 -0.028661 0.024165 -0.026802 -0.022139 -0.027948 -0.050960 -0.037166 -0.003116 0.034532 -0.024973 0.056281 0.010245 -0.004878 -0.060786 -0.037009 -0.066459 0.023777 -0.014438 -0.015554 0.110472 0.035232 -0.044496 0.062223 0.030902 -0.022154 -0.032337 0.021030 -0.051223 -0.007514 0.005147 -0.049433 0.013589 -0.046356 -0.071117 0.029818 0.036466 0.017912 -0.002443 0.053870 0.074909 0.008533 -0.010554 0.057947 0.020374 -0.010475 0.047881 0.024632 0.065178 0.029616 0.013407 -0.037323 0.096929 0.003661 -0.012596 
released -0.133890 -0.350009 0.237954 -0.199080 0.101918 0.045816 0.101595 -0.114406 -0.392413 0.522679 0.268291 0.144301 -0.091698 -0.156390 0.018914 0.500207 0.418596 0.150125 0.426319 0.135411 -0.092542 0.326372 0.427236 -0.529640 0.216726 -0.353130 -0.155759 0.152936 0.190958 -0.050737 0.106263 0.026158 -0.427872 0.434091 -0.199930 0.195598 0.416501 -0.335535 -0.176152 -0.410389 -0.008850 0.263013 -0.182095 -0.099090 0.175948 0.284519 -0.196811 0.150527 -0.155576 -0.134551 -0.124386 -0.306754 -0.216272 0.006051 0.176461 -0.099182 0.328362 0.056150 -0.046964 -0.359815 -0.228306 -0.384096 0.109155 -0.111988 -0.099250 0.615552 0.170322 -0.268965 0.351971 0.171982 -0.151861 -0.197018 0.118085 -0.293327 -0.061530 0.026966 -0.303057 0.068496 -0.300338 -0.429182 0.165530 0.229494 0.129078 -0.031937 0.314047 0.433565 0.051227 -0.025656 0.349169 0.120058 -0.061252 0.275582 0.129879 0.360564 0.175671 0.104080 -0.191204 0.585903 0.015048 -0.050050 
group -0.057816 -0.164537 0.113601 -0.097518 0.050494 0.024338 0.052124 -0.047520 -0.180905 0.261695 0.125426 0.070935 -0.043830 -0.077229 0.004467 0.234547 0.205675 0.065610 0.203133 0.071999 -0.045525 0.159274 0.197035 -0.251128 0.109788 -0.163100 -0.071624 0.075484 0.091786 -0.017994 0.055545 0.014561 -0.199426 0.207016 -0.101466 0.093760 0.198471 -0.155874 -0.083586 -0.204091 -0.008130 0.120787 -0.091398 -0.054961 0.090085 0.141261 -0.087392 0.067586 -0.068544 -0.071503 -0.056687 -0.150172 -0.101922 0.000167 0.077203 -0.053178 0.159332 0.036802 -0.017010 -0.170963 -0.102275 -0.176016 0.051902 -0.049599 -0.043867 0.300373 0.084181 -0.129489 0.166007 0.090317 -0.065231 -0.094256 0.053456 -0.138031 -0.024560 0.012322 -0.155751 0.033234 -0.138872 -0.210383 0.080086 0.106245 0.053669 -0.007817 0.144768 0.204871 0.027844 -0.014889 0.164770 0.049608 -0.032517 0.133086 0.052546 0.167991 0.090391 0.049868 -0.092757 0.281566 -0.000961 -0.018967 
july -0.004504 -0.015941 0.013053 -0.011839 0.008133 0.005714 -0.000542 -0.006273 -0.017162 0.020780 0.015466 0.004977 -0.001532 -0.010420 0.003710 0.022619 0.018832 0.005596 0.012651 0.010161 -0.006585 0.009244 0.013527 -0.018788 0.010053 -0.018450 -0.009829 0.004306 0.005698 -0.002292 -0.000226 0.005428 -0.019899 0.020007 -0.009917 0.004087 0.014197 -0.010620 -0.005184 -0.013904 0.002116 0.008565 -0.003678 -0.009468 0.003916 0.013925 -0.011258 0.001859 -0.008376 -0.007583 -0.002194 -0.011175 -0.012075 0.004973 0.007636 -0.005791 0.018604 0.001757 -0.003943 -0.013904 -0.011057 -0.010141 0.000353 -0.005654 0.000029 0.021152 0.006325 -0.012163 0.017148 0.007989 -0.001823 -0.006713 0.001424 -0.015587 -0.003881 0.005459 -0.010839 -0.000329 -0.007057 -0.015532 0.002031 0.005051 0.001351 0.000118 0.009504 0.017940 0.003123 -0.002800 0.013746 0.005091 -0.007172 0.007170 0.003123 0.011931 0.010354 0.000697 -0.006318 0.020933 -0.004762 -0.006173 
october -0.010311 -0.028085 0.017637 -0.010878 0.010159 0.005488 0.005621 -0.011154 -0.028628 0.035171 0.017060 0.011364 -0.003437 -0.009668 -0.003667 0.037022 0.026368 0.004965 0.025098 0.010867 -0.000360 0.023118 0.027386 -0.031625 0.014881 -0.023518 -0.005348 0.007695 0.012168 -0.006257 0.004950 -0.002678 -0.024207 0.027750 -0.009023 0.009514 0.026014 -0.026055 -0.007069 -0.026742 0.003443 0.016523 -0.013855 -0.003076 0.013346 0.024143 -0.012048 0.010152 -0.011594 -0.012263 -0.011386 -0.024167 -0.013768 -0.000664 0.009235 -0.011368 0.024108 0.004055 -0.001396 -0.022422 -0.016988 -0.020832 0.002745 -0.009831 -0.004798 0.042825 0.015741 -0.015474 0.028281 0.010204 -0.013534 -0.013555 0.008759 -0.021850 0.000003 0.002089 -0.020868 0.001023 -0.018366 -0.030459 0.013300 0.013681 0.012647 -0.005886 0.018893 0.034107 0.005012 -0.000918 0.027692 0.004499 -0.009315 0.017589 0.005711 0.024222 0.011339 0.010817 -0.014080 0.039976 -0.001989 0.001225 
called -0.073683 -0.194018 0.139526 -0.109344 0.063455 0.020906 0.053905 -0.063792 -0.216185 0.296862 0.144854 0.080884 -0.046994 -0.092885 -0.001227 0.272994 0.245960 0.083742 0.243297 0.080241 -0.052311 0.189699 0.243511 -0.300876 0.125296 -0.187796 -0.083766 0.089925 0.103152 -0.026869 0.059036 0.015411 -0.238433 0.236453 -0.120939 0.106112 0.229666 -0.186972 -0.096604 -0.233269 -0.005089 0.146794 -0.106173 -0.065629 0.099275 0.165437 -0.101965 0.086780 -0.084350 -0.080070 -0.076421 -0.171585 -0.120528 0.002675 0.095165 -0.061501 0.187589 0.032467 -0.023847 -0.193272 -0.130249 -0.205965 0.066669 -0.056999 -0.056537 0.352747 0.104028 -0.154081 0.196430 0.107461 -0.076663 -0.115341 0.064268 -0.167078 -0.038796 0.013263 -0.174200 0.041256 -0.166820 -0.241049 0.098485 0.129799 0.066255 -0.006391 0.182761 0.242862 0.028289 -0.019413 0.195872 0.058519 -0.032400 0.156626 0.060991 0.196695 0.101691 0.064900 -0.113615 0.325707 -0.002522 -0.019591 
won -0.103316 -0.245176 0.176759 -0.137209 0.088687 0.040358 0.075920 -0.084414 -0.289133 0.393979 0.190516 0.107063 -0.068746 -0.115083 -0.002406 0.360635 0.309614 0.104478 0.320658 0.101675 -0.058672 0.245616 0.306485 -0.394326 0.159725 -0.249130 -0.101562 0.107762 0.128711 -0.031838 0.076294 0.021222 -0.315924 0.316085 -0.158705 0.152809 0.310427 -0.249001 -0.131574 -0.302790 -0.002092 0.188951 -0.133739 -0.081936 0.130746 0.205022 -0.142185 0.113563 -0.122836 -0.109201 -0.104850 -0.220676 -0.150060 0.009819 0.122229 -0.085344 0.241568 0.051238 -0.041597 -0.254713 -0.170867 -0.271043 0.084611 -0.085675 -0.074336 0.454621 0.134785 -0.206038 0.259795 0.130992 -0.103393 -0.143293 0.080225 -0.210283 -0.037839 0.032047 -0.225917 0.060035 -0.221677 -0.321717 0.128456 0.173537 0.091779 -0.022005 0.223800 0.323059 0.032994 -0.021642 0.250589 0.082575 -0.038820 0.209622 0.080336 0.257135 0.146775 0.073520 -0.143998 0.419550 -0.004246 -0.038903 
june -0.016467 -0.039773 0.033331 -0.025162 0.020329 0.007217 0.013280 -0.018635 -0.048281 0.075237 0.034339 0.022054 -0.014636 -0.021865 -0.004161 0.060251 0.056499 0.016621 0.055861 0.018913 -0.011698 0.039796 0.053156 -0.065735 0.026956 -0.048286 -0.017706 0.019206 0.025935 -0.005592 0.013542 0.001680 -0.060152 0.058051 -0.029583 0.030822 0.056656 -0.046842 -0.021153 -0.055117 0.002884 0.028697 -0.025375 -0.011209 0.019120 0.038635 -0.020869 0.017767 -0.015443 -0.022048 -0.019283 -0.038555 -0.025786 0.002616 0.019980 -0.015093 0.043705 0.012197 -0.002806 -0.051688 -0.026147 -0.046590 0.010223 -0.013189 -0.012697 0.077411 0.021461 -0.035651 0.046906 0.024514 -0.020600 -0.029380 0.010925 -0.043475 -0.003686 0.000731 -0.037234 0.012341 -0.041746 -0.052595 0.022780 0.026287 0.017861 -0.008379 0.035659 0.061317 0.009537 -0.005742 0.048023 0.011063 -0.006867 0.031105 0.011522 0.048988 0.022171 0.012108 -0.020182 0.075156 -0.004759 -0.004090 
december -0.023043 -0.050920 0.040210 -0.033982 0.016956 0.009961 0.022424 -0.015067 -0.058740 0.085734 0.037500 0.024251 -0.019436 -0.021902 0.001660 0.078918 0.065877 0.018187 0.072526 0.022710 -0.018029 0.048699 0.071521 -0.086169 0.036119 -0.053326 -0.017427 0.021871 0.030706 -0.007365 0.014750 0.000101 -0.069083 0.070444 -0.032214 0.031345 0.067948 -0.054396 -0.026628 -0.063859 0.000443 0.038541 -0.027551 -0.012989 0.029561 0.043731 -0.034052 0.026234 -0.021543 -0.018788 -0.020569 -0.052739 -0.034354 -0.002136 0.030923 -0.014086 0.058199 0.007517 -0.010113 -0.055286 -0.038326 -0.060761 0.012659 -0.015454 -0.017860 0.098851 0.032480 -0.047862 0.053352 0.030980 -0.020186 -0.026302 0.018929 -0.041871 -0.006893 0.003703 -0.051109 0.013186 -0.050375 -0.073119 0.025766 0.038174 0.022141 0.000494 0.053824 0.072758 0.006648 -0.002753 0.054829 0.018962 -0.013745 0.040807 0.024043 0.051798 0.030131 0.018777 -0.033839 0.088853 0.004264 -0.011345 
april -0.018588 -0.049287 0.037397 -0.030893 0.019916 0.004088 0.014488 -0.020725 -0.064417 0.085528 0.044333 0.024251 -0.010382 -0.027311 0.001473 0.080748 0.064914 0.022377 0.065296 0.027569 -0.017414 0.054068 0.066253 -0.087083 0.037883 -0.050946 -0.023838 0.028770 0.027705 -0.005239 0.017207 0.003915 -0.068488 0.070134 -0.027847 0.028731 0.067319 -0.052317 -0.026364 -0.067441 0.002919 0.041842 -0.034549 -0.015469 0.028340 0.044640 -0.025538 0.020595 -0.019117 -0.018028 -0.015605 -0.046405 -0.030583 0.005859 0.025786 -0.018354 0.052843 0.015981 -0.003623 -0.054418 -0.034853 -0.053405 0.018664 -0.012479 -0.011914 0.097751 0.029185 -0.043092 0.061020 0.027324 -0.024010 -0.029034 0.020443 -0.045570 -0.006452 0.009647 -0.051846 0.014039 -0.042836 -0.070957 0.027463 0.030438 0.014372 -0.006457 0.048420 0.069336 0.003194 -0.000786 0.054063 0.013896 -0.004991 0.043076 0.020812 0.049697 0.026882 0.020771 -0.030392 0.088110 -0.003878 -0.002013 
de -0.114997 -0.291723 0.203442 -0.166326 0.099154 0.031908 0.083507 -0.091706 -0.315261 0.450953 0.216530 0.113376 -0.079707 -0.138374 0.009493 0.407776 0.350122 0.120982 0.353032 0.125388 -0.071982 0.272271 0.353236 -0.443292 0.183731 -0.280250 -0.118727 0.123369 0.151531 -0.034541 0.085091 0.031454 -0.351275 0.360384 -0.171840 0.162990 0.348725 -0.278118 -0.153395 -0.351751 -0.002624 0.210672 -0.160810 -0.090833 0.143224 0.245485 -0.162976 0.130401 -0.137268 -0.114831 -0.106275 -0.247669 -0.179157 0.014744 0.145048 -0.098609 0.280015 0.058722 -0.041766 -0.294774 -0.181374 -0.307176 0.096010 -0.084628 -0.072945 0.512996 0.154070 -0.231743 0.302893 0.156971 -0.122447 -0.164761 0.096153 -0.251995 -0.045520 0.025218 -0.255334 0.063154 -0.237996 -0.357944 0.150968 0.186441 0.094177 -0.019705 0.264937 0.361678 0.041823 -0.033727 0.295089 0.089334 -0.049597 0.232601 0.103039 0.301728 0.162855 0.087102 -0.165111 0.483654 0.003423 -0.038083 
music -0.122575 -0.329084 0.232522 -0.196886 0.111192 0.044411 0.111066 -0.113446 -0.368347 0.506164 0.253125 0.139788 -0.082145 -0.155093 0.013525 0.470404 0.411592 0.147461 0.419730 0.132226 -0.085960 0.316768 0.409226 -0.512790 0.223555 -0.324302 -0.138925 0.140593 0.187863 -0.046050 0.105470 0.027514 -0.415117 0.411590 -0.206237 0.198011 0.401588 -0.318332 -0.166416 -0.401429 -0.002061 0.242567 -0.181446 -0.111086 0.179322 0.272935 -0.190290 0.142937 -0.143170 -0.144395 -0.125836 -0.286221 -0.201017 0.010887 0.159455 -0.100541 0.328520 0.064604 -0.041465 -0.351104 -0.217961 -0.368367 0.108203 -0.103235 -0.091876 0.591975 0.161818 -0.261234 0.348870 0.181016 -0.132547 -0.196127 0.115068 -0.283497 -0.050438 0.038703 -0.309644 0.063194 -0.292330 -0.410505 0.159477 0.213133 0.124366 -0.022454 0.299947 0.415594 0.046489 -0.028971 0.340063 0.117612 -0.058626 0.269412 0.123716 0.344166 0.181226 0.097848 -0.184893 0.561676 0.005941 -0.045860 
based -0.045951 -0.126662 0.093306 -0.067752 0.048283 0.015319 0.045176 -0.036215 -0.148016 0.199643 0.099663 0.054729 -0.033313 -0.065599 0.007264 0.184146 0.152383 0.051173 0.163955 0.055553 -0.027834 0.121422 0.164277 -0.203178 0.086984 -0.129453 -0.051888 0.053262 0.075889 -0.014881 0.036982 0.008130 -0.162289 0.156797 -0.078787 0.070707 0.158831 -0.117932 -0.062599 -0.158086 -0.005308 0.099618 -0.069333 -0.038198 0.072412 0.108193 -0.071736 0.050328 -0.054576 -0.050038 -0.042286 -0.117505 -0.085570 0.002931 0.068575 -0.044868 0.123273 0.027513 -0.018369 -0.134541 -0.085247 -0.137314 0.036574 -0.044250 -0.036441 0.234614 0.061098 -0.101806 0.129527 0.069426 -0.050016 -0.069530 0.042440 -0.114054 -0.026149 0.008065 -0.117520 0.023056 -0.106946 -0.159322 0.064269 0.080714 0.046974 -0.006002 0.115662 0.159018 0.017616 -0.011857 0.126309 0.044793 -0.018504 0.109093 0.048464 0.134198 0.069032 0.041608 -0.071744 0.212959 0.000619 -0.015122 
west -0.043308 -0.104134 0.076586 -0.057699 0.042180 0.010962 0.031948 -0.031973 -0.116229 0.167998 0.081109 0.047580 -0.031110 -0.050994 -0.004251 0.157907 0.134741 0.042679 0.135396 0.039723 -0.032598 0.104447 0.136414 -0.165421 0.071310 -0.108400 -0.047423 0.047276 0.064215 -0.017752 0.037222 0.013353 -0.129810 0.141082 -0.059422 0.059026 0.128974 -0.099078 -0.058924 -0.127966 -0.002068 0.080147 -0.058378 -0.036967 0.054613 0.089132 -0.055435 0.043346 -0.044497 -0.044214 -0.046057 -0.101012 -0.062553 0.000176 0.051359 -0.031809 0.101345 0.026291 -0.010951 -0.113066 -0.071335 -0.123325 0.034110 -0.036562 -0.033918 0.199085 0.059088 -0.085552 0.115914 0.059148 -0.046923 -0.066287 0.032910 -0.094635 -0.020154 0.015353 -0.100827 0.021585 -0.094933 -0.132647 0.052565 0.076053 0.035804 -0.010340 0.105031 0.139959 0.014869 -0.012756 0.113401 0.032493 -0.014114 0.089815 0.041547 0.114545 0.060763 0.029688 -0.060269 0.185414 -0.002574 -0.013625 
company -0.139077 -0.342018 0.242004 -0.194169 0.124678 0.043608 0.110805 -0.108214 -0.397167 0.550421 0.266678 0.147927 -0.089094 -0.169717 -0.002850 0.505037 0.439849 0.140757 0.429129 0.138922 -0.086524 0.334050 0.434158 -0.547458 0.232172 -0.349956 -0.145771 0.152498 0.184281 -0.053474 0.106254 0.037896 -0.421356 0.431732 -0.205819 0.203944 0.423231 -0.334941 -0.177689 -0.432492 -0.008446 0.255468 -0.184470 -0.117132 0.181135 0.284977 -0.195677 0.156041 -0.167211 -0.151425 -0.139524 -0.316313 -0.222627 0.008278 0.177730 -0.122002 0.336214 0.074368 -0.045083 -0.359203 -0.226805 -0.379526 0.122886 -0.114245 -0.091948 0.628273 0.182636 -0.278710 0.365835 0.182101 -0.155285 -0.196486 0.115236 -0.298222 -0.068344 0.036989 -0.310861 0.082241 -0.303576 -0.434473 0.174470 0.228196 0.128589 -0.024377 0.317300 0.433705 0.054092 -0.034371 0.359667 0.121917 -0.062067 0.284393 0.116937 0.366219 0.189240 0.105603 -0.200864 0.586310 -0.010175 -0.047441 
work -0.092459 -0.241833 0.161572 -0.133999 0.084611 0.035867 0.074919 -0.075414 -0.267192 0.370293 0.185824 0.097023 -0.064662 -0.115730 0.002141 0.337895 0.290556 0.103233 0.302988 0.092428 -0.058384 0.234797 0.289211 -0.372689 0.152557 -0.230613 -0.095885 0.105286 0.123924 -0.026070 0.072453 0.020759 -0.295678 0.291370 -0.139366 0.141683 0.281089 -0.228997 -0.115388 -0.286053 -0.007257 0.180762 -0.128096 -0.078455 0.128451 0.201167 -0.136698 0.100950 -0.112631 -0.094466 -0.088067 -0.205322 -0.150384 0.010610 0.114826 -0.075758 0.236899 0.050401 -0.037920 -0.240997 -0.151123 -0.262222 0.082442 -0.075889 -0.066160 0.436526 0.126524 -0.196055 0.247578 0.124858 -0.098459 -0.139062 0.072285 -0.209049 -0.044004 0.021903 -0.221747 0.046510 -0.202899 -0.297762 0.114899 0.153453 0.081187 -0.021065 0.216769 0.298316 0.038711 -0.024228 0.243460 0.078389 -0.036361 0.195294 0.084376 0.246401 0.126997 0.080712 -0.135473 0.404986 0.000660 -0.034779 
east -0.043049 -0.118239 0.079841 -0.073732 0.035529 0.013855 0.036048 -0.036647 -0.132823 0.184953 0.094416 0.048041 -0.034676 -0.060045 -0.000552 0.173438 0.145843 0.053789 0.155172 0.048037 -0.030104 0.121728 0.148840 -0.185457 0.082575 -0.117219 -0.044765 0.057374 0.067819 -0.011265 0.042766 0.009741 -0.149628 0.146515 -0.077193 0.065644 0.151112 -0.120619 -0.066378 -0.147403 -0.007074 0.086681 -0.069780 -0.040688 0.063639 0.105672 -0.063166 0.052170 -0.058812 -0.046752 -0.045361 -0.105612 -0.077420 -0.001149 0.058859 -0.045120 0.121641 0.026430 -0.018826 -0.118488 -0.075465 -0.136047 0.043206 -0.034473 -0.028446 0.214771 0.062276 -0.096731 0.130942 0.068894 -0.053421 -0.069175 0.041240 -0.108298 -0.023512 0.013590 -0.106492 0.027494 -0.097247 -0.151372 0.057953 0.084420 0.045914 -0.011059 0.110502 0.148953 0.022721 -0.009080 0.125281 0.038940 -0.024489 0.096587 0.038578 0.120859 0.062978 0.038530 -0.067766 0.201097 0.000194 -0.016551 
team -0.101941 -0.289245 0.193188 -0.156295 0.094269 0.044564 0.078782 -0.096796 -0.333401 0.436604 0.223488 0.110665 -0.081726 -0.127278 0.008228 0.402179 0.353587 0.112608 0.367945 0.123264 -0.061190 0.266178 0.355809 -0.453891 0.190600 -0.294337 -0.126469 0.133571 0.149813 -0.032944 0.083919 0.027369 -0.359417 0.356737 -0.171669 0.168874 0.353563 -0.281419 -0.148614 -0.354666 -0.006331 0.206039 -0.150546 -0.084649 0.148994 0.239243 -0.167215 0.124641 -0.130354 -0.116713 -0.108872 -0.260030 -0.184113 0.008688 0.145691 -0.100640 0.287442 0.063061 -0.038497 -0.302065 -0.184593 -0.311421 0.089487 -0.084854 -0.082641 0.521929 0.143494 -0.232467 0.304205 0.155054 -0.126431 -0.164344 0.099890 -0.247560 -0.046603 0.035471 -0.251475 0.071545 -0.253080 -0.355181 0.149566 0.188783 0.105745 -0.017953 0.260009 0.360917 0.038216 -0.027532 0.287099 0.089547 -0.045592 0.240247 0.101996 0.300396 0.153160 0.093366 -0.162181 0.486953 0.004858 -0.033497 
season -0.123223 -0.321572 0.225101 -0.177812 0.105418 0.040643 0.093246 -0.107656 -0.370902 0.496392 0.251080 0.138007 -0.096370 -0.146707 0.007386 0.462556 0.401623 0.134799 0.405430 0.129028 -0.071622 0.309367 0.397237 -0.494447 0.212557 -0.327459 -0.135733 0.148007 0.178284 -0.045304 0.092338 0.029418 -0.397705 0.398045 -0.194406 0.189458 0.395096 -0.305179 -0.170859 -0.385406 -0.006476 0.233959 -0.174735 -0.093182 0.165111 0.272022 -0.171228 0.148770 -0.153371 -0.137453 -0.129263 -0.288007 -0.201662 0.014092 0.164932 -0.109369 0.312887 0.060378 -0.047467 -0.327203 -0.218343 -0.343940 0.105259 -0.105769 -0.090480 0.577970 0.170843 -0.256241 0.338744 0.174125 -0.137151 -0.176993 0.111627 -0.278402 -0.059735 0.030821 -0.286507 0.072549 -0.272335 -0.406093 0.163882 0.222687 0.111259 -0.023634 0.287671 0.405319 0.047620 -0.026922 0.322901 0.110011 -0.055954 0.264586 0.110964 0.326783 0.181971 0.103522 -0.184714 0.547949 -0.010447 -0.045652 
english -0.072284 -0.178342 0.129436 -0.105238 0.059249 0.018339 0.056171 -0.060772 -0.206161 0.281184 0.136813 0.073572 -0.053029 -0.084092 0.002003 0.252926 0.227082 0.073019 0.230756 0.080923 -0.046254 0.175010 0.224972 -0.279957 0.114063 -0.180160 -0.075044 0.077360 0.095706 -0.029290 0.058126 0.012408 -0.215126 0.228317 -0.109303 0.108710 0.212299 -0.173689 -0.094333 -0.220328 -0.000506 0.127417 -0.099916 -0.054325 0.095960 0.152555 -0.096835 0.073792 -0.081061 -0.072972 -0.064708 -0.163376 -0.113394 0.011697 0.086990 -0.054837 0.176211 0.035404 -0.019443 -0.192648 -0.119377 -0.200639 0.061879 -0.061850 -0.045731 0.329603 0.093048 -0.143096 0.190811 0.102241 -0.076174 -0.099436 0.057289 -0.154245 -0.025946 0.014886 -0.166164 0.042104 -0.151235 -0.228645 0.090461 0.114686 0.061092 -0.008925 0.167300 0.224750 0.025766 -0.018733 0.180312 0.057225 -0.030057 0.144303 0.063792 0.182358 0.101466 0.058454 -0.100427 0.306804 -0.003918 -0.029155 
british -0.083737 -0.216188 0.149742 -0.118783 0.063332 0.031163 0.060710 -0.073429 -0.242214 0.327464 0.159420 0.090722 -0.058463 -0.101090 0.002129 0.301615 0.264820 0.087122 0.258636 0.085949 -0.047770 0.207967 0.255285 -0.324744 0.144168 -0.202673 -0.082378 0.091763 0.114844 -0.033808 0.067087 0.020314 -0.261942 0.256034 -0.120368 0.122823 0.255703 -0.201396 -0.101836 -0.260483 0.001046 0.150683 -0.115270 -0.063204 0.107010 0.171422 -0.123152 0.098115 -0.100799 -0.091969 -0.084240 -0.186854 -0.130471 0.004823 0.100156 -0.069495 0.201557 0.041952 -0.025554 -0.218493 -0.136159 -0.231519 0.068533 -0.066772 -0.051824 0.384439 0.102841 -0.165051 0.220137 0.114962 -0.094230 -0.118283 0.071802 -0.175492 -0.041799 0.027098 -0.194033 0.052887 -0.184562 -0.265816 0.107831 0.145519 0.067859 -0.008374 0.192335 0.265511 0.034631 -0.019345 0.213634 0.075968 -0.041315 0.175906 0.075534 0.219772 0.124155 0.069654 -0.115676 0.354724 -0.001765 -0.025832 
album -0.147470 -0.372564 0.245066 -0.210738 0.122090 0.042198 0.109687 -0.120417 -0.416697 0.570659 0.292287 0.146282 -0.087798 -0.172177 0.011729 0.529910 0.445520 0.157418 0.470561 0.138800 -0.082601 0.343186 0.445288 -0.571016 0.246676 -0.361446 -0.166220 0.157198 0.208299 -0.037974 0.119141 0.033468 -0.461231 0.459854 -0.224649 0.212327 0.443300 -0.360944 -0.195106 -0.447346 -0.003006 0.282229 -0.206450 -0.112694 0.189969 0.311089 -0.207467 0.167627 -0.170564 -0.156711 -0.138647 -0.318323 -0.227425 0.004992 0.189692 -0.123612 0.367573 0.070201 -0.047310 -0.390464 -0.232261 -0.411230 0.112999 -0.107544 -0.110511 0.668769 0.181103 -0.288503 0.383303 0.187207 -0.156346 -0.208612 0.128408 -0.320588 -0.071384 0.043416 -0.323670 0.085227 -0.308649 -0.464892 0.174938 0.234850 0.137591 -0.018429 0.346059 0.451575 0.064159 -0.032657 0.364649 0.115772 -0.059050 0.290705 0.136406 0.368296 0.207641 0.113859 -0.216029 0.631746 0.010255 -0.051497 
served -0.071749 -0.184705 0.131836 -0.103423 0.058542 0.023278 0.059981 -0.057086 -0.212134 0.299334 0.152664 0.073068 -0.054617 -0.086364 0.004335 0.265071 0.233782 0.082124 0.239514 0.075130 -0.046833 0.184525 0.233975 -0.292891 0.132319 -0.181527 -0.076668 0.083300 0.099995 -0.022456 0.051889 0.017657 -0.226605 0.234300 -0.108628 0.108742 0.224655 -0.189888 -0.098123 -0.225093 -0.007663 0.140616 -0.103893 -0.064197 0.095941 0.161234 -0.110392 0.088094 -0.088364 -0.085725 -0.067599 -0.172303 -0.112951 0.010515 0.095453 -0.064592 0.181638 0.040713 -0.020318 -0.193888 -0.125684 -0.206913 0.063561 -0.055294 -0.044800 0.345587 0.102020 -0.153692 0.203095 0.106287 -0.085932 -0.110593 0.066703 -0.164925 -0.030341 0.020957 -0.173189 0.046116 -0.155367 -0.234348 0.101651 0.124544 0.067373 -0.017827 0.170767 0.243455 0.027943 -0.018323 0.191604 0.057365 -0.028010 0.150783 0.066516 0.189594 0.110504 0.060523 -0.110401 0.327629 -0.002999 -0.031066 
town -0.060285 -0.151610 0.098681 -0.078822 0.053880 0.020776 0.046092 -0.048912 -0.164293 0.235728 0.113287 0.057821 -0.036391 -0.069906 -0.002180 0.215151 0.188266 0.067116 0.191336 0.065044 -0.033971 0.142950 0.183348 -0.235649 0.102262 -0.148250 -0.059593 0.067502 0.083186 -0.014349 0.048117 0.016859 -0.177599 0.184818 -0.084667 0.079182 0.178752 -0.141402 -0.070990 -0.181530 0.002282 0.111525 -0.081205 -0.043408 0.079846 0.121295 -0.088534 0.066347 -0.069661 -0.063091 -0.052898 -0.132323 -0.098811 0.005727 0.075291 -0.052418 0.140666 0.030498 -0.025034 -0.147972 -0.091726 -0.158810 0.046187 -0.044509 -0.042463 0.268908 0.070073 -0.122354 0.153620 0.083566 -0.060379 -0.081710 0.047171 -0.132477 -0.030823 0.017259 -0.134129 0.028543 -0.125739 -0.183039 0.080771 0.103457 0.050192 -0.009384 0.137605 0.186528 0.018858 -0.011755 0.151583 0.048822 -0.021213 0.121038 0.051142 0.150908 0.084075 0.052677 -0.088596 0.252858 0.002938 -0.025758 
league -0.113860 -0.294333 0.199796 -0.168254 0.102760 0.041162 0.085415 -0.085754 -0.335714 0.460908 0.229431 0.118905 -0.077415 -0.139652 0.004501 0.426018 0.355715 0.118815 0.371334 0.124197 -0.061843 0.277925 0.360035 -0.462505 0.205057 -0.289705 -0.123362 0.134467 0.165708 -0.042502 0.087246 0.036233 -0.362450 0.358773 -0.184112 0.165120 0.353210 -0.280555 -0.159109 -0.356653 -0.003705 0.223847 -0.166637 -0.098896 0.151459 0.243875 -0.169383 0.130011 -0.134353 -0.119110 -0.118094 -0.258038 -0.183790 0.017798 0.146644 -0.098190 0.290395 0.052337 -0.032411 -0.304952 -0.193696 -0.314038 0.085105 -0.097597 -0.080074 0.536154 0.153539 -0.238493 0.314261 0.165187 -0.127038 -0.167881 0.101759 -0.258986 -0.054320 0.021060 -0.271819 0.061142 -0.255941 -0.372397 0.144965 0.191162 0.102266 -0.030038 0.261277 0.364933 0.034544 -0.036752 0.295309 0.089516 -0.047848 0.247109 0.100382 0.294996 0.165045 0.101125 -0.163100 0.506594 0.000835 -0.044510 
house -0.082325 -0.209728 0.143888 -0.118904 0.076045 0.023028 0.060615 -0.066074 -0.239006 0.321512 0.156648 0.088959 -0.050265 -0.101657 0.001419 0.302117 0.260641 0.088193 0.257425 0.090470 -0.047653 0.209116 0.258997 -0.328103 0.136956 -0.210915 -0.084328 0.098358 0.119826 -0.021103 0.064816 0.025991 -0.263648 0.255139 -0.121936 0.115765 0.247174 -0.197942 -0.106071 -0.257700 -0.010673 0.156174 -0.116628 -0.069239 0.112442 0.170425 -0.111621 0.095138 -0.097905 -0.089192 -0.075423 -0.193336 -0.128817 0.010041 0.103288 -0.072657 0.203477 0.039522 -0.032643 -0.221329 -0.140459 -0.223962 0.071478 -0.069727 -0.053565 0.378887 0.109338 -0.166511 0.216845 0.113285 -0.089554 -0.121534 0.061397 -0.187021 -0.039389 0.017626 -0.189775 0.038846 -0.172986 -0.267982 0.100888 0.134963 0.068111 -0.014756 0.194474 0.259211 0.028243 -0.021267 0.210689 0.061075 -0.038720 0.172216 0.073022 0.216393 0.115624 0.068937 -0.117808 0.358570 -0.007086 -0.020595 
john -0.091950 -0.241822 0.177709 -0.136474 0.076223 0.028678 0.078119 -0.080930 -0.278303 0.384017 0.188063 0.106216 -0.059849 -0.105757 -0.003745 0.347646 0.300815 0.103406 0.306076 0.109781 -0.062061 0.237842 0.298472 -0.383467 0.170137 -0.249652 -0.097054 0.110812 0.131290 -0.028154 0.074191 0.022490 -0.304516 0.298965 -0.140774 0.137684 0.290180 -0.240773 -0.122677 -0.294278 -0.007564 0.174143 -0.132979 -0.073500 0.132432 0.205488 -0.137095 0.104944 -0.114561 -0.100928 -0.099032 -0.213439 -0.151084 0.001965 0.121178 -0.080299 0.239756 0.046959 -0.029014 -0.251011 -0.162306 -0.265061 0.073076 -0.083771 -0.063145 0.438836 0.126260 -0.203616 0.254979 0.128201 -0.107105 -0.137008 0.078174 -0.214434 -0.044459 0.018676 -0.220550 0.056806 -0.211666 -0.306788 0.122001 0.163407 0.086367 -0.012169 0.230044 0.305956 0.035663 -0.030744 0.257027 0.080491 -0.048129 0.195725 0.082162 0.251019 0.134629 0.074529 -0.141206 0.421594 -0.000971 -0.032586 
early -0.041804 -0.111542 0.079456 -0.060967 0.037027 0.012668 0.035831 -0.033940 -0.123635 0.178769 0.091538 0.045676 -0.031014 -0.053944 0.000811 0.158734 0.133721 0.045947 0.143673 0.051314 -0.027315 0.108700 0.137207 -0.170605 0.074093 -0.108426 -0.050810 0.051243 0.065458 -0.014231 0.032900 0.005956 -0.133139 0.135470 -0.070401 0.060717 0.135710 -0.112963 -0.058243 -0.135286 0.001030 0.084320 -0.067483 -0.035660 0.059371 0.097051 -0.056838 0.044213 -0.052645 -0.051680 -0.041076 -0.094555 -0.073013 0.001594 0.061034 -0.031833 0.110349 0.018731 -0.014696 -0.119147 -0.072275 -0.128045 0.036973 -0.041113 -0.032000 0.202104 0.058448 -0.086737 0.120713 0.065514 -0.044418 -0.060435 0.032574 -0.097726 -0.018085 0.014567 -0.099474 0.021859 -0.101257 -0.145722 0.059179 0.078475 0.036905 -0.009716 0.109518 0.146236 0.014084 -0.011918 0.116716 0.034823 -0.021670 0.089643 0.036482 0.113684 0.061052 0.033019 -0.061136 0.190081 -0.003609 -0.019191 
held -0.057164 -0.166452 0.119532 -0.093749 0.052382 0.027947 0.054865 -0.054258 -0.191622 0.255249 0.129702 0.068030 -0.048200 -0.079930 0.001761 0.230371 0.208382 0.066269 0.211689 0.062217 -0.035465 0.155251 0.208898 -0.256789 0.105508 -0.164912 -0.065631 0.077583 0.085642 -0.024602 0.052825 0.013122 -0.205047 0.204926 -0.103022 0.093510 0.199319 -0.163085 -0.082636 -0.202476 -0.002958 0.119157 -0.086288 -0.054601 0.089443 0.137673 -0.096251 0.067928 -0.075671 -0.073069 -0.068077 -0.151934 -0.105106 0.011822 0.075471 -0.060140 0.168939 0.029795 -0.021324 -0.169560 -0.103568 -0.174707 0.053728 -0.056659 -0.041722 0.299971 0.084632 -0.135822 0.177132 0.087957 -0.075719 -0.089335 0.058084 -0.143705 -0.027755 0.011984 -0.150765 0.038568 -0.145240 -0.208139 0.083692 0.110340 0.053317 -0.012685 0.151272 0.207977 0.025578 -0.022529 0.172013 0.048917 -0.033389 0.138720 0.055819 0.169124 0.089284 0.046333 -0.097760 0.279608 -0.006799 -0.017528 
football -0.116532 -0.293219 0.210057 -0.168175 0.092860 0.045764 0.093738 -0.093285 -0.338659 0.452505 0.215826 0.112050 -0.081106 -0.136387 0.004550 0.404212 0.365939 0.127723 0.371629 0.119611 -0.061542 0.278093 0.351552 -0.454806 0.185368 -0.285192 -0.127068 0.129453 0.159471 -0.042787 0.084443 0.032770 -0.353047 0.351028 -0.177606 0.163651 0.356082 -0.284067 -0.147293 -0.357682 -0.001841 0.208677 -0.159584 -0.100162 0.150732 0.248728 -0.160336 0.136083 -0.133785 -0.130734 -0.110318 -0.250241 -0.172353 0.017114 0.150560 -0.103691 0.289562 0.066248 -0.032422 -0.309067 -0.197473 -0.307687 0.084714 -0.086783 -0.083269 0.528518 0.147379 -0.239098 0.304083 0.158761 -0.130058 -0.172428 0.095614 -0.242544 -0.054226 0.026925 -0.262188 0.058628 -0.258588 -0.369987 0.155189 0.204309 0.106339 -0.018422 0.255340 0.357368 0.036012 -0.036212 0.296558 0.100943 -0.062177 0.229067 0.105555 0.292733 0.159470 0.087868 -0.157502 0.484045 -0.010844 -0.030188 
named -0.062400 -0.143098 0.095609 -0.083924 0.046518 0.015483 0.049890 -0.040117 -0.157717 0.225366 0.107197 0.063104 -0.038144 -0.064373 0.004956 0.208285 0.174959 0.068232 0.185033 0.059591 -0.035017 0.141387 0.182080 -0.224956 0.095464 -0.142817 -0.061873 0.070146 0.077018 -0.021540 0.040795 0.016283 -0.173330 0.177410 -0.084761 0.087070 0.170178 -0.141342 -0.068347 -0.169371 -0.008732 0.108038 -0.074570 -0.043139 0.071911 0.117965 -0.082864 0.060732 -0.065218 -0.057848 -0.058624 -0.131289 -0.090140 0.000903 0.067422 -0.043052 0.138990 0.028867 -0.016040 -0.152653 -0.098501 -0.159767 0.051162 -0.041077 -0.038557 0.255476 0.075091 -0.115574 0.146411 0.075430 -0.061210 -0.086166 0.043531 -0.123529 -0.030272 0.020144 -0.126006 0.035522 -0.126084 -0.184830 0.075354 0.093103 0.044759 -0.012156 0.133047 0.181950 0.016918 -0.011245 0.140952 0.043877 -0.022658 0.115451 0.053226 0.143121 0.075441 0.042619 -0.083113 0.244570 -0.004230 -0.013654 
college -0.088023 -0.222956 0.154441 -0.120496 0.076129 0.027454 0.072783 -0.070539 -0.240789 0.331291 0.168138 0.086651 -0.062084 -0.097116 0.002185 0.309589 0.267148 0.094928 0.271795 0.097003 -0.048762 0.211039 0.264197 -0.343286 0.145841 -0.211608 -0.097340 0.093328 0.113620 -0.025014 0.067846 0.019554 -0.267761 0.271224 -0.130041 0.126495 0.254727 -0.205769 -0.113747 -0.265113 -0.001557 0.155324 -0.114211 -0.065165 0.112674 0.186771 -0.121724 0.091610 -0.096503 -0.087611 -0.083708 -0.192160 -0.129339 0.002800 0.107506 -0.076377 0.212703 0.040355 -0.031533 -0.227619 -0.146079 -0.243263 0.067776 -0.073995 -0.059598 0.386272 0.113243 -0.175250 0.226155 0.111102 -0.096008 -0.125543 0.069908 -0.179072 -0.036001 0.022396 -0.203299 0.054145 -0.192596 -0.277237 0.114556 0.145504 0.071377 -0.019803 0.204561 0.272327 0.028833 -0.024300 0.220962 0.072540 -0.040032 0.180316 0.071264 0.230185 0.122552 0.066855 -0.120911 0.363271 0.000023 -0.032196 
november -0.008512 -0.013622 0.008953 -0.002099 0.003874 0.002976 0.006604 -0.002945 -0.010780 0.019458 0.005384 0.004197 -0.006793 -0.007823 -0.002522 0.013792 0.017458 0.003573 0.013211 0.008923 -0.002299 0.010456 0.017197 -0.018174 0.004713 -0.008172 -0.002915 0.007361 0.010197 -0.003174 -0.001463 0.005076 -0.011162 0.009208 -0.004073 0.007036 0.012935 -0.013826 -0.003997 -0.008779 -0.003156 0.007392 -0.001362 -0.007050 0.004287 0.010088 -0.001531 0.007831 -0.008693 -0.006053 -0.005623 -0.005609 -0.005390 -0.000092 0.000207 -0.005057 0.009425 -0.000527 -0.005364 -0.010553 -0.008486 -0.014901 -0.001563 -0.007920 -0.004661 0.023060 0.003849 -0.006084 0.012664 0.005129 -0.009198 -0.005361 0.007453 -0.004219 -0.004762 -0.003886 -0.006758 0.006239 -0.011727 -0.012354 0.003195 0.011655 0.005729 -0.005107 0.012274 0.009637 0.003393 0.000707 0.011987 0.004402 -0.005288 0.009385 0.005921 0.014058 0.006317 0.002634 -0.010634 0.017418 0.000081 -0.005554 
number -0.060912 -0.167020 0.122988 -0.095397 0.057323 0.019170 0.045153 -0.058033 -0.192431 0.266824 0.124333 0.072119 -0.044333 -0.078247 0.005896 0.241118 0.212209 0.073991 0.215386 0.065773 -0.037216 0.166322 0.210675 -0.254861 0.107935 -0.170465 -0.068381 0.071845 0.097210 -0.017873 0.050292 0.019520 -0.213067 0.208809 -0.100102 0.101796 0.202369 -0.165419 -0.086802 -0.199334 -0.000845 0.128212 -0.093752 -0.058233 0.092389 0.142575 -0.096379 0.072688 -0.079498 -0.064198 -0.062171 -0.152593 -0.107549 0.009408 0.088701 -0.052555 0.167248 0.034335 -0.024400 -0.177566 -0.108345 -0.188594 0.054887 -0.049982 -0.048310 0.300369 0.083747 -0.137025 0.171764 0.087049 -0.073905 -0.093877 0.051719 -0.144839 -0.031356 0.019419 -0.155493 0.040260 -0.145492 -0.210234 0.082165 0.106047 0.053318 -0.010797 0.155780 0.212789 0.028410 -0.013564 0.168294 0.057302 -0.029157 0.137967 0.060090 0.167570 0.091614 0.048028 -0.092085 0.289385 -0.005519 -0.023353 
government -0.065729 -0.154984 0.115628 -0.087772 0.058360 0.017255 0.053403 -0.049186 -0.177706 0.252811 0.128567 0.061811 -0.037868 -0.079041 0.007562 0.223374 0.193619 0.064540 0.204853 0.072034 -0.034231 0.155026 0.195960 -0.251696 0.106998 -0.154461 -0.063159 0.075251 0.081934 -0.024514 0.047944 0.017034 -0.199749 0.198701 -0.090585 0.088918 0.192831 -0.156626 -0.075074 -0.199573 -0.005671 0.118338 -0.091585 -0.045372 0.081795 0.136660 -0.090465 0.064333 -0.072188 -0.065403 -0.058326 -0.141334 -0.097088 0.003682 0.082453 -0.056020 0.158685 0.032909 -0.016867 -0.161904 -0.102935 -0.178045 0.047047 -0.053922 -0.046826 0.291051 0.082334 -0.135801 0.164335 0.086419 -0.066957 -0.088351 0.055917 -0.142829 -0.023444 0.011170 -0.140817 0.035953 -0.138570 -0.203528 0.077850 0.111509 0.052567 -0.009965 0.148574 0.205257 0.025702 -0.016123 0.164833 0.058878 -0.029081 0.137361 0.052257 0.162304 0.088337 0.045169 -0.091888 0.276080 0.001418 -0.025553 
york -0.041141 -0.095616 0.069646 -0.052458 0.030549 0.012594 0.026874 -0.031058 -0.108021 0.150581 0.068142 0.041894 -0.022446 -0.038969 -0.002579 0.138003 0.114905 0.037326 0.115237 0.034596 -0.019815 0.088306 0.117434 -0.146274 0.066072 -0.098913 -0.041602 0.039707 0.052156 -0.008406 0.029572 0.008615 -0.110535 0.113277 -0.055800 0.058558 0.109412 -0.091275 -0.051912 -0.117677 -0.006949 0.064853 -0.054931 -0.028832 0.049957 0.081929 -0.049833 0.038299 -0.046607 -0.041779 -0.040506 -0.078093 -0.063389 0.001918 0.043345 -0.031804 0.091748 0.021117 -0.010602 -0.095993 -0.058708 -0.100771 0.033656 -0.033137 -0.020283 0.173046 0.053015 -0.077896 0.102758 0.051818 -0.038702 -0.055727 0.033721 -0.085454 -0.012129 0.011614 -0.088832 0.020718 -0.078313 -0.123253 0.043957 0.061447 0.035697 -0.010307 0.085709 0.116338 0.014405 -0.007505 0.093220 0.026659 -0.015678 0.077548 0.027469 0.094737 0.054747 0.026753 -0.048381 0.155186 0.001167 -0.014236 
people -0.069582 -0.185710 0.130352 -0.103246 0.062920 0.031033 0.054004 -0.062180 -0.211975 0.292884 0.141571 0.074207 -0.053452 -0.089923 0.009308 0.265114 0.231092 0.084108 0.227652 0.073490 -0.040250 0.175667 0.225372 -0.284522 0.121114 -0.180621 -0.081978 0.084376 0.106107 -0.026466 0.055856 0.018053 -0.225566 0.235492 -0.114729 0.104393 0.221506 -0.178801 -0.100058 -0.218151 -0.009597 0.132953 -0.097767 -0.053930 0.094265 0.156072 -0.099552 0.080680 -0.087475 -0.079508 -0.069780 -0.158430 -0.110592 0.004079 0.090168 -0.065201 0.185172 0.041372 -0.028140 -0.193441 -0.125862 -0.203881 0.056066 -0.063627 -0.051506 0.331384 0.092855 -0.154137 0.189351 0.105083 -0.079368 -0.110735 0.053735 -0.159386 -0.031165 0.021734 -0.170293 0.036048 -0.152337 -0.229382 0.092915 0.124749 0.065683 -0.016550 0.172651 0.229976 0.023858 -0.014329 0.186807 0.065745 -0.029989 0.147397 0.060594 0.184197 0.105546 0.060965 -0.104198 0.313374 -0.007431 -0.023138 
river -0.094491 -0.237412 0.161850 -0.135607 0.074059 0.030994 0.076727 -0.070560 -0.259764 0.362524 0.185215 0.093605 -0.068216 -0.103637 -0.003643 0.333706 0.293513 0.107402 0.291134 0.101137 -0.053697 0.230451 0.294651 -0.363465 0.156624 -0.229890 -0.090354 0.112625 0.128948 -0.029182 0.071346 0.017343 -0.289830 0.290428 -0.134024 0.129716 0.276893 -0.232009 -0.115099 -0.286323 -0.000209 0.170698 -0.131059 -0.080264 0.126504 0.197235 -0.135603 0.098130 -0.103637 -0.100676 -0.095795 -0.212002 -0.147448 0.005422 0.115548 -0.083914 0.235927 0.042964 -0.029247 -0.240026 -0.150014 -0.256292 0.074357 -0.079448 -0.066388 0.418874 0.112195 -0.195412 0.240672 0.129731 -0.102212 -0.126118 0.074035 -0.207192 -0.044937 0.019901 -0.215024 0.054234 -0.196098 -0.297189 0.122145 0.156404 0.080922 -0.009717 0.213917 0.301034 0.040338 -0.015250 0.234307 0.076623 -0.035538 0.186323 0.084880 0.236943 0.130336 0.071689 -0.131623 0.404135 0.000531 -0.031701 
place -0.024008 -0.067002 0.040943 -0.040103 0.022770 0.012097 0.022001 -0.019581 -0.074282 0.092876 0.051756 0.029102 -0.022221 -0.024837 0.000575 0.092557 0.081612 0.022591 0.079477 0.022667 -0.013652 0.058979 0.079026 -0.099767 0.036841 -0.061535 -0.026005 0.032088 0.035596 -0.008434 0.023353 0.002484 -0.074531 0.074437 -0.033095 0.036084 0.071416 -0.061973 -0.026791 -0.077866 0.002328 0.046138 -0.032405 -0.018976 0.029749 0.054810 -0.030063 0.023918 -0.025223 -0.028811 -0.028293 -0.052662 -0.041918 0.000615 0.027281 -0.018765 0.060023 0.017017 -0.013049 -0.062412 -0.036466 -0.064930 0.021671 -0.024360 -0.021635 0.109919 0.026599 -0.054256 0.066657 0.034501 -0.025455 -0.037587 0.023481 -0.051387 -0.006159 0.006852 -0.055387 0.013550 -0.058972 -0.074885 0.032147 0.037202 0.027039 -0.003729 0.058566 0.074121 0.005080 -0.007974 0.066688 0.015523 -0.014073 0.054664 0.019031 0.068537 0.028896 0.018566 -0.035981 0.100654 0.003217 -0.012137 
central -0.021610 -0.047196 0.038160 -0.026796 0.018248 0.009609 0.018803 -0.012374 -0.051475 0.072398 0.040202 0.023365 -0.012971 -0.019933 0.000337 0.073446 0.059711 0.022201 0.063541 0.018712 -0.015185 0.052669 0.065244 -0.078226 0.034677 -0.045071 -0.016018 0.026980 0.031434 -0.005442 0.010983 0.003637 -0.056284 0.062800 -0.028229 0.026927 0.060967 -0.047171 -0.027765 -0.060450 -0.003107 0.035731 -0.023849 -0.020539 0.026681 0.039358 -0.026900 0.018445 -0.027925 -0.017311 -0.017100 -0.042388 -0.028567 0.003517 0.020005 -0.019328 0.044447 0.011427 -0.007546 -0.047410 -0.033141 -0.059291 0.020475 -0.020311 -0.011977 0.087827 0.030425 -0.042509 0.053319 0.024035 -0.023625 -0.029001 0.019299 -0.041506 -0.007625 0.005684 -0.044488 0.012925 -0.045975 -0.057592 0.027442 0.027655 0.015714 -0.005862 0.044011 0.059894 0.011121 -0.006969 0.051605 0.013434 -0.009867 0.036159 0.011773 0.049455 0.025783 0.020405 -0.029177 0.088294 0.003396 -0.005312 
village -0.089879 -0.235181 0.171089 -0.132725 0.075595 0.033681 0.080213 -0.077081 -0.263063 0.376622 0.181517 0.089932 -0.063676 -0.100643 0.005977 0.332715 0.299238 0.103363 0.291048 0.102269 -0.065020 0.233226 0.286364 -0.366944 0.158673 -0.237145 -0.101261 0.102126 0.127114 -0.036188 0.072516 0.018516 -0.283389 0.303642 -0.135922 0.132763 0.294501 -0.234875 -0.117629 -0.285862 0.001223 0.180171 -0.134878 -0.075525 0.123301 0.198249 -0.133122 0.102448 -0.106541 -0.095962 -0.100435 -0.210090 -0.145625 0.012083 0.111646 -0.077779 0.230580 0.042570 -0.024341 -0.240928 -0.160601 -0.261922 0.075824 -0.079724 -0.074137 0.437002 0.123189 -0.198688 0.250705 0.135877 -0.107823 -0.143247 0.072950 -0.204354 -0.039428 0.020735 -0.217931 0.050082 -0.198207 -0.304982 0.117894 0.159288 0.082627 -0.017420 0.218383 0.304803 0.044652 -0.021103 0.237672 0.084375 -0.035287 0.194655 0.075149 0.243752 0.122733 0.071039 -0.132797 0.407732 0.001717 -0.034308 
station -0.088956 -0.223563 0.151176 -0.120134 0.073585 0.025555 0.065899 -0.075314 -0.251255 0.346988 0.171568 0.097158 -0.062361 -0.104105 0.004566 0.320137 0.270097 0.096469 0.274237 0.085799 -0.048198 0.213509 0.274139 -0.339782 0.141938 -0.225087 -0.096046 0.104598 0.124097 -0.028828 0.071050 0.025800 -0.275654 0.278871 -0.127309 0.119629 0.270030 -0.212363 -0.108930 -0.267566 -0.005597 0.168657 -0.128616 -0.075245 0.109449 0.177403 -0.128143 0.096890 -0.107940 -0.097813 -0.090592 -0.192293 -0.134384 0.009728 0.116578 -0.074619 0.213238 0.048329 -0.023505 -0.224507 -0.148303 -0.247565 0.065500 -0.068276 -0.065850 0.402567 0.118340 -0.181637 0.227601 0.124915 -0.089745 -0.127911 0.072678 -0.185375 -0.045772 0.024173 -0.207264 0.049315 -0.192569 -0.279319 0.119141 0.151307 0.076298 -0.008923 0.209818 0.284062 0.034818 -0.026845 0.222861 0.068087 -0.044310 0.186040 0.080455 0.226495 0.128831 0.073458 -0.118922 0.376118 -0.000430 -0.032784 
published -0.115933 -0.308767 0.218672 -0.183392 0.107822 0.047111 0.096781 -0.101359 -0.363120 0.490121 0.251869 0.134721 -0.080306 -0.152372 0.004668 0.444525 0.391180 0.138736 0.399874 0.126350 -0.077260 0.298977 0.381985 -0.489314 0.204717 -0.311050 -0.133403 0.139070 0.175363 -0.046946 0.104631 0.023754 -0.389750 0.391477 -0.188322 0.182208 0.385659 -0.305746 -0.156265 -0.378603 -0.015744 0.236007 -0.175618 -0.100339 0.170332 0.255741 -0.167026 0.126694 -0.135639 -0.131120 -0.114517 -0.273930 -0.189216 0.010774 0.156265 -0.105574 0.311458 0.062525 -0.044077 -0.330831 -0.199193 -0.339862 0.106183 -0.098172 -0.077346 0.562532 0.155705 -0.262911 0.323196 0.172832 -0.133514 -0.187404 0.096950 -0.265776 -0.060464 0.028331 -0.295429 0.058826 -0.275755 -0.403428 0.147985 0.200299 0.105888 -0.026163 0.282076 0.391885 0.048076 -0.033091 0.319835 0.100559 -0.063512 0.252344 0.099495 0.314293 0.164435 0.094887 -0.175328 0.535947 -0.005614 -0.034345 
died -0.062657 -0.161299 0.119519 -0.091398 0.055454 0.021568 0.052121 -0.053013 -0.193476 0.263007 0.130729 0.066552 -0.047948 -0.077093 0.001196 0.238335 0.207508 0.075196 0.202744 0.071695 -0.045817 0.163948 0.203690 -0.258796 0.106883 -0.170772 -0.063197 0.072533 0.086332 -0.028602 0.049073 0.010800 -0.208903 0.201808 -0.098906 0.101031 0.203007 -0.158269 -0.085044 -0.207622 -0.005857 0.118619 -0.085815 -0.059828 0.087300 0.140759 -0.098273 0.077536 -0.080150 -0.071484 -0.068977 -0.149278 -0.097996 0.002568 0.075302 -0.058454 0.163112 0.028677 -0.022614 -0.171581 -0.114534 -0.186004 0.056848 -0.050784 -0.043386 0.306617 0.091672 -0.140272 0.169928 0.086067 -0.066258 -0.089082 0.055342 -0.141634 -0.026582 0.022544 -0.146900 0.038463 -0.146829 -0.207843 0.085008 0.112348 0.062244 -0.014198 0.157227 0.209787 0.023667 -0.019407 0.174696 0.058339 -0.030429 0.132322 0.062563 0.166337 0.093115 0.052431 -0.098856 0.284005 0.002623 -0.016444 
founded -0.034158 -0.089695 0.055590 -0.053139 0.034067 0.014412 0.022164 -0.030010 -0.099573 0.133831 0.071012 0.037287 -0.026083 -0.036868 -0.003352 0.126314 0.108744 0.035682 0.104949 0.037160 -0.025990 0.081355 0.102896 -0.139119 0.061212 -0.083226 -0.040072 0.040876 0.050149 -0.016192 0.026349 0.012717 -0.101927 0.102971 -0.048509 0.051171 0.101123 -0.081536 -0.038478 -0.100944 0.000302 0.058564 -0.050703 -0.023247 0.049290 0.073004 -0.043318 0.036788 -0.037526 -0.039461 -0.031227 -0.079139 -0.053800 0.004538 0.041050 -0.030025 0.088557 0.015470 -0.015692 -0.092742 -0.056396 -0.095453 0.028075 -0.030398 -0.024829 0.159575 0.048881 -0.071650 0.092689 0.045922 -0.037404 -0.047599 0.024826 -0.074720 -0.020325 0.009864 -0.077510 0.017814 -0.076626 -0.109284 0.046017 0.060987 0.032344 -0.010223 0.073863 0.113267 0.009061 -0.003385 0.092225 0.030394 -0.012642 0.075325 0.026509 0.089651 0.043549 0.030699 -0.044579 0.144912 0.002104 -0.011535 
high -0.052227 -0.133235 0.089751 -0.067462 0.047009 0.019862 0.039632 -0.041679 -0.145809 0.203879 0.094712 0.054561 -0.031016 -0.060549 -0.001740 0.181065 0.158085 0.058652 0.159660 0.058203 -0.037033 0.125736 0.151938 -0.204444 0.080367 -0.127646 -0.055940 0.061347 0.069385 -0.014368 0.034715 0.016052 -0.154257 0.158332 -0.082474 0.073918 0.153921 -0.120981 -0.065775 -0.153222 -0.006854 0.090969 -0.067912 -0.042643 0.072088 0.107324 -0.074442 0.049443 -0.061753 -0.051862 -0.051625 -0.108405 -0.082067 0.006524 0.067236 -0.042949 0.129344 0.022297 -0.022615 -0.136159 -0.086836 -0.136323 0.046002 -0.039246 -0.034768 0.232828 0.062374 -0.107123 0.130400 0.070679 -0.048948 -0.076155 0.038285 -0.110240 -0.019556 0.010630 -0.119998 0.030359 -0.104679 -0.156691 0.068606 0.082898 0.047840 -0.009425 0.117573 0.162706 0.014410 -0.016027 0.133829 0.046830 -0.024333 0.107057 0.049005 0.136406 0.070340 0.041216 -0.076480 0.218625 0.004268 -0.017354 
public -0.034750 -0.104537 0.067496 -0.061734 0.029800 0.013341 0.029673 -0.033624 -0.116126 0.159971 0.076803 0.037402 -0.026488 -0.045280 0.004114 0.143492 0.129353 0.039824 0.133754 0.039712 -0.021944 0.095287 0.125185 -0.158473 0.071814 -0.099553 -0.043544 0.040763 0.060226 -0.013885 0.028816 0.013148 -0.123005 0.130815 -0.058638 0.057086 0.118843 -0.103339 -0.053011 -0.118697 0.001596 0.072995 -0.061773 -0.031523 0.051866 0.089846 -0.059437 0.043533 -0.051770 -0.043142 -0.040729 -0.090167 -0.059835 0.002233 0.054027 -0.031645 0.103077 0.018049 -0.019029 -0.102829 -0.063720 -0.116726 0.028038 -0.031159 -0.025862 0.180715 0.057852 -0.079882 0.103863 0.058906 -0.047046 -0.054495 0.031141 -0.084862 -0.019005 0.010003 -0.096503 0.028466 -0.089152 -0.125472 0.051799 0.070837 0.034985 -0.010360 0.099673 0.128696 0.019089 -0.012866 0.106058 0.035282 -0.021787 0.086527 0.037039 0.106468 0.056656 0.034653 -0.056402 0.171641 0.002059 -0.011840 
february -0.008903 -0.021591 0.013187 -0.005293 0.008544 -0.002183 0.003722 -0.005085 -0.024425 0.032341 0.010037 0.008042 -0.009980 -0.006231 0.005042 0.022891 0.019433 0.004574 0.021403 0.003140 -0.003346 0.021882 0.026442 -0.033315 0.013083 -0.014563 -0.008459 0.004460 0.011750 -0.005548 0.001715 0.004258 -0.022140 0.021752 -0.012015 0.010000 0.019625 -0.020589 -0.006119 -0.027082 -0.004358 0.013928 -0.011768 -0.004862 0.010447 0.016077 -0.013972 0.007366 -0.009137 -0.004393 -0.006906 -0.019516 -0.009485 0.005297 0.005276 -0.004726 0.019212 0.007853 0.002097 -0.015286 -0.009152 -0.015710 0.001041 -0.008939 -0.001699 0.032535 0.012653 -0.017446 0.022925 0.006697 -0.003774 -0.007521 0.002200 -0.020665 -0.006804 0.006436 -0.020287 0.001166 -0.012423 -0.027913 0.011540 0.009718 0.003534 -0.000198 0.020169 0.026548 0.007826 -0.001243 0.020674 0.008964 -0.007843 0.018806 0.010026 0.018698 0.010413 0.010404 -0.013863 0.029099 0.002412 -0.003941 
built -0.092030 -0.234993 0.167318 -0.131276 0.077685 0.030829 0.074732 -0.074180 -0.264432 0.375136 0.178622 0.105331 -0.068899 -0.111898 0.003511 0.340794 0.289639 0.100431 0.297675 0.103602 -0.055889 0.231771 0.298372 -0.376384 0.154275 -0.233411 -0.098225 0.102593 0.130535 -0.026543 0.072345 0.025736 -0.295726 0.296913 -0.140400 0.134877 0.286115 -0.232216 -0.121892 -0.289665 -0.005112 0.182169 -0.126263 -0.079970 0.125751 0.198349 -0.135130 0.103985 -0.112716 -0.096044 -0.093367 -0.215277 -0.155980 0.001607 0.123353 -0.075501 0.233535 0.043024 -0.037434 -0.247082 -0.162735 -0.261673 0.077168 -0.077101 -0.069304 0.437531 0.122107 -0.189970 0.250892 0.128356 -0.095910 -0.131704 0.076091 -0.210913 -0.044082 0.027345 -0.223813 0.052423 -0.201481 -0.297986 0.121840 0.154986 0.087636 -0.020901 0.218881 0.300159 0.037798 -0.020057 0.246040 0.072752 -0.045940 0.190524 0.082630 0.249611 0.126779 0.075272 -0.130626 0.400039 -0.000311 -0.024541 
general -0.044988 -0.134498 0.085482 -0.072310 0.040417 0.023163 0.036257 -0.041398 -0.143687 0.197173 0.100845 0.053829 -0.029858 -0.061138 0.006924 0.182300 0.161138 0.056381 0.155871 0.050019 -0.035826 0.128748 0.153778 -0.205177 0.080924 -0.124533 -0.056202 0.062556 0.073359 -0.022486 0.041003 0.009455 -0.161731 0.162889 -0.075723 0.074436 0.151885 -0.122594 -0.063087 -0.154638 -0.005686 0.096774 -0.074733 -0.040533 0.066681 0.104696 -0.070663 0.060803 -0.064899 -0.056169 -0.043604 -0.113041 -0.079075 0.004217 0.062593 -0.043937 0.130012 0.027754 -0.021772 -0.132389 -0.080966 -0.137251 0.035858 -0.036490 -0.033025 0.238596 0.069916 -0.103359 0.131140 0.066406 -0.051220 -0.077316 0.047355 -0.104951 -0.026119 0.016961 -0.113407 0.034426 -0.107543 -0.160450 0.064640 0.083280 0.045034 -0.008041 0.113292 0.168632 0.015302 -0.018302 0.131575 0.043188 -0.023199 0.105936 0.048958 0.134021 0.065810 0.044386 -0.075855 0.215797 0.000155 -0.019872 
system -0.116189 -0.289166 0.200450 -0.158152 0.099096 0.034089 0.094938 -0.092146 -0.325287 0.451112 0.223969 0.122667 -0.069901 -0.131108 0.003783 0.416799 0.360105 0.119147 0.363449 0.127659 -0.075281 0.286145 0.357189 -0.445880 0.196738 -0.280323 -0.120374 0.125090 0.163571 -0.044199 0.096856 0.021265 -0.356375 0.365263 -0.172325 0.159051 0.347804 -0.287091 -0.153405 -0.351331 -0.011787 0.219838 -0.153317 -0.097127 0.150853 0.236452 -0.167378 0.123974 -0.135577 -0.127083 -0.109977 -0.260877 -0.186929 0.007197 0.150142 -0.096578 0.276942 0.054228 -0.036267 -0.293653 -0.191480 -0.310274 0.097638 -0.094812 -0.079332 0.523933 0.145533 -0.237151 0.299562 0.159638 -0.118285 -0.162741 0.100740 -0.254088 -0.047558 0.036016 -0.268713 0.061471 -0.251237 -0.368422 0.139246 0.184944 0.096217 -0.016057 0.260138 0.365174 0.050218 -0.029536 0.290731 0.093136 -0.054662 0.239421 0.095202 0.299978 0.155696 0.094028 -0.159919 0.490254 0.001065 -0.042732 
found -0.100858 -0.255795 0.172687 -0.146800 0.085083 0.029988 0.074644 -0.075072 -0.280316 0.392390 0.200497 0.101249 -0.064785 -0.114345 -0.000165 0.363062 0.306923 0.108964 0.317953 0.104257 -0.061058 0.240240 0.313855 -0.387265 0.171796 -0.245839 -0.108368 0.116122 0.131887 -0.038904 0.079769 0.018825 -0.313343 0.315955 -0.157324 0.139890 0.303997 -0.242254 -0.132215 -0.308613 -0.005276 0.182187 -0.141415 -0.076657 0.133459 0.205688 -0.136269 0.114159 -0.122987 -0.111496 -0.095405 -0.232525 -0.153644 0.015083 0.125664 -0.086609 0.249632 0.045889 -0.030705 -0.256717 -0.166220 -0.276433 0.074697 -0.080383 -0.070602 0.462152 0.129120 -0.208570 0.259527 0.136170 -0.103075 -0.135785 0.081067 -0.212220 -0.049938 0.024457 -0.230464 0.057235 -0.220401 -0.322031 0.121997 0.171714 0.087367 -0.011181 0.229786 0.318884 0.042520 -0.028971 0.256220 0.079202 -0.041308 0.201737 0.090718 0.262248 0.132858 0.074688 -0.143859 0.435188 -0.002667 -0.029112 
club -0.070019 -0.168600 0.117027 -0.093024 0.057288 0.022553 0.051993 -0.054405 -0.196634 0.272149 0.138109 0.067658 -0.049777 -0.083699 0.006418 0.243979 0.218792 0.077042 0.221119 0.069448 -0.044664 0.163473 0.215029 -0.266423 0.114345 -0.170503 -0.071232 0.074046 0.097282 -0.020406 0.050252 0.019185 -0.216698 0.211251 -0.100874 0.097034 0.207985 -0.165753 -0.089029 -0.204870 -0.003345 0.128785 -0.099573 -0.057626 0.092495 0.142743 -0.095105 0.076107 -0.081659 -0.069651 -0.069524 -0.150454 -0.111572 0.010432 0.090463 -0.052505 0.175294 0.035068 -0.021394 -0.180031 -0.109271 -0.191115 0.052274 -0.051788 -0.050082 0.309525 0.083733 -0.136684 0.179949 0.096710 -0.068105 -0.096224 0.057593 -0.151331 -0.034718 0.019881 -0.155783 0.037507 -0.154728 -0.220857 0.093195 0.119135 0.057257 -0.012228 0.157039 0.217089 0.026930 -0.018990 0.176364 0.053029 -0.032086 0.136618 0.056159 0.182478 0.102279 0.052006 -0.099117 0.300371 0.001950 -0.019819 
england -0.025318 -0.061907 0.039241 -0.033184 0.022921 0.012842 0.021102 -0.021402 -0.075717 0.096340 0.043702 0.025538 -0.016405 -0.027947 0.005479 0.090985 0.077772 0.027617 0.074345 0.031563 -0.019480 0.061731 0.079516 -0.093727 0.042518 -0.067819 -0.030035 0.034142 0.035555 -0.006714 0.016669 0.000188 -0.077155 0.077080 -0.034928 0.031953 0.080858 -0.063495 -0.029914 -0.076952 -0.001095 0.051892 -0.033288 -0.015357 0.030933 0.049214 -0.040106 0.032060 -0.027977 -0.024043 -0.018749 -0.051052 -0.034573 0.006353 0.032253 -0.024911 0.066704 0.007594 -0.013680 -0.069863 -0.038071 -0.073326 0.016732 -0.019681 -0.014894 0.117711 0.036661 -0.048854 0.062723 0.033546 -0.029624 -0.031718 0.026274 -0.054555 -0.008735 0.006809 -0.060996 0.014363 -0.051138 -0.077879 0.035599 0.044179 0.022585 -0.006690 0.060358 0.085089 0.013871 -0.004125 0.063629 0.026685 -0.011843 0.050894 0.017917 0.064274 0.037549 0.018975 -0.030689 0.103723 0.002956 -0.007224 
major -0.019455 -0.050752 0.034477 -0.027733 0.016441 0.009120 0.013635 -0.014656 -0.051103 0.079654 0.033927 0.022185 -0.017052 -0.024661 0.001272 0.075151 0.061933 0.025025 0.065999 0.021461 -0.016904 0.049653 0.059892 -0.080790 0.033451 -0.048540 -0.017033 0.023286 0.024929 -0.008565 0.010991 0.009361 -0.056748 0.058858 -0.033378 0.028558 0.055321 -0.044690 -0.024598 -0.055397 0.002897 0.038854 -0.022227 -0.020586 0.025933 0.046058 -0.031035 0.025195 -0.022398 -0.020165 -0.020648 -0.042116 -0.028870 -0.001493 0.028864 -0.020484 0.053778 0.008648 -0.006868 -0.055529 -0.030090 -0.056714 0.020262 -0.015511 -0.014760 0.092832 0.025676 -0.036528 0.054883 0.029677 -0.022003 -0.026694 0.019726 -0.041845 -0.009307 0.006042 -0.041381 0.009047 -0.044153 -0.067005 0.025506 0.029475 0.016119 -0.007220 0.044495 0.062504 0.002246 -0.005876 0.050498 0.012191 -0.006780 0.044570 0.013845 0.045834 0.027146 0.014744 -0.023775 0.081768 -0.002745 -0.006627 
history -0.018298 -0.046044 0.034273 -0.024620 0.019665 0.003584 0.012518 -0.013159 -0.052742 0.070671 0.031332 0.020298 -0.011830 -0.021865 -0.003889 0.069246 0.051468 0.020350 0.058858 0.014207 -0.015942 0.045852 0.056245 -0.066354 0.032326 -0.044668 -0.019730 0.021962 0.024231 -0.005690 0.016826 0.003468 -0.058589 0.061708 -0.025557 0.030286 0.059591 -0.042268 -0.018668 -0.051475 0.003249 0.032433 -0.025376 -0.014374 0.025681 0.038889 -0.027574 0.014043 -0.016803 -0.018061 -0.014372 -0.045039 -0.026738 -0.003240 0.025403 -0.015866 0.042399 0.014506 -0.011210 -0.050657 -0.033559 -0.049163 0.017132 -0.012582 -0.016298 0.080606 0.019767 -0.037166 0.043893 0.029106 -0.023963 -0.026813 0.014967 -0.041868 -0.009686 0.006649 -0.037956 0.010539 -0.043545 -0.058868 0.025692 0.027942 0.016857 -0.006113 0.040833 0.054496 0.009213 -0.008265 0.050370 0.012081 -0.011185 0.042331 0.018699 0.046433 0.022995 0.011473 -0.020824 0.077348 -0.003681 -0.006917 
population -0.084212 -0.204620 0.151171 -0.122577 0.066991 0.034180 0.069308 -0.072897 -0.242325 0.325654 0.161503 0.081406 -0.053609 -0.093583 0.010499 0.304552 0.254447 0.085303 0.258970 0.083135 -0.052950 0.201522 0.266213 -0.331274 0.140611 -0.212850 -0.089037 0.088281 0.120607 -0.028568 0.070624 0.021455 -0.254568 0.268810 -0.120217 0.123139 0.259968 -0.207976 -0.102660 -0.249545 -0.006694 0.161177 -0.117599 -0.072837 0.113194 0.170404 -0.111990 0.095488 -0.090579 -0.081463 -0.086119 -0.185376 -0.134649 0.001450 0.099824 -0.066919 0.203513 0.043927 -0.036005 -0.220592 -0.131699 -0.234854 0.076096 -0.070986 -0.052243 0.381389 0.112009 -0.177594 0.224130 0.114873 -0.092777 -0.127126 0.071973 -0.184262 -0.032572 0.022779 -0.189433 0.045199 -0.181699 -0.259954 0.110669 0.139703 0.076933 -0.019115 0.190039 0.267818 0.025399 -0.021998 0.212515 0.075018 -0.041672 0.177343 0.067155 0.222563 0.118897 0.057326 -0.119175 0.350251 -0.007374 -0.021440 
home -0.011581 -0.032246 0.022297 -0.018500 0.007625 0.005175 0.012162 -0.014054 -0.032775 0.050694 0.023491 0.012878 -0.006191 -0.020338 0.004862 0.043092 0.036201 0.010537 0.040704 0.013181 -0.010205 0.027647 0.035523 -0.049598 0.019029 -0.035030 -0.018511 0.011475 0.021792 -0.005472 0.006135 -0.001785 -0.039939 0.039782 -0.023447 0.016128 0.041119 -0.031247 -0.019064 -0.043359 -0.005419 0.021830 -0.013924 -0.013361 0.019859 0.024710 -0.016684 0.014006 -0.020272 -0.014865 -0.013309 -0.025604 -0.022521 -0.003613 0.015371 -0.008493 0.031705 0.006298 -0.000328 -0.031938 -0.022278 -0.035896 0.011389 -0.010743 -0.008850 0.055193 0.015577 -0.029084 0.030972 0.017159 -0.014953 -0.019967 0.008786 -0.023939 -0.010431 0.002457 -0.026838 0.004863 -0.023551 -0.045707 0.011436 0.021824 0.015894 -0.001569 0.029010 0.044147 0.003244 -0.006722 0.035476 0.010882 -0.008270 0.026281 0.005894 0.033391 0.019433 0.007075 -0.018010 0.056310 -0.003847 -0.002587 
games -0.039256 -0.118028 0.073755 -0.057849 0.038459 0.013990 0.036912 -0.032441 -0.121234 0.169721 0.089345 0.052172 -0.035481 -0.052976 -0.003474 0.159759 0.138233 0.045058 0.144205 0.051367 -0.031577 0.106015 0.135359 -0.173549 0.076486 -0.114651 -0.049827 0.049213 0.063317 -0.011004 0.035361 0.009041 -0.137103 0.139301 -0.068328 0.069525 0.139992 -0.108351 -0.051228 -0.133961 -0.006945 0.085806 -0.064905 -0.038158 0.054844 0.088463 -0.059984 0.054625 -0.048451 -0.044242 -0.039356 -0.094160 -0.070291 -0.000969 0.060095 -0.031024 0.108723 0.026659 -0.015369 -0.114051 -0.070471 -0.128320 0.036074 -0.037957 -0.033563 0.206314 0.054080 -0.095125 0.115614 0.063235 -0.044490 -0.062080 0.035444 -0.098612 -0.022999 0.014931 -0.103081 0.025792 -0.090945 -0.140596 0.050578 0.078799 0.037682 -0.009552 0.107056 0.140898 0.021661 -0.008306 0.110729 0.032597 -0.023641 0.091344 0.033465 0.119493 0.055301 0.037315 -0.068056 0.194032 -0.000617 -0.012917 
region -0.058807 -0.167030 0.112882 -0.101010 0.058803 0.024313 0.053248 -0.051562 -0.186207 0.265492 0.131415 0.069403 -0.047371 -0.073063 0.003681 0.232247 0.206331 0.074850 0.211492 0.071841 -0.046594 0.159378 0.205871 -0.260639 0.109529 -0.164458 -0.076383 0.073533 0.096114 -0.018232 0.052854 0.015826 -0.205518 0.204920 -0.104168 0.099286 0.196651 -0.160527 -0.082932 -0.198233 -0.010008 0.118800 -0.096780 -0.049828 0.089587 0.140381 -0.095003 0.066242 -0.081128 -0.066140 -0.060060 -0.154426 -0.099413 0.005436 0.081026 -0.051672 0.167159 0.030502 -0.020698 -0.176221 -0.105455 -0.183033 0.047642 -0.052077 -0.051654 0.304299 0.086404 -0.134540 0.174457 0.092684 -0.071911 -0.097736 0.053134 -0.149481 -0.024213 0.015698 -0.155649 0.034252 -0.141067 -0.211925 0.085370 0.112611 0.059842 -0.009494 0.158379 0.207839 0.029145 -0.016442 0.165813 0.055475 -0.025093 0.136052 0.061499 0.166382 0.087199 0.047942 -0.089811 0.279876 0.001382 -0.027113 
km -0.090567 -0.214191 0.149674 -0.126709 0.076349 0.034194 0.067184 -0.069616 -0.231659 0.334337 0.162867 0.093953 -0.059848 -0.098867 -0.004540 0.303364 0.269392 0.097616 0.268671 0.085601 -0.052365 0.210610 0.264811 -0.321719 0.145804 -0.211962 -0.083999 0.100469 0.117208 -0.034594 0.064692 0.023168 -0.255485 0.272374 -0.128849 0.119000 0.254309 -0.206057 -0.107155 -0.256681 -0.006906 0.162731 -0.110158 -0.062447 0.107153 0.167356 -0.110750 0.098672 -0.102411 -0.092840 -0.086108 -0.187066 -0.138077 0.008699 0.108721 -0.067000 0.213880 0.044497 -0.021718 -0.210961 -0.141208 -0.236855 0.071772 -0.064872 -0.061990 0.378412 0.110323 -0.173406 0.226500 0.119911 -0.096524 -0.126686 0.076633 -0.190414 -0.031520 0.018650 -0.199139 0.045992 -0.182875 -0.265606 0.103463 0.140720 0.073186 -0.017935 0.199245 0.268051 0.036524 -0.027292 0.212181 0.070733 -0.035997 0.170721 0.069061 0.224437 0.113432 0.070486 -0.112267 0.357043 -0.002738 -0.029834 
party -0.085971 -0.213727 0.151347 -0.120221 0.076635 0.034771 0.066321 -0.067667 -0.241674 0.346187 0.169536 0.091336 -0.060110 -0.101583 -0.002567 0.308976 0.272677 0.089274 0.274961 0.092308 -0.055595 0.210712 0.279261 -0.349265 0.142659 -0.220498 -0.088763 0.099233 0.123093 -0.032041 0.062157 0.018712 -0.272481 0.269346 -0.126100 0.134003 0.264170 -0.212171 -0.113054 -0.267952 0.000826 0.163017 -0.126380 -0.067181 0.119177 0.183546 -0.123437 0.094064 -0.105825 -0.093555 -0.087117 -0.198901 -0.134577 0.012562 0.114561 -0.079430 0.211181 0.048609 -0.028735 -0.231074 -0.143892 -0.246459 0.064974 -0.067365 -0.065265 0.404402 0.109864 -0.181992 0.226529 0.113709 -0.098345 -0.121072 0.077630 -0.191994 -0.041920 0.019639 -0.207324 0.043827 -0.193818 -0.275162 0.118168 0.151157 0.080965 -0.017374 0.196865 0.274562 0.030036 -0.023095 0.221889 0.078181 -0.045572 0.181492 0.074476 0.230839 0.124661 0.067956 -0.120813 0.374146 -0.008890 -0.032881 
song -0.093558 -0.236335 0.163067 -0.136899 0.070228 0.036387 0.076597 -0.080578 -0.265065 0.365858 0.183515 0.095679 -0.058661 -0.103739 0.011202 0.338945 0.288181 0.099073 0.290872 0.090587 -0.058988 0.231502 0.283363 -0.368560 0.152248 -0.238166 -0.095720 0.102934 0.130678 -0.024555 0.072579 0.018045 -0.294518 0.291227 -0.145117 0.129459 0.278572 -0.231173 -0.123851 -0.287573 0.000332 0.168416 -0.128888 -0.070715 0.124533 0.198807 -0.129521 0.104468 -0.102303 -0.098616 -0.085226 -0.212498 -0.145251 0.012235 0.119962 -0.071270 0.227739 0.043178 -0.031385 -0.240674 -0.151367 -0.262078 0.073744 -0.072426 -0.069498 0.422675 0.118990 -0.192911 0.242979 0.125404 -0.105847 -0.131151 0.076985 -0.205259 -0.035246 0.020803 -0.209119 0.048948 -0.195448 -0.293435 0.116171 0.152799 0.077356 -0.017137 0.218918 0.294847 0.040019 -0.016490 0.237088 0.076166 -0.038983 0.187850 0.086043 0.237530 0.135516 0.069915 -0.137515 0.394432 -0.001929 -0.028698 
single -0.050448 -0.133097 0.093904 -0.076222 0.039346 0.014147 0.036058 -0.037419 -0.147830 0.212683 0.105925 0.048969 -0.039423 -0.057084 0.005601 0.196087 0.160121 0.061017 0.167809 0.054366 -0.032025 0.126492 0.167287 -0.211112 0.091713 -0.136688 -0.061465 0.059409 0.071926 -0.014527 0.046551 0.011183 -0.170975 0.165741 -0.079879 0.079187 0.164689 -0.125828 -0.067263 -0.167375 0.001649 0.096006 -0.077899 -0.040469 0.073942 0.110934 -0.069239 0.062515 -0.061764 -0.061174 -0.048174 -0.122877 -0.080502 0.009463 0.061209 -0.044873 0.136769 0.030498 -0.015990 -0.135682 -0.086551 -0.151065 0.047799 -0.042437 -0.038204 0.237067 0.062918 -0.114050 0.139261 0.071827 -0.054380 -0.076764 0.038758 -0.117322 -0.028913 0.015579 -0.120272 0.031972 -0.111531 -0.173942 0.070684 0.084237 0.047933 -0.012076 0.128357 0.167715 0.015210 -0.019000 0.131732 0.042785 -0.019022 0.108260 0.051101 0.134937 0.074432 0.044687 -0.071837 0.228215 -0.004696 -0.014290 
french -0.049248 -0.113218 0.082864 -0.071183 0.036406 0.012343 0.035815 -0.032535 -0.133630 0.186835 0.085884 0.049308 -0.033220 -0.059028 0.006892 0.168873 0.142743 0.052779 0.146969 0.054501 -0.030751 0.115372 0.146540 -0.184236 0.073306 -0.119516 -0.047273 0.052985 0.062638 -0.011801 0.040790 0.014735 -0.149284 0.141678 -0.066005 0.064202 0.142082 -0.108342 -0.058757 -0.141337 -0.005066 0.088813 -0.068426 -0.037741 0.066051 0.100907 -0.060600 0.048970 -0.051559 -0.045845 -0.043319 -0.109089 -0.069439 0.008405 0.053029 -0.037231 0.115547 0.018550 -0.016863 -0.121401 -0.071376 -0.123548 0.033214 -0.041458 -0.037815 0.207104 0.063069 -0.095653 0.126797 0.063334 -0.053155 -0.066940 0.034816 -0.101316 -0.019319 0.012817 -0.106874 0.023117 -0.102043 -0.149395 0.055557 0.081031 0.039128 -0.007807 0.103270 0.151620 0.023346 -0.015376 0.114004 0.041877 -0.018427 0.099633 0.043015 0.124429 0.069623 0.040804 -0.060811 0.202924 -0.004458 -0.019658 
small -0.029984 -0.068192 0.049557 -0.038286 0.020452 0.014849 0.024112 -0.027413 -0.083862 0.112994 0.055351 0.031135 -0.017655 -0.033515 0.000846 0.100572 0.089771 0.032043 0.088914 0.026833 -0.017812 0.065463 0.089077 -0.112633 0.046229 -0.070587 -0.032897 0.035308 0.034018 -0.009031 0.018985 0.002722 -0.085541 0.084391 -0.046719 0.039238 0.083287 -0.072073 -0.038241 -0.083453 0.003255 0.055385 -0.043185 -0.025255 0.034365 0.054832 -0.042627 0.030426 -0.037216 -0.033842 -0.027760 -0.065366 -0.048255 0.001566 0.041017 -0.025229 0.066937 0.009517 -0.012262 -0.078233 -0.050811 -0.073548 0.024928 -0.024934 -0.021636 0.124818 0.036507 -0.062412 0.072813 0.037983 -0.029885 -0.036523 0.026442 -0.059770 -0.014374 0.004031 -0.062889 0.014480 -0.061143 -0.087225 0.037257 0.048537 0.020755 -0.000950 0.068912 0.090435 0.016438 -0.005806 0.078403 0.023519 -0.011144 0.061301 0.022357 0.071452 0.042912 0.026751 -0.035833 0.125229 -0.002517 -0.010778 
church -0.083958 -0.218893 0.150212 -0.124950 0.076028 0.029749 0.063321 -0.069340 -0.246929 0.340063 0.166090 0.091405 -0.062379 -0.096578 0.000469 0.313191 0.268532 0.091080 0.272831 0.088034 -0.048943 0.211283 0.271617 -0.337887 0.144959 -0.219585 -0.092022 0.101645 0.120272 -0.030634 0.072058 0.023950 -0.265235 0.267157 -0.128630 0.121052 0.263697 -0.205179 -0.111139 -0.269737 -0.009177 0.159627 -0.113063 -0.067292 0.120400 0.184757 -0.115040 0.097663 -0.100944 -0.085126 -0.081755 -0.197409 -0.131605 0.009072 0.105172 -0.066347 0.216861 0.041155 -0.027305 -0.230694 -0.145672 -0.233206 0.073837 -0.067756 -0.065363 0.396909 0.111298 -0.183325 0.228425 0.116749 -0.093908 -0.119731 0.065308 -0.187959 -0.032012 0.029078 -0.196764 0.048865 -0.190080 -0.277232 0.102494 0.144175 0.072762 -0.020943 0.204201 0.273635 0.032970 -0.022152 0.217917 0.077099 -0.039248 0.179150 0.069782 0.218878 0.116885 0.071533 -0.124354 0.365576 0.002577 -0.029604 
species -0.127922 -0.335379 0.241346 -0.197633 0.122396 0.054644 0.105590 -0.105103 -0.377837 0.522884 0.251873 0.131898 -0.081564 -0.155546 0.002781 0.486531 0.428671 0.153860 0.421266 0.133839 -0.084277 0.325548 0.427597 -0.525782 0.238263 -0.342270 -0.140877 0.149216 0.190208 -0.046785 0.113739 0.022885 -0.408805 0.420607 -0.198930 0.196450 0.414125 -0.332230 -0.166873 -0.409147 -0.011140 0.250969 -0.183031 -0.113376 0.186087 0.286075 -0.193012 0.147378 -0.160911 -0.148343 -0.129746 -0.306308 -0.221510 0.015848 0.175651 -0.113884 0.342325 0.058016 -0.052443 -0.337433 -0.224252 -0.374305 0.109660 -0.114507 -0.083728 0.610170 0.170420 -0.279150 0.358613 0.185442 -0.143430 -0.180434 0.106529 -0.282230 -0.061347 0.036182 -0.300623 0.082046 -0.286665 -0.424551 0.167276 0.224323 0.118053 -0.014422 0.314480 0.435348 0.050591 -0.024127 0.350650 0.114330 -0.062129 0.285022 0.121846 0.344158 0.188585 0.102675 -0.197790 0.584990 -0.002030 -0.042215 
st -0.039484 -0.114621 0.083743 -0.065250 0.037329 0.011003 0.040762 -0.039714 -0.135602 0.181199 0.089893 0.043342 -0.030625 -0.051915 0.004885 0.166997 0.139610 0.052344 0.144202 0.050703 -0.024122 0.108327 0.139576 -0.182403 0.076837 -0.112579 -0.050224 0.057361 0.062687 -0.017180 0.033090 0.005584 -0.146155 0.144033 -0.068844 0.065997 0.139118 -0.106812 -0.064804 -0.143225 -0.006678 0.080943 -0.067905 -0.032448 0.065205 0.096234 -0.060154 0.052376 -0.050104 -0.047700 -0.050207 -0.099024 -0.077097 0.003766 0.059294 -0.042583 0.109085 0.021485 -0.014068 -0.116108 -0.072440 -0.125220 0.037931 -0.033779 -0.032929 0.206254 0.064809 -0.092608 0.122140 0.064353 -0.047344 -0.065309 0.036482 -0.098418 -0.023793 0.016687 -0.107343 0.020404 -0.100716 -0.150125 0.058219 0.073592 0.036788 -0.012941 0.103725 0.147581 0.017571 -0.015933 0.122217 0.040279 -0.022971 0.089893 0.037421 0.121914 0.061985 0.040410 -0.064807 0.196930 0.003193 -0.019189 
band -0.091536 -0.254796 0.179857 -0.145656 0.085244 0.036505 0.078868 -0.082949 -0.277116 0.386080 0.192539 0.107899 -0.069130 -0.114110 0.011928 0.360877 0.306012 0.107807 0.307132 0.100327 -0.057849 0.241436 0.311409 -0.384659 0.169926 -0.246540 -0.102762 0.108061 0.142878 -0.026667 0.077114 0.015782 -0.314383 0.311012 -0.147133 0.139747 0.308934 -0.239235 -0.122907 -0.294470 -0.008111 0.189407 -0.141317 -0.072468 0.124729 0.211447 -0.143582 0.113862 -0.109501 -0.108476 -0.101848 -0.213157 -0.153525 0.010400 0.128602 -0.081547 0.242803 0.045695 -0.032190 -0.252506 -0.166473 -0.266132 0.077895 -0.082248 -0.071416 0.452414 0.119009 -0.201786 0.258364 0.133501 -0.104495 -0.134741 0.089747 -0.206825 -0.046180 0.022377 -0.232570 0.057062 -0.219140 -0.317891 0.116535 0.168676 0.091863 -0.011544 0.227739 0.310778 0.034794 -0.021977 0.245916 0.086476 -0.047433 0.208945 0.090680 0.261218 0.131775 0.081740 -0.136330 0.425518 0.006540 -0.040589 
career -0.030631 -0.091662 0.064943 -0.052196 0.031288 0.016298 0.023746 -0.022441 -0.103327 0.137922 0.067840 0.040839 -0.023313 -0.044711 0.005606 0.121182 0.108546 0.042251 0.108080 0.031433 -0.019577 0.080271 0.105681 -0.139443 0.055413 -0.085606 -0.038635 0.039958 0.045743 -0.012758 0.026883 0.014423 -0.109042 0.110194 -0.050677 0.055429 0.103449 -0.083331 -0.044009 -0.101514 -0.007231 0.061519 -0.047591 -0.025193 0.051535 0.071031 -0.047363 0.040171 -0.039602 -0.040906 -0.028405 -0.074417 -0.055556 -0.000693 0.048793 -0.024793 0.089104 0.014777 -0.015990 -0.088748 -0.054839 -0.090622 0.027815 -0.031318 -0.018873 0.161877 0.040113 -0.068456 0.086264 0.043533 -0.037540 -0.053125 0.025141 -0.074344 -0.020300 0.004077 -0.080029 0.017318 -0.069935 -0.110476 0.045323 0.055626 0.027664 -0.000897 0.077448 0.106999 0.008900 -0.004494 0.088181 0.029539 -0.016291 0.066475 0.028169 0.088265 0.043694 0.029868 -0.048695 0.153435 -0.004943 -0.016016 
player -0.071034 -0.196485 0.143137 -0.107936 0.064392 0.031954 0.056793 -0.061257 -0.228334 0.301852 0.157012 0.084647 -0.049632 -0.094348 0.009322 0.279265 0.238586 0.088198 0.252981 0.075610 -0.053045 0.191892 0.241238 -0.303383 0.138034 -0.195288 -0.085320 0.090152 0.104524 -0.023335 0.063815 0.020153 -0.237708 0.245532 -0.111339 0.116349 0.238197 -0.184044 -0.095343 -0.239439 0.000207 0.146583 -0.112174 -0.065239 0.097120 0.157738 -0.111615 0.079688 -0.096989 -0.083929 -0.079283 -0.171801 -0.118799 0.010290 0.102612 -0.061225 0.196338 0.041539 -0.022888 -0.200869 -0.135165 -0.216287 0.065761 -0.061968 -0.048995 0.357529 0.101629 -0.155754 0.211286 0.111670 -0.087823 -0.107889 0.064000 -0.172519 -0.038261 0.014235 -0.180354 0.045544 -0.174561 -0.254110 0.094142 0.136257 0.062860 -0.014137 0.182675 0.247924 0.033597 -0.023519 0.198193 0.064705 -0.040261 0.156490 0.072790 0.207060 0.109369 0.065262 -0.107563 0.332204 0.001557 -0.025688 
written -0.056462 -0.137602 0.104095 -0.083383 0.043590 0.017224 0.047065 -0.049748 -0.154824 0.211052 0.108681 0.055615 -0.042629 -0.068284 0.003410 0.201989 0.173347 0.054248 0.173100 0.061244 -0.038221 0.128768 0.166417 -0.210992 0.095736 -0.142085 -0.056251 0.059664 0.080490 -0.012609 0.042796 0.009647 -0.169846 0.168537 -0.085654 0.075997 0.163645 -0.136686 -0.066563 -0.169101 -0.007043 0.100506 -0.075439 -0.048158 0.069637 0.111651 -0.076900 0.057689 -0.063794 -0.059970 -0.052244 -0.119609 -0.090994 0.004844 0.068543 -0.051154 0.139122 0.024462 -0.020109 -0.149445 -0.095507 -0.153976 0.047675 -0.046148 -0.041193 0.250485 0.068463 -0.116939 0.141011 0.072810 -0.057635 -0.080896 0.046611 -0.121545 -0.027391 0.007941 -0.126992 0.033892 -0.124044 -0.180493 0.068677 0.094942 0.046516 -0.013734 0.122595 0.179672 0.021161 -0.014474 0.144145 0.043282 -0.021722 0.109157 0.046266 0.144542 0.078371 0.048102 -0.078238 0.238047 0.003237 -0.017162 
