1417 100
C:4507427:65.6% 0.004003 0.004419 -0.003830 -0.003278 0.001367 0.003021 0.000941 0.000211 -0.003604 0.002218 -0.004356 0.001250 -0.000751 -0.000957 -0.003316 -0.001882 0.002579 0.003025 0.002969 0.001597 0.001545 -0.003803 -0.004096 0.004970 0.003801 0.003090 -0.000604 0.004016 -0.000495 0.000735 -0.000149 -0.002983 0.001312 -0.001337 -0.003825 0.004754 0.004379 -0.001095 -0.000226 0.000509 -0.003638 -0.004007 0.004555 0.000063 -0.002582 -0.003042 -0.003076 0.001697 0.000201 0.001331 -0.004214 -0.003808 -0.000130 0.001144 0.002550 -0.003170 0.004080 0.000927 0.001120 -0.000608 0.002986 -0.002288 -0.002097 0.002158 -0.000753 0.001031 0.001805 -0.004089 -0.001983 0.002914 0.004232 0.003932 -0.003047 -0.002108 -0.000909 0.002001 -0.003788 0.002998 0.002788 -0.001599 -0.001552 -0.002238 0.004229 0.003912 -0.001180 0.004215 0.004820 0.001815 0.004983 -0.003111 -0.001532 -0.002107 -0.002907 0.002815 0.001579 0.000425 -0.002194 0.001524 0.003059 0.000194 
O:4087172:smoking -0.328610 -0.007850 0.331227 0.172638 0.334276 -0.126028 -0.096608 -0.371198 -0.236791 0.479946 -0.021336 0.435709 -0.267074 -0.166341 -0.260738 0.642832 0.251526 -0.280120 0.620452 0.078865 -0.611515 0.211080 0.137506 -0.306946 0.144680 -0.480639 0.297172 0.233564 0.395311 -0.155327 -0.253977 0.026719 -0.274764 0.320574 0.075749 0.098185 -0.061071 0.096054 0.235427 -0.160033 -0.099229 0.146534 -0.329878 0.194370 0.553419 -0.138068 0.066166 -0.197356 0.171091 -0.058680 0.147665 -0.064056 -0.117091 -0.047157 -0.360904 -0.174166 0.048169 0.170001 -0.236826 -0.480474 0.109316 0.027389 0.233934 -0.008616 0.197472 0.210108 0.247568 -0.124842 0.348531 0.424061 0.304325 -0.004811 0.009049 -0.315183 -0.125997 -0.290963 -0.344014 -0.216549 -0.148883 -0.458647 0.166418 0.550438 -0.086375 -0.444779 0.333510 0.449427 0.082474 0.087110 0.310698 -0.028504 -0.266317 0.215521 -0.235059 0.338232 0.510571 0.287471 0.019854 0.078379 -0.064545 -0.231082 
O:4087178:abstinence -0.377496 0.029245 0.323917 0.179018 0.334276 -0.128760 -0.058521 -0.400688 -0.207456 0.533891 -0.046955 0.430762 -0.238050 -0.210450 -0.252756 0.631567 0.290491 -0.265040 0.636546 0.060599 -0.592846 0.232793 0.109646 -0.277029 0.100788 -0.424730 0.335348 0.227298 0.402316 -0.154818 -0.265746 0.030435 -0.255149 0.352524 0.081220 0.122025 -0.082563 0.104075 0.257402 -0.125156 -0.044825 0.167237 -0.368529 0.200780 0.606845 -0.182730 0.077740 -0.169386 0.187421 -0.133550 0.207196 -0.084593 -0.131516 -0.093617 -0.360831 -0.219167 0.052941 0.183197 -0.195183 -0.475056 0.159253 0.053292 0.225556 -0.008167 0.241663 0.196270 0.238972 -0.151206 0.328646 0.393737 0.312690 0.067246 0.008594 -0.346553 -0.147057 -0.305581 -0.309341 -0.198449 -0.199486 -0.466791 0.197704 0.566289 -0.051831 -0.402591 0.342549 0.431709 0.048182 0.039053 0.261397 -0.048602 -0.257719 0.172176 -0.209031 0.332740 0.537739 0.260889 0.025977 0.071667 -0.044405 -0.213809 
I:3675717:1 -1.047735 0.536319 0.632042 0.562744 0.742015 -0.268267 0.218867 -1.345609 -0.339247 0.876391 -0.452532 0.952729 -0.486548 -0.871242 -0.590541 1.412548 0.637157 -1.142001 1.402977 -0.817404 -1.381410 0.623228 -0.257896 -0.518587 -0.083837 -0.645962 0.968738 0.991346 0.942661 -0.820561 -0.658216 0.122519 -0.391944 1.037507 0.664653 0.957805 -0.550093 0.337070 0.938222 -0.331489 0.473555 0.566229 -1.224458 0.829370 1.304491 -0.493783 -0.096661 -0.368003 0.503240 -0.897684 0.919778 -0.257645 -0.423675 -0.535034 -1.163425 -0.481888 -0.353124 0.882368 -0.792660 -1.204221 0.196907 0.197841 0.869654 -0.078831 1.073213 0.712324 -0.212324 -0.337512 0.299418 0.580386 0.797504 0.873351 -0.712763 -0.846234 -0.396202 -0.628073 -0.012431 -0.961009 -0.509995 -1.567273 0.589083 1.265590 -0.341511 -1.113110 0.906278 0.524861 -0.284192 -0.147179 -0.100003 -0.177392 -0.508431 0.158014 -0.499347 0.981754 1.241756 0.717815 -0.136910 0.060190 0.306623 -0.603404 
I:3675718:1 -0.583758 -0.215634 0.093765 0.353047 0.487113 0.079805 -0.438137 0.168739 -0.344368 0.748065 0.243242 0.809386 -0.084853 0.063443 -0.404414 0.928036 0.034791 0.237428 0.941229 0.796589 -0.552263 0.381204 0.669007 -0.457568 0.662576 -0.925550 0.190716 0.033386 0.645879 -0.360243 -0.320861 -0.151442 -0.243805 0.676010 -0.210909 -0.563454 -0.037475 0.433743 0.247848 0.149946 -0.581404 -0.019927 -0.081556 -0.185023 0.758229 -0.441188 0.391465 -0.312059 0.369566 0.405659 -0.218036 0.236299 -0.079431 0.449455 -0.482241 -0.209018 0.445504 0.390161 0.106732 -0.420440 0.117461 -0.067116 0.254412 0.286948 -0.378018 -0.045465 0.791478 -0.150588 0.810432 0.886535 0.335725 -0.588736 0.577090 -0.059550 -0.554647 0.104658 -0.962058 -0.211803 0.232308 0.067611 0.039725 0.535075 -0.196759 -0.690591 0.460315 0.907945 0.571179 0.438595 0.638119 0.219466 -0.242752 0.434313 -0.430256 0.275206 0.480960 0.168316 0.294770 0.145874 -0.503993 -0.292662 
I:3673272:1 -0.226600 0.107028 0.172678 0.159620 0.633618 0.047253 -0.433373 -0.161579 -0.355708 0.634535 0.014120 0.714802 -0.530331 -0.225259 -0.211334 0.682342 0.537342 -0.074613 0.564582 0.364786 -0.660279 0.058651 0.457848 -0.577167 0.462610 -0.691216 0.072615 0.160660 0.545345 -0.052627 -0.184747 0.077115 -0.375529 0.373495 -0.091088 -0.074074 0.191751 0.318315 0.405560 -0.368423 -0.243074 -0.025186 -0.210177 0.325015 0.941941 -0.166475 0.252980 -0.331134 0.132348 -0.041343 -0.062282 -0.109760 -0.076191 0.029204 -0.312616 -0.441585 0.431996 0.022824 -0.356825 -0.295774 0.100154 0.058851 -0.062469 0.242405 -0.033541 -0.059990 0.700651 -0.117246 0.664928 0.647088 0.658459 -0.175076 0.450466 -0.162429 -0.146245 -0.334964 -0.507111 0.121912 -0.366350 -0.379229 0.179134 0.711230 0.068659 -0.226889 0.370313 0.810178 0.028699 0.087737 0.585629 0.260004 -0.197150 0.274639 -0.455396 0.105501 0.807728 0.473407 0.000087 0.087021 -0.288246 -0.460106 
O:4087191:12.0 -0.272268 0.018049 0.225485 0.137114 0.315004 -0.072337 -0.113347 -0.264760 -0.163413 0.443535 -0.043998 0.409634 -0.208242 -0.125820 -0.207206 0.495751 0.216974 -0.166794 0.504222 0.120129 -0.477404 0.155974 0.145161 -0.274465 0.155716 -0.416055 0.222591 0.171753 0.365302 -0.147627 -0.210074 0.038196 -0.222073 0.302868 0.069209 0.050855 -0.036380 0.136287 0.244615 -0.083926 -0.090857 0.106561 -0.284735 0.135091 0.520551 -0.173886 0.084552 -0.178534 0.184010 -0.054635 0.136636 -0.047863 -0.082643 -0.035795 -0.320187 -0.178390 0.109731 0.167748 -0.158108 -0.361281 0.103791 0.045940 0.158195 0.020716 0.111046 0.129206 0.244851 -0.123436 0.306787 0.382931 0.302698 -0.023759 0.081001 -0.239416 -0.161405 -0.205079 -0.299343 -0.132740 -0.137544 -0.310815 0.119197 0.435747 -0.029950 -0.330224 0.263550 0.397215 0.073239 0.084582 0.255454 0.023077 -0.182972 0.158306 -0.200247 0.246767 0.426874 0.239539 0.055007 0.085343 -0.071770 -0.193278 
O:4087184:self-reported -0.429226 0.048517 0.341268 0.213032 0.474502 -0.101792 -0.152596 -0.413033 -0.237960 0.648964 -0.062875 0.601408 -0.293697 -0.199599 -0.314872 0.743138 0.320068 -0.271900 0.776271 0.153802 -0.716278 0.249069 0.206674 -0.400010 0.208570 -0.613718 0.351395 0.251354 0.570947 -0.229141 -0.339410 0.049028 -0.318790 0.461442 0.095633 0.089663 -0.070138 0.194394 0.357176 -0.112800 -0.126511 0.167665 -0.431299 0.198181 0.785389 -0.270803 0.137825 -0.257117 0.263092 -0.102140 0.201844 -0.073733 -0.137873 -0.068188 -0.487872 -0.278666 0.145203 0.248226 -0.229451 -0.547207 0.163087 0.071667 0.258477 0.034618 0.179617 0.188915 0.342055 -0.183142 0.459529 0.555224 0.450491 -0.028121 0.103164 -0.373423 -0.248308 -0.313683 -0.431114 -0.231691 -0.196378 -0.496676 0.189873 0.665534 -0.053891 -0.519876 0.389959 0.595027 0.102900 0.131144 0.365624 0.013843 -0.289712 0.221309 -0.284651 0.397081 0.654777 0.350501 0.069053 0.116507 -0.096000 -0.291130 
I:3719286:1 -0.234509 -0.133300 0.541183 -0.035023 0.685484 -0.223461 -0.251085 -0.554232 -0.158904 0.914929 -0.178364 0.623407 -0.340563 0.030384 -0.303171 0.578784 0.398035 -0.254359 0.847767 0.510106 -0.890114 0.087368 0.296120 -0.541575 0.225738 -0.892923 0.307140 0.029282 0.764029 -0.019755 -0.433155 0.159753 -0.518963 0.229136 0.165906 0.034636 0.121129 0.066897 0.293421 0.006211 -0.341075 0.167310 -0.554407 0.001754 1.066983 -0.448206 0.218053 -0.438418 0.448368 0.005488 0.303231 -0.230450 -0.030585 -0.200714 -0.584986 -0.339818 0.419123 0.051253 -0.110083 -0.578798 0.340074 0.170335 0.090257 -0.096427 0.106992 0.165042 0.560178 -0.178517 0.663289 0.805311 0.639211 -0.373569 0.493007 -0.557964 -0.215407 -0.540105 -0.649185 0.075590 -0.349634 -0.354861 0.076917 0.684337 0.157334 -0.387832 0.185011 0.826855 0.177447 0.251341 0.600259 -0.073920 -0.312584 0.119712 -0.205853 0.419038 0.777957 0.484024 0.323219 0.345418 -0.054035 -0.225025 
O:4087172:Smoking -0.297023 0.042241 0.226462 0.149329 0.322235 -0.071178 -0.089248 -0.278271 -0.154958 0.430990 -0.053554 0.406587 -0.194546 -0.159301 -0.214132 0.505762 0.217551 -0.197132 0.512734 0.076531 -0.485393 0.175177 0.129875 -0.278300 0.141139 -0.409367 0.239335 0.189128 0.376166 -0.174665 -0.222116 0.026623 -0.204795 0.321281 0.075642 0.068222 -0.057409 0.141943 0.248616 -0.091335 -0.067523 0.105855 -0.295606 0.150054 0.518447 -0.181819 0.081449 -0.167558 0.173351 -0.085910 0.153583 -0.055514 -0.098956 -0.051458 -0.328289 -0.190993 0.092302 0.187498 -0.171046 -0.355511 0.100109 0.044851 0.184177 0.023736 0.140284 0.139260 0.219636 -0.120919 0.291636 0.362238 0.307200 -0.007556 0.050166 -0.242762 -0.163680 -0.195551 -0.262731 -0.167148 -0.131424 -0.342710 0.140549 0.445389 -0.043187 -0.346124 0.276667 0.386546 0.049664 0.080938 0.217307 0.023435 -0.190775 0.143188 -0.197550 0.270601 0.442189 0.240210 0.035967 0.076423 -0.052841 -0.201293 
O:4087178:cessation -0.306730 0.006844 0.245136 0.137916 0.366341 -0.071252 -0.131530 -0.269432 -0.184372 0.489899 -0.046029 0.447605 -0.228856 -0.135231 -0.233649 0.534002 0.243436 -0.168797 0.560185 0.164065 -0.534715 0.157898 0.168135 -0.317854 0.172458 -0.480333 0.227824 0.172462 0.414337 -0.146323 -0.233685 0.033055 -0.258745 0.327882 0.054925 0.039616 -0.025793 0.150207 0.262608 -0.086513 -0.130096 0.101892 -0.288304 0.130832 0.577649 -0.191588 0.106218 -0.193936 0.201169 -0.036430 0.138107 -0.068009 -0.083950 -0.026871 -0.351213 -0.203156 0.127394 0.172647 -0.168758 -0.383349 0.126137 0.046290 0.171174 0.035264 0.094185 0.121766 0.291989 -0.122927 0.359685 0.430095 0.351445 -0.072299 0.132288 -0.268265 -0.179705 -0.224348 -0.352892 -0.132759 -0.158112 -0.340348 0.136432 0.488537 -0.038351 -0.360696 0.284587 0.461585 0.077130 0.098989 0.308231 0.019742 -0.203890 0.176214 -0.208332 0.277062 0.476070 0.273294 0.057228 0.093586 -0.075614 -0.212797 
O:4087187:3.0 -0.283722 0.014027 0.227955 0.135972 0.319036 -0.065845 -0.095929 -0.255921 -0.173138 0.436962 -0.044254 0.401966 -0.200077 -0.133771 -0.200019 0.495102 0.210227 -0.179099 0.506206 0.127438 -0.475268 0.149704 0.149252 -0.278813 0.144841 -0.408135 0.219147 0.158856 0.365234 -0.141741 -0.209448 0.024883 -0.223684 0.297315 0.058814 0.050990 -0.030327 0.124813 0.227153 -0.080723 -0.083672 0.105274 -0.278765 0.133280 0.507777 -0.174420 0.084285 -0.171980 0.178718 -0.054580 0.123250 -0.059999 -0.082990 -0.050698 -0.311177 -0.171916 0.112668 0.157731 -0.150171 -0.355317 0.106983 0.041200 0.156826 0.022136 0.103605 0.125795 0.243667 -0.123012 0.309584 0.373948 0.297203 -0.037145 0.079096 -0.232823 -0.154357 -0.210872 -0.299370 -0.123598 -0.145289 -0.325132 0.121539 0.440215 -0.028602 -0.327612 0.258207 0.403659 0.073249 0.077981 0.251801 0.021322 -0.183836 0.151653 -0.190120 0.254027 0.432043 0.238572 0.046313 0.080806 -0.063511 -0.196810 
O:4087187:6.0 -0.279853 0.042639 0.235932 0.144613 0.298624 -0.076734 -0.086402 -0.298921 -0.155145 0.426578 -0.058401 0.396196 -0.190941 -0.147433 -0.195378 0.482420 0.219372 -0.202400 0.499786 0.065554 -0.487216 0.155285 0.111599 -0.264926 0.127596 -0.392990 0.232038 0.186011 0.359350 -0.146849 -0.216552 0.036002 -0.205412 0.295053 0.087606 0.090861 -0.057730 0.114289 0.244818 -0.081160 -0.052919 0.119188 -0.291825 0.140380 0.510572 -0.177758 0.073960 -0.168352 0.175068 -0.084924 0.162884 -0.067929 -0.085771 -0.055559 -0.313007 -0.185163 0.074447 0.165841 -0.165657 -0.360789 0.109070 0.047741 0.180535 0.021724 0.151029 0.132781 0.203389 -0.123147 0.281440 0.347357 0.303046 0.015823 0.040976 -0.250878 -0.134904 -0.218003 -0.259297 -0.145590 -0.141755 -0.335300 0.140545 0.439657 -0.029084 -0.339235 0.256930 0.357205 0.047202 0.065743 0.223520 0.003719 -0.189120 0.137333 -0.178455 0.265724 0.435117 0.235979 0.049234 0.077883 -0.034156 -0.189273 
O:4087187:1.0 -0.243082 0.024851 0.200072 0.113262 0.282040 -0.061179 -0.093505 -0.237041 -0.146219 0.378746 -0.040305 0.351383 -0.180238 -0.114857 -0.182444 0.430231 0.183612 -0.159001 0.440140 0.106205 -0.424296 0.137556 0.125693 -0.247390 0.119362 -0.368775 0.197425 0.137378 0.323690 -0.133062 -0.191234 0.030110 -0.197622 0.260866 0.056181 0.050730 -0.036851 0.109460 0.208698 -0.076202 -0.070514 0.089215 -0.241381 0.117651 0.454161 -0.163170 0.079268 -0.149301 0.149249 -0.060101 0.113462 -0.044094 -0.069563 -0.046175 -0.273911 -0.159935 0.090805 0.135282 -0.134069 -0.315291 0.101932 0.042039 0.145646 0.013446 0.101494 0.109738 0.205411 -0.096849 0.274575 0.322942 0.272740 -0.023011 0.078405 -0.215960 -0.132785 -0.183362 -0.247949 -0.114564 -0.125968 -0.273207 0.102920 0.390517 -0.029630 -0.284581 0.220139 0.347707 0.054907 0.075118 0.222238 0.007751 -0.173397 0.132464 -0.162223 0.219596 0.383113 0.210352 0.051943 0.062833 -0.052536 -0.177789 
O:4087191:6.0 -0.279654 0.024090 0.234783 0.127488 0.319206 -0.081545 -0.101249 -0.272850 -0.166589 0.422778 -0.055188 0.386601 -0.210522 -0.140300 -0.204237 0.487808 0.206808 -0.179173 0.499874 0.089818 -0.480233 0.159447 0.124871 -0.266628 0.130855 -0.396388 0.226448 0.169042 0.364671 -0.142605 -0.218971 0.037021 -0.221415 0.299331 0.062073 0.060014 -0.033156 0.131985 0.225823 -0.087243 -0.075264 0.105102 -0.291067 0.142416 0.504351 -0.173314 0.078050 -0.178460 0.178056 -0.075304 0.132885 -0.053983 -0.092490 -0.057407 -0.322860 -0.176236 0.099894 0.157833 -0.163634 -0.353797 0.119371 0.054668 0.167953 0.023098 0.119220 0.129415 0.217794 -0.115689 0.304140 0.358955 0.301408 -0.013077 0.063804 -0.249059 -0.151225 -0.214221 -0.282590 -0.135187 -0.142879 -0.334634 0.132406 0.431216 -0.038554 -0.328074 0.256010 0.387133 0.057096 0.071297 0.239130 0.018430 -0.182834 0.136937 -0.184276 0.262059 0.437314 0.248700 0.051104 0.082422 -0.052909 -0.202015 
I:3674270:1 -0.402962 -0.005160 0.361048 0.144796 0.479973 -0.154535 -0.218521 -0.296804 -0.267951 0.672287 -0.063417 0.581490 -0.282927 -0.107596 -0.354182 0.738854 0.280925 -0.134577 0.695869 0.314373 -0.711405 0.166957 0.177676 -0.451159 0.199794 -0.584066 0.291440 0.186729 0.541440 -0.081761 -0.276820 0.094637 -0.338730 0.399702 0.000975 -0.035559 -0.017028 0.199512 0.306774 -0.145336 -0.178203 0.131807 -0.343771 0.140948 0.713960 -0.248616 0.128907 -0.256094 0.171879 0.031965 0.175701 0.000851 -0.060548 -0.071947 -0.354190 -0.291029 0.137294 0.139391 -0.180095 -0.497560 0.205171 0.116010 0.146949 -0.008555 0.130937 0.156375 0.422011 -0.177998 0.427616 0.510260 0.427778 -0.168106 0.233367 -0.379953 -0.222039 -0.321778 -0.483019 -0.114049 -0.215745 -0.424286 0.217882 0.640459 0.016457 -0.457707 0.352704 0.522314 0.082604 0.163294 0.485929 0.074191 -0.328548 0.254436 -0.226073 0.356229 0.586128 0.347473 0.024037 0.094921 -0.139763 -0.207635 
O:4087191:12-month -0.282545 0.039429 0.219974 0.125986 0.301126 -0.075547 -0.075427 -0.276112 -0.150523 0.418823 -0.053217 0.379516 -0.192087 -0.149235 -0.200687 0.466937 0.213745 -0.191678 0.494498 0.070992 -0.462907 0.149096 0.109357 -0.265000 0.122923 -0.384279 0.224164 0.175261 0.355343 -0.142547 -0.208375 0.037249 -0.200396 0.288478 0.073667 0.082924 -0.045446 0.123795 0.240313 -0.088579 -0.055143 0.114569 -0.281725 0.140297 0.505559 -0.168671 0.074724 -0.173995 0.166595 -0.092028 0.148364 -0.059647 -0.082279 -0.066501 -0.317214 -0.174919 0.087766 0.163341 -0.164222 -0.348255 0.113097 0.046684 0.167401 0.021283 0.145314 0.130763 0.195954 -0.116586 0.273268 0.345930 0.292803 0.005391 0.056123 -0.241661 -0.144841 -0.209797 -0.247027 -0.136759 -0.150582 -0.337585 0.128103 0.428135 -0.037743 -0.313454 0.256260 0.357587 0.042079 0.057494 0.211702 0.012409 -0.187296 0.125887 -0.183409 0.249498 0.419142 0.232694 0.042671 0.063192 -0.044430 -0.194275 
I:3675611:1 -0.431717 0.008991 0.401997 0.218777 0.517260 -0.140397 -0.195994 -0.399663 -0.259501 0.788587 -0.048938 0.697691 -0.363345 -0.198061 -0.327199 0.827195 0.394803 -0.240598 0.852238 0.254192 -0.810406 0.279171 0.274617 -0.502289 0.227576 -0.739134 0.355592 0.212122 0.643270 -0.198635 -0.389951 0.065513 -0.392434 0.454187 0.054656 0.041474 -0.042723 0.215676 0.342940 -0.150068 -0.160870 0.179882 -0.450855 0.216708 0.871708 -0.307703 0.196885 -0.288189 0.260087 -0.065240 0.222808 -0.108235 -0.108120 -0.041810 -0.501036 -0.338655 0.219329 0.247325 -0.216572 -0.620175 0.230028 0.102849 0.237494 0.034342 0.140345 0.211010 0.457292 -0.210657 0.568017 0.621681 0.503218 -0.117566 0.174360 -0.414748 -0.227648 -0.405197 -0.529419 -0.212073 -0.234575 -0.479892 0.182899 0.770283 -0.014370 -0.549283 0.397265 0.687396 0.109756 0.150104 0.467897 0.021167 -0.355034 0.263776 -0.342568 0.438860 0.722656 0.395190 0.116372 0.111091 -0.138893 -0.329684 
O:4087188:6.0 -0.227625 0.020710 0.177464 0.101457 0.253711 -0.050563 -0.074394 -0.209013 -0.125430 0.348440 -0.036031 0.324316 -0.166594 -0.112767 -0.163263 0.394899 0.176159 -0.139849 0.401693 0.081947 -0.388439 0.125190 0.116792 -0.226152 0.110629 -0.323386 0.186711 0.132372 0.299170 -0.121075 -0.171960 0.029286 -0.171728 0.244774 0.052325 0.047855 -0.025014 0.100733 0.187395 -0.069000 -0.058913 0.087425 -0.221126 0.114395 0.420943 -0.150590 0.072675 -0.141219 0.136571 -0.054386 0.101825 -0.050520 -0.071879 -0.047367 -0.256083 -0.150553 0.086113 0.126416 -0.122134 -0.285358 0.086424 0.046261 0.125082 0.025095 0.089303 0.102734 0.191637 -0.097243 0.237900 0.293285 0.244660 -0.014075 0.063668 -0.195734 -0.114960 -0.167237 -0.228566 -0.101419 -0.118144 -0.262623 0.103403 0.351925 -0.027674 -0.258087 0.211337 0.309701 0.052127 0.065943 0.201488 0.010442 -0.151780 0.110346 -0.154210 0.201183 0.342829 0.201519 0.042034 0.055074 -0.051680 -0.165330 
O:4087187:12.0 -0.224945 0.010268 0.183391 0.096947 0.271684 -0.054970 -0.086585 -0.214650 -0.128961 0.366330 -0.033691 0.335863 -0.166570 -0.101575 -0.176555 0.398395 0.181739 -0.131937 0.420412 0.106747 -0.400540 0.124330 0.126918 -0.231903 0.121100 -0.356112 0.177963 0.123046 0.315699 -0.113120 -0.186632 0.028237 -0.189723 0.233448 0.044909 0.040087 -0.029161 0.108752 0.188802 -0.064027 -0.089060 0.087130 -0.225920 0.096088 0.432690 -0.151041 0.078623 -0.155438 0.159032 -0.039555 0.107161 -0.051258 -0.059265 -0.031996 -0.264842 -0.159645 0.095026 0.127164 -0.114642 -0.295907 0.094778 0.044779 0.130375 0.017377 0.087303 0.099196 0.201562 -0.101246 0.266787 0.315969 0.253344 -0.040328 0.094051 -0.206249 -0.136472 -0.180220 -0.245095 -0.101568 -0.116402 -0.252048 0.091648 0.353876 -0.017370 -0.269821 0.203753 0.337602 0.063870 0.081198 0.216403 0.014511 -0.162627 0.116873 -0.164071 0.207973 0.350810 0.195938 0.048407 0.077308 -0.057213 -0.160353 
O:4099754:12.0 -0.273384 0.017554 0.230520 0.115356 0.300485 -0.074084 -0.091094 -0.241277 -0.150715 0.431244 -0.031359 0.383517 -0.204546 -0.119867 -0.208247 0.468351 0.196843 -0.161268 0.494534 0.118912 -0.461365 0.150222 0.150342 -0.265158 0.149598 -0.408452 0.220331 0.144919 0.365417 -0.136214 -0.216213 0.020171 -0.208230 0.289525 0.043370 0.042955 -0.035487 0.113988 0.217528 -0.086013 -0.091330 0.103922 -0.250818 0.116796 0.496130 -0.176373 0.092988 -0.160183 0.171695 -0.049126 0.113123 -0.051122 -0.069380 -0.037283 -0.301806 -0.175579 0.114968 0.149478 -0.148041 -0.351277 0.112340 0.038869 0.149467 0.020962 0.098729 0.125055 0.252213 -0.122755 0.309656 0.367746 0.290116 -0.033699 0.095039 -0.222205 -0.144726 -0.210035 -0.288642 -0.127082 -0.138576 -0.305113 0.113878 0.427017 -0.034587 -0.318847 0.240816 0.380077 0.062172 0.085806 0.260668 0.011181 -0.180350 0.151127 -0.180484 0.245619 0.414984 0.231831 0.047378 0.076884 -0.070227 -0.189779 
O:4087191:26.0 -0.236053 0.020900 0.193100 0.109288 0.272977 -0.062874 -0.079433 -0.226766 -0.144319 0.378525 -0.034831 0.342682 -0.176404 -0.114461 -0.173850 0.423716 0.187906 -0.153598 0.432450 0.094298 -0.405784 0.134445 0.109722 -0.241790 0.111465 -0.348644 0.193386 0.138399 0.310740 -0.123672 -0.182445 0.024554 -0.183146 0.252909 0.055210 0.053894 -0.032003 0.106213 0.198269 -0.072133 -0.067160 0.091868 -0.246477 0.118862 0.437475 -0.149877 0.078886 -0.141550 0.137899 -0.055508 0.120987 -0.047282 -0.078308 -0.044551 -0.271980 -0.160161 0.080641 0.140894 -0.135023 -0.312826 0.092040 0.051156 0.136606 0.016455 0.108817 0.114075 0.196599 -0.102376 0.266681 0.314326 0.262487 -0.010127 0.070876 -0.209471 -0.134546 -0.186600 -0.233473 -0.118685 -0.123746 -0.276226 0.111063 0.381148 -0.033741 -0.285665 0.215088 0.326160 0.040888 0.063257 0.206711 0.002512 -0.170432 0.123013 -0.155434 0.214103 0.368364 0.210392 0.042956 0.065995 -0.045944 -0.167934 
O:4087178:absti-_nence -0.241277 0.040341 0.190702 0.110300 0.260031 -0.058579 -0.065968 -0.241747 -0.121175 0.348003 -0.044384 0.328037 -0.172136 -0.121229 -0.174682 0.405631 0.177223 -0.159155 0.412804 0.065565 -0.398523 0.124322 0.095649 -0.226387 0.109850 -0.332131 0.201333 0.145153 0.309938 -0.130610 -0.183791 0.032546 -0.175150 0.240291 0.071483 0.060990 -0.047438 0.108415 0.204541 -0.066370 -0.060508 0.096482 -0.239734 0.115718 0.427217 -0.156811 0.068330 -0.147602 0.151862 -0.071401 0.132539 -0.056136 -0.072134 -0.045428 -0.271361 -0.158516 0.065237 0.134861 -0.130635 -0.299911 0.094404 0.049275 0.135121 0.016958 0.117661 0.117758 0.179100 -0.101057 0.240848 0.295893 0.249025 0.006906 0.041199 -0.210572 -0.118801 -0.177699 -0.216538 -0.122169 -0.125847 -0.286251 0.104106 0.364545 -0.037691 -0.273169 0.214511 0.313647 0.041478 0.055683 0.179831 0.010770 -0.154560 0.114891 -0.160218 0.213244 0.352465 0.204598 0.032957 0.062194 -0.034872 -0.163862 
O:4099754:6.0 -0.289889 0.029652 0.239152 0.133370 0.330071 -0.082614 -0.094345 -0.286530 -0.173738 0.453545 -0.047748 0.412525 -0.214967 -0.143842 -0.206994 0.512623 0.238909 -0.199173 0.524224 0.103998 -0.503806 0.155868 0.137730 -0.284217 0.136625 -0.423429 0.239059 0.170718 0.388389 -0.141055 -0.226793 0.033874 -0.229579 0.305030 0.069595 0.078998 -0.039476 0.127415 0.247224 -0.099257 -0.073021 0.103214 -0.299435 0.157785 0.538423 -0.184673 0.086465 -0.187941 0.177926 -0.079565 0.144780 -0.061009 -0.085749 -0.056694 -0.329488 -0.197071 0.103314 0.162623 -0.166831 -0.366400 0.110134 0.052112 0.163124 0.018705 0.128678 0.137325 0.238655 -0.113027 0.317057 0.385180 0.320341 -0.010752 0.081777 -0.253041 -0.156911 -0.226960 -0.282474 -0.144479 -0.158498 -0.340355 0.138402 0.463153 -0.038044 -0.334028 0.270945 0.408619 0.058969 0.080225 0.243382 0.009510 -0.194699 0.150691 -0.194617 0.262849 0.457177 0.260245 0.039250 0.085367 -0.057759 -0.210143 
O:4087184:self-report -0.296701 0.016447 0.232579 0.139113 0.343212 -0.073079 -0.108382 -0.263812 -0.175853 0.467072 -0.038640 0.432672 -0.220660 -0.134166 -0.215063 0.515247 0.224467 -0.171476 0.540424 0.130298 -0.508117 0.168559 0.159565 -0.301813 0.153982 -0.447883 0.227636 0.163982 0.402115 -0.144240 -0.225533 0.039942 -0.231871 0.313293 0.054922 0.051656 -0.032808 0.131713 0.250461 -0.088550 -0.111452 0.096755 -0.279495 0.129767 0.551644 -0.195907 0.091111 -0.197510 0.191146 -0.052329 0.130820 -0.059968 -0.091422 -0.042529 -0.329685 -0.192180 0.111267 0.170757 -0.157416 -0.377829 0.111074 0.047909 0.169898 0.032869 0.105296 0.136729 0.252693 -0.123800 0.336178 0.398822 0.321097 -0.049731 0.104826 -0.260843 -0.162585 -0.219631 -0.320140 -0.131736 -0.139509 -0.332826 0.125542 0.456715 -0.036596 -0.349802 0.269214 0.424749 0.067049 0.094526 0.281483 0.018348 -0.201266 0.160284 -0.209511 0.268587 0.451050 0.247307 0.058449 0.092370 -0.073250 -0.210721 
O:4087191:52.0 -0.228487 0.021779 0.201619 0.103294 0.277167 -0.071567 -0.082199 -0.230969 -0.127886 0.369262 -0.048124 0.341136 -0.165794 -0.107870 -0.169667 0.416381 0.182999 -0.151645 0.426592 0.103607 -0.409853 0.133342 0.108424 -0.239393 0.112901 -0.348466 0.191722 0.138106 0.318029 -0.114305 -0.194029 0.029246 -0.181487 0.245296 0.057228 0.053315 -0.030484 0.109216 0.198987 -0.073437 -0.074162 0.086402 -0.248515 0.109679 0.449463 -0.156603 0.070533 -0.151077 0.159866 -0.054731 0.124216 -0.050992 -0.066745 -0.053424 -0.278971 -0.164043 0.091553 0.123545 -0.134361 -0.303714 0.105533 0.045707 0.134180 0.020220 0.099870 0.105692 0.205427 -0.099419 0.261801 0.316926 0.269397 -0.026243 0.073744 -0.217733 -0.127279 -0.190627 -0.247219 -0.106260 -0.120462 -0.267220 0.108294 0.370842 -0.017685 -0.279289 0.211315 0.329807 0.054870 0.069600 0.215097 0.012299 -0.164341 0.121273 -0.158936 0.221021 0.373289 0.210616 0.049175 0.077836 -0.045518 -0.165117 
C:4507426:women -0.219230 0.030999 0.177981 0.105130 0.236773 -0.065173 -0.068413 -0.208084 -0.114227 0.330046 -0.045307 0.303364 -0.152736 -0.105662 -0.160715 0.377267 0.166191 -0.141110 0.393194 0.075807 -0.373331 0.120934 0.089336 -0.208501 0.099243 -0.315360 0.175317 0.137602 0.290393 -0.118251 -0.174343 0.028918 -0.164611 0.236414 0.051435 0.055958 -0.029368 0.100814 0.180877 -0.064609 -0.051172 0.079251 -0.214612 0.104658 0.396493 -0.133355 0.065630 -0.139351 0.138570 -0.060517 0.114857 -0.039323 -0.065674 -0.047709 -0.248448 -0.145097 0.066962 0.122933 -0.124982 -0.279216 0.084118 0.042032 0.122801 0.014920 0.102017 0.106156 0.165584 -0.093262 0.232470 0.273040 0.231438 -0.008027 0.053752 -0.187316 -0.120037 -0.167904 -0.208783 -0.117445 -0.109894 -0.250231 0.104421 0.341867 -0.023307 -0.250712 0.190838 0.292135 0.040826 0.054804 0.173921 0.013786 -0.151039 0.099683 -0.142374 0.200069 0.334885 0.184261 0.039205 0.061211 -0.035138 -0.157506 
O:4087188:12.0 -0.182351 0.018823 0.144103 0.092630 0.212717 -0.044044 -0.064465 -0.179030 -0.106569 0.277978 -0.030089 0.269930 -0.137407 -0.098011 -0.133271 0.324390 0.143090 -0.122143 0.340690 0.066156 -0.321613 0.105580 0.082346 -0.185163 0.087660 -0.269189 0.155747 0.114404 0.251075 -0.099949 -0.140108 0.015966 -0.135579 0.195377 0.045277 0.041976 -0.027364 0.079831 0.162469 -0.057269 -0.050617 0.073787 -0.186125 0.092374 0.341096 -0.126361 0.052585 -0.119789 0.112540 -0.046684 0.089768 -0.037141 -0.060549 -0.038286 -0.218721 -0.122116 0.068460 0.103819 -0.106620 -0.239814 0.070266 0.038341 0.111021 0.016573 0.079098 0.081727 0.144937 -0.079211 0.201214 0.246355 0.207742 -0.010603 0.049450 -0.163801 -0.105084 -0.145060 -0.179880 -0.090571 -0.096925 -0.219300 0.088951 0.288109 -0.022716 -0.219284 0.167606 0.253595 0.037457 0.045894 0.157640 0.008672 -0.122451 0.088644 -0.124635 0.165148 0.291021 0.158650 0.030038 0.055301 -0.034678 -0.131891 
O:4087188:3.0 -0.186345 0.020692 0.156567 0.095043 0.222655 -0.047923 -0.073220 -0.185637 -0.115899 0.297713 -0.028598 0.278444 -0.137835 -0.088512 -0.137862 0.343541 0.147280 -0.121343 0.344184 0.068068 -0.329426 0.110340 0.091617 -0.189031 0.090219 -0.285049 0.157308 0.112549 0.256546 -0.101153 -0.148829 0.016113 -0.153475 0.199944 0.047100 0.036530 -0.031396 0.094820 0.165675 -0.056842 -0.055590 0.064803 -0.187056 0.093561 0.352261 -0.127524 0.063117 -0.117282 0.120386 -0.045672 0.099533 -0.038168 -0.060981 -0.028495 -0.211633 -0.122943 0.069036 0.104018 -0.112422 -0.240214 0.083076 0.037555 0.103837 0.021822 0.080553 0.085816 0.162335 -0.081069 0.208503 0.256874 0.214868 -0.018916 0.050913 -0.169444 -0.104848 -0.147051 -0.197094 -0.094497 -0.091202 -0.217260 0.093724 0.298474 -0.016488 -0.232422 0.168681 0.270281 0.046571 0.058622 0.163045 0.013870 -0.135583 0.099149 -0.134480 0.176278 0.292427 0.159630 0.035212 0.053105 -0.035756 -0.134364 
O:4099754:6-month -0.274707 0.024449 0.230864 0.130369 0.332450 -0.072349 -0.112686 -0.252994 -0.175398 0.444422 -0.037756 0.404613 -0.212815 -0.128027 -0.208184 0.507517 0.229380 -0.166747 0.510725 0.138243 -0.484195 0.147955 0.152424 -0.285882 0.158000 -0.424233 0.224070 0.159426 0.374139 -0.134297 -0.211940 0.027797 -0.225742 0.295957 0.045333 0.041966 -0.030685 0.131957 0.238301 -0.090584 -0.105784 0.094389 -0.277861 0.136723 0.538688 -0.189544 0.101606 -0.187886 0.180884 -0.058947 0.125585 -0.053774 -0.082148 -0.039643 -0.312649 -0.188992 0.113525 0.149574 -0.149166 -0.358431 0.114140 0.047324 0.147767 0.023590 0.112247 0.121480 0.266919 -0.120198 0.317440 0.377416 0.319935 -0.042971 0.099030 -0.236872 -0.159801 -0.216032 -0.308175 -0.124986 -0.145538 -0.314994 0.121352 0.449705 -0.035991 -0.334110 0.254464 0.414989 0.064053 0.084842 0.270650 0.028534 -0.188922 0.150970 -0.205848 0.253847 0.443746 0.244324 0.051557 0.087201 -0.076302 -0.207788 
C:4507526:1 -0.187772 0.018966 0.186492 0.113387 0.220358 -0.063908 -0.071531 -0.167488 -0.108036 0.321963 -0.007953 0.314598 -0.176268 -0.097458 -0.166195 0.356926 0.137456 -0.113065 0.382559 0.097364 -0.361185 0.100346 0.091365 -0.187299 0.126153 -0.331744 0.188002 0.129382 0.262382 -0.125550 -0.179884 0.019535 -0.158018 0.243392 0.032690 0.021875 -0.029350 0.108312 0.190462 -0.066035 -0.080447 0.050807 -0.189588 0.113386 0.385866 -0.133006 0.054008 -0.124828 0.148844 -0.043917 0.084280 -0.031099 -0.081760 -0.034513 -0.261496 -0.137357 0.075739 0.112569 -0.129114 -0.261470 0.105998 0.058990 0.128250 0.049301 0.081927 0.064048 0.185514 -0.101184 0.245253 0.297965 0.234610 -0.038616 0.052725 -0.171742 -0.135778 -0.173818 -0.229306 -0.104732 -0.111039 -0.237302 0.110498 0.359976 -0.008862 -0.261611 0.202922 0.302655 0.058156 0.072750 0.226730 0.018978 -0.125856 0.129592 -0.147270 0.192708 0.349135 0.193572 0.048134 0.039460 -0.029979 -0.150056 
O:4087186:expired_air_carbon_monoxide -0.210701 0.023559 0.180916 0.103103 0.252626 -0.062241 -0.083629 -0.212616 -0.121141 0.343569 -0.039776 0.312302 -0.158030 -0.106633 -0.158905 0.375825 0.174194 -0.141527 0.391603 0.078894 -0.372911 0.117165 0.102802 -0.219695 0.106705 -0.325783 0.174753 0.120596 0.291583 -0.106180 -0.174522 0.020840 -0.173633 0.225484 0.049717 0.039972 -0.026753 0.098536 0.186085 -0.072415 -0.067675 0.077327 -0.214792 0.112016 0.411205 -0.140974 0.075535 -0.139758 0.134726 -0.048048 0.102102 -0.043717 -0.063442 -0.043975 -0.240197 -0.153443 0.079726 0.120138 -0.119561 -0.277038 0.090423 0.040261 0.125663 0.023510 0.093430 0.100312 0.190908 -0.086056 0.239021 0.285674 0.244000 -0.017615 0.066550 -0.189916 -0.113079 -0.172252 -0.214656 -0.102089 -0.108142 -0.247641 0.098269 0.342220 -0.025705 -0.251842 0.195656 0.305994 0.043127 0.056403 0.190275 0.012836 -0.147791 0.109282 -0.146824 0.199982 0.336308 0.184462 0.033535 0.054628 -0.042533 -0.161389 
O:4087189:12.0 -0.180467 0.013294 0.148091 0.082552 0.199555 -0.047813 -0.066226 -0.172160 -0.107678 0.278418 -0.029876 0.258917 -0.132093 -0.085713 -0.126886 0.321954 0.137947 -0.112074 0.323833 0.071579 -0.312561 0.097451 0.093971 -0.178112 0.084079 -0.270407 0.141211 0.104074 0.240336 -0.093477 -0.142816 0.019400 -0.142847 0.194337 0.043182 0.035011 -0.020362 0.079875 0.149246 -0.052635 -0.055240 0.071567 -0.176542 0.091810 0.335167 -0.116475 0.053353 -0.110916 0.110273 -0.036109 0.092031 -0.040932 -0.055023 -0.036229 -0.197325 -0.113148 0.064246 0.093583 -0.100656 -0.231280 0.068627 0.028776 0.099362 0.011792 0.074089 0.079602 0.155654 -0.072482 0.193471 0.231352 0.192199 -0.017828 0.056889 -0.157659 -0.097398 -0.143560 -0.182164 -0.086920 -0.097853 -0.207355 0.080651 0.286287 -0.014127 -0.213063 0.164014 0.256086 0.036629 0.053556 0.162244 0.015128 -0.124100 0.090909 -0.116867 0.166244 0.273147 0.153234 0.031063 0.052079 -0.032433 -0.128344 
O:4087184:Self-reported -0.328438 0.032108 0.270724 0.153906 0.376817 -0.086547 -0.118122 -0.313562 -0.186785 0.526539 -0.058408 0.482620 -0.242012 -0.161819 -0.246960 0.591575 0.261364 -0.219386 0.603870 0.131219 -0.582547 0.186304 0.152605 -0.324291 0.167982 -0.493970 0.268287 0.202311 0.450962 -0.168670 -0.255526 0.037653 -0.257259 0.359107 0.071636 0.067516 -0.046233 0.158039 0.283381 -0.108010 -0.104572 0.124419 -0.337052 0.160458 0.627032 -0.213147 0.111685 -0.216717 0.218606 -0.081760 0.170964 -0.071233 -0.099280 -0.065996 -0.387559 -0.221193 0.120291 0.196494 -0.182428 -0.428862 0.141738 0.066487 0.189252 0.031560 0.142758 0.155778 0.282382 -0.133998 0.359233 0.443484 0.371555 -0.031060 0.097055 -0.288078 -0.178476 -0.261808 -0.346947 -0.166706 -0.167124 -0.391509 0.150079 0.524060 -0.046960 -0.391401 0.298362 0.466026 0.076807 0.097625 0.288295 0.011148 -0.230913 0.170440 -0.234405 0.303798 0.518599 0.287646 0.057933 0.096047 -0.070158 -0.234450 
O:4087189:6.0 -0.176776 0.018469 0.145956 0.080959 0.201596 -0.042686 -0.065374 -0.172163 -0.102350 0.268090 -0.026031 0.249144 -0.123894 -0.092022 -0.126425 0.311950 0.136558 -0.115598 0.310979 0.065606 -0.304121 0.093863 0.075077 -0.167545 0.084496 -0.259193 0.139197 0.105008 0.230478 -0.094020 -0.142209 0.025514 -0.136749 0.191372 0.040741 0.035141 -0.031122 0.085115 0.151859 -0.050586 -0.044872 0.064212 -0.173114 0.082806 0.319516 -0.110513 0.048373 -0.114422 0.105724 -0.046510 0.092978 -0.032329 -0.057780 -0.027396 -0.199533 -0.117626 0.063463 0.101676 -0.103322 -0.224214 0.067213 0.037884 0.098184 0.012484 0.083967 0.076869 0.139758 -0.073461 0.189882 0.227335 0.194380 -0.008006 0.040107 -0.157674 -0.097762 -0.128846 -0.169805 -0.093951 -0.083078 -0.203971 0.076846 0.271670 -0.026610 -0.208145 0.157512 0.241067 0.035224 0.046113 0.147747 0.009563 -0.125078 0.084216 -0.121335 0.159164 0.273798 0.146215 0.030343 0.043205 -0.039658 -0.129140 
O:4087186:carbon_monoxide -0.198916 0.024669 0.156654 0.097807 0.215119 -0.051412 -0.056951 -0.204379 -0.109165 0.283591 -0.041546 0.268471 -0.129991 -0.103016 -0.145659 0.339339 0.144967 -0.144743 0.338306 0.043746 -0.321130 0.111698 0.070954 -0.173102 0.080655 -0.265633 0.167961 0.122911 0.249770 -0.112750 -0.152840 0.017674 -0.136249 0.204472 0.062684 0.055386 -0.041291 0.082116 0.173156 -0.058278 -0.032554 0.078246 -0.204459 0.108778 0.349871 -0.118678 0.051460 -0.117011 0.118037 -0.067181 0.105128 -0.043606 -0.060807 -0.045827 -0.227301 -0.129973 0.052610 0.118793 -0.113570 -0.246691 0.072263 0.042563 0.115011 0.008254 0.104223 0.096335 0.139593 -0.073969 0.197861 0.236237 0.200434 0.007944 0.031435 -0.173760 -0.097499 -0.148203 -0.170697 -0.112997 -0.096548 -0.237083 0.095162 0.297380 -0.024511 -0.234584 0.174889 0.254201 0.031101 0.045354 0.149399 -0.000543 -0.133920 0.088849 -0.131671 0.181430 0.293855 0.168771 0.026229 0.049271 -0.030269 -0.130208 
O:4087188:24.0 -0.165385 0.016113 0.144678 0.078843 0.195262 -0.052134 -0.064544 -0.170666 -0.094736 0.259338 -0.036953 0.242405 -0.118224 -0.084971 -0.128532 0.290637 0.139611 -0.113859 0.307126 0.061034 -0.297722 0.095050 0.083032 -0.169172 0.077507 -0.244317 0.134512 0.101748 0.225473 -0.087303 -0.135085 0.019775 -0.133893 0.171554 0.038663 0.035520 -0.026091 0.076290 0.146623 -0.050884 -0.048691 0.068833 -0.175684 0.079222 0.315981 -0.107072 0.058008 -0.105914 0.111308 -0.042229 0.086080 -0.036641 -0.048481 -0.038796 -0.197025 -0.111950 0.059167 0.090522 -0.094000 -0.212969 0.065274 0.037676 0.101534 0.015703 0.073302 0.081722 0.144653 -0.065605 0.179140 0.226336 0.192789 -0.018883 0.050744 -0.152506 -0.095052 -0.140573 -0.165425 -0.081578 -0.092304 -0.196989 0.078155 0.268611 -0.018670 -0.191919 0.156943 0.234811 0.031143 0.046169 0.145451 0.000974 -0.112905 0.081249 -0.119959 0.153961 0.260249 0.153233 0.026876 0.046710 -0.033333 -0.113939 
O:4087187:2.0 -0.214075 0.034982 0.166617 0.104687 0.233332 -0.050444 -0.064181 -0.208726 -0.118953 0.312025 -0.043761 0.292054 -0.145619 -0.106823 -0.156592 0.360412 0.157881 -0.142120 0.373073 0.056131 -0.349353 0.119620 0.083870 -0.199116 0.088163 -0.289550 0.174120 0.126505 0.264441 -0.112467 -0.162293 0.021810 -0.158415 0.224479 0.049860 0.061656 -0.030481 0.089962 0.175695 -0.061957 -0.045535 0.084542 -0.208507 0.104331 0.376545 -0.135751 0.055764 -0.122849 0.121698 -0.062924 0.105354 -0.040793 -0.060058 -0.042904 -0.237502 -0.136918 0.057785 0.125406 -0.125848 -0.259492 0.073938 0.039708 0.128016 0.010411 0.096168 0.099945 0.159975 -0.086453 0.208234 0.255968 0.225233 -0.000491 0.039741 -0.177132 -0.107788 -0.150097 -0.191173 -0.107836 -0.109817 -0.251758 0.098806 0.326901 -0.025931 -0.247214 0.185634 0.280030 0.030726 0.055063 0.160565 0.007749 -0.132415 0.102326 -0.143348 0.189443 0.321742 0.172194 0.028281 0.050202 -0.035153 -0.149598 
I:3673271:1 -0.538366 0.062814 0.451702 0.258782 0.629752 -0.147893 -0.193581 -0.534633 -0.307075 0.855698 -0.092666 0.780970 -0.399112 -0.261595 -0.414882 0.943427 0.421212 -0.356960 0.982320 0.209780 -0.937275 0.291556 0.251534 -0.520429 0.260857 -0.803261 0.445825 0.316729 0.723366 -0.274303 -0.427781 0.055787 -0.433548 0.576602 0.120279 0.124650 -0.073305 0.237216 0.458244 -0.166279 -0.152915 0.192476 -0.550236 0.273365 0.997210 -0.348134 0.177195 -0.345772 0.351088 -0.134177 0.264921 -0.106380 -0.157362 -0.094880 -0.619633 -0.359767 0.191964 0.311217 -0.293705 -0.708749 0.228122 0.104730 0.300386 0.044804 0.237145 0.238416 0.453586 -0.219979 0.590454 0.717718 0.586252 -0.054328 0.143104 -0.491749 -0.284534 -0.432561 -0.543819 -0.256143 -0.284575 -0.618743 0.248658 0.850544 -0.059212 -0.652471 0.482180 0.768661 0.122694 0.149906 0.480692 0.013927 -0.367902 0.264239 -0.376511 0.500072 0.836205 0.461706 0.108221 0.149116 -0.124203 -0.377365 
I:3730876:1 -0.295932 0.024594 0.255611 0.089429 0.323863 -0.048314 -0.075031 -0.213679 -0.149762 0.483690 -0.059202 0.442441 -0.255905 -0.087522 -0.205288 0.516153 0.212246 -0.189296 0.563349 0.177155 -0.533901 0.117100 0.225482 -0.319835 0.168750 -0.450671 0.262156 0.115774 0.400179 -0.131188 -0.243905 -0.007909 -0.260072 0.318459 0.040517 0.021111 0.007424 0.109034 0.238561 -0.065928 -0.115617 0.089233 -0.248848 0.142770 0.559428 -0.202431 0.078009 -0.165604 0.215133 0.009250 0.111357 -0.099771 -0.077403 -0.067024 -0.277439 -0.156772 0.180018 0.103270 -0.157687 -0.355655 0.101533 0.038315 0.109470 0.049274 0.051949 0.120694 0.328465 -0.156690 0.316989 0.416504 0.345171 -0.040220 0.143562 -0.212089 -0.130822 -0.237831 -0.354092 -0.096525 -0.170777 -0.343093 0.103577 0.470144 0.000670 -0.303264 0.284549 0.466135 0.079820 0.126085 0.303137 0.033167 -0.233382 0.140386 -0.159035 0.214498 0.434652 0.262060 0.045207 0.062022 -0.046345 -0.240986 
O:4087178:Abstinence -0.215750 0.023156 0.171043 0.105127 0.247304 -0.056658 -0.080836 -0.203448 -0.131369 0.337304 -0.027934 0.313745 -0.149552 -0.104452 -0.160122 0.386408 0.161835 -0.132083 0.390278 0.093449 -0.372921 0.125267 0.109512 -0.217459 0.116212 -0.318458 0.170499 0.132055 0.285168 -0.112844 -0.167685 0.019376 -0.169503 0.236417 0.050770 0.036545 -0.026377 0.101924 0.182455 -0.066598 -0.064050 0.079909 -0.218052 0.104240 0.399819 -0.139132 0.075198 -0.138748 0.142435 -0.039761 0.106492 -0.038824 -0.061009 -0.025911 -0.246416 -0.143796 0.081171 0.133095 -0.114503 -0.272590 0.083669 0.042294 0.126164 0.026751 0.089423 0.096970 0.188234 -0.089474 0.245445 0.286680 0.231405 -0.022134 0.068687 -0.183586 -0.119324 -0.154642 -0.227711 -0.103959 -0.099594 -0.248233 0.097405 0.333759 -0.033377 -0.260194 0.198083 0.307995 0.046088 0.071098 0.191224 0.010481 -0.140715 0.114175 -0.148199 0.188564 0.328957 0.188531 0.039899 0.056418 -0.054601 -0.147969 
O:4087187:4.0 -0.177038 0.018441 0.144799 0.080157 0.202776 -0.052543 -0.062423 -0.176035 -0.092699 0.271313 -0.038012 0.242920 -0.130345 -0.093968 -0.123856 0.302892 0.135396 -0.119527 0.309352 0.060013 -0.301981 0.090711 0.076937 -0.168354 0.076840 -0.248826 0.143576 0.100166 0.229565 -0.088538 -0.140921 0.026013 -0.134744 0.185367 0.045870 0.043793 -0.023278 0.078409 0.146042 -0.057987 -0.042545 0.067040 -0.183379 0.090152 0.321981 -0.108511 0.048248 -0.105853 0.104395 -0.045132 0.095373 -0.032564 -0.053828 -0.032723 -0.199856 -0.121618 0.057524 0.100754 -0.104580 -0.224029 0.075983 0.038546 0.103374 0.018045 0.087173 0.076450 0.144859 -0.070416 0.189912 0.227836 0.192749 -0.006412 0.045648 -0.160489 -0.089384 -0.142624 -0.162861 -0.085346 -0.088544 -0.206926 0.085996 0.273649 -0.025143 -0.204407 0.159079 0.241142 0.030077 0.040186 0.150003 0.002625 -0.115019 0.083688 -0.115756 0.165412 0.278967 0.151919 0.026370 0.046609 -0.025966 -0.125779 
O:4087191:30.0 -0.156344 0.017024 0.128598 0.071668 0.182042 -0.041915 -0.050578 -0.156943 -0.088312 0.240142 -0.028505 0.232012 -0.109081 -0.078019 -0.114419 0.277899 0.123857 -0.097380 0.291188 0.056825 -0.277363 0.088709 0.078717 -0.156393 0.082224 -0.229500 0.129915 0.089405 0.215829 -0.085368 -0.124050 0.015616 -0.127674 0.168306 0.032473 0.037183 -0.021434 0.076614 0.137270 -0.047913 -0.043975 0.057533 -0.161361 0.073629 0.300421 -0.107523 0.046306 -0.101376 0.104867 -0.040668 0.079092 -0.028588 -0.044123 -0.026685 -0.185692 -0.100212 0.059096 0.091651 -0.086003 -0.207224 0.060981 0.024871 0.094943 0.015325 0.065645 0.066574 0.128519 -0.060647 0.175650 0.213257 0.178381 -0.018569 0.047979 -0.140082 -0.083250 -0.115969 -0.167016 -0.084870 -0.083642 -0.179224 0.069645 0.246669 -0.014548 -0.189471 0.143770 0.221235 0.031476 0.048853 0.142335 0.014019 -0.107270 0.081841 -0.103537 0.149470 0.244014 0.133098 0.030272 0.044057 -0.028447 -0.113652 
O:4087191:6-month -0.193304 0.032259 0.165879 0.099807 0.223774 -0.057193 -0.051884 -0.198618 -0.112365 0.295440 -0.041738 0.274050 -0.140973 -0.110357 -0.137180 0.341531 0.148476 -0.144482 0.353179 0.052005 -0.332229 0.106469 0.082874 -0.190398 0.084346 -0.276558 0.167701 0.121276 0.262780 -0.104756 -0.157857 0.022667 -0.154187 0.204109 0.053919 0.057335 -0.030081 0.092127 0.172851 -0.066260 -0.043294 0.084125 -0.205679 0.109179 0.364989 -0.122792 0.052451 -0.126926 0.124670 -0.059708 0.115785 -0.047506 -0.067069 -0.048654 -0.221076 -0.133808 0.053637 0.116734 -0.118895 -0.255812 0.076420 0.042139 0.112485 0.006801 0.100070 0.100354 0.139338 -0.078796 0.194845 0.245513 0.217054 0.010480 0.036386 -0.181362 -0.104627 -0.160473 -0.178508 -0.109422 -0.104001 -0.239936 0.093250 0.305434 -0.023198 -0.227029 0.177126 0.257748 0.028787 0.046288 0.150209 0.005934 -0.128954 0.097847 -0.126413 0.184946 0.303092 0.172458 0.029152 0.046380 -0.025855 -0.137992 
O:4087191:six_months -0.192738 0.020822 0.154079 0.098155 0.221579 -0.053991 -0.071296 -0.173973 -0.104339 0.292452 -0.032148 0.277403 -0.136174 -0.091115 -0.148373 0.340648 0.143084 -0.122560 0.345165 0.069937 -0.330927 0.107746 0.098044 -0.182467 0.097567 -0.283046 0.151976 0.108394 0.259930 -0.104607 -0.144795 0.022861 -0.142182 0.211447 0.047922 0.028021 -0.029583 0.095766 0.154612 -0.051717 -0.059476 0.068745 -0.188190 0.085246 0.348439 -0.126412 0.067792 -0.122470 0.124575 -0.039637 0.084513 -0.040523 -0.051609 -0.030820 -0.219601 -0.119866 0.064257 0.115789 -0.099502 -0.244384 0.073892 0.028465 0.109692 0.013913 0.072522 0.091227 0.166505 -0.075683 0.211946 0.253076 0.202451 -0.025364 0.051747 -0.163561 -0.109431 -0.136404 -0.197471 -0.098596 -0.092738 -0.210421 0.082712 0.303179 -0.028273 -0.231004 0.179622 0.270442 0.044137 0.054615 0.170424 0.007939 -0.122800 0.100348 -0.126252 0.176890 0.294065 0.155221 0.036883 0.055812 -0.045719 -0.132846 
I:3673300:1 -0.368269 0.033328 0.302922 0.170351 0.439022 -0.111531 -0.138800 -0.343123 -0.219929 0.596217 -0.062922 0.543155 -0.265330 -0.170992 -0.290205 0.658183 0.297992 -0.233654 0.662733 0.162577 -0.647766 0.197364 0.193654 -0.376190 0.194216 -0.563840 0.293131 0.196068 0.490547 -0.184702 -0.296373 0.047649 -0.288781 0.380505 0.080442 0.061624 -0.039313 0.173365 0.311005 -0.120339 -0.132624 0.127787 -0.355528 0.160787 0.695000 -0.250490 0.117693 -0.234393 0.225368 -0.071548 0.166305 -0.082240 -0.107526 -0.064880 -0.413706 -0.252677 0.139217 0.204158 -0.196084 -0.469911 0.158477 0.071239 0.215251 0.026485 0.146277 0.158735 0.332511 -0.147449 0.419779 0.493552 0.401088 -0.050462 0.132475 -0.324049 -0.211014 -0.288989 -0.383112 -0.156120 -0.192198 -0.408838 0.160416 0.583048 -0.024659 -0.436712 0.324704 0.522004 0.091954 0.116489 0.354323 0.028904 -0.253327 0.191233 -0.255620 0.343944 0.566773 0.317469 0.069394 0.101270 -0.091987 -0.261819 
O:4087187:8.0 -0.207555 0.014023 0.168108 0.098966 0.245543 -0.056262 -0.074306 -0.197535 -0.118242 0.331860 -0.031590 0.298521 -0.152251 -0.103662 -0.157585 0.364644 0.158381 -0.127905 0.384981 0.084421 -0.359980 0.120244 0.097996 -0.211770 0.098953 -0.306687 0.173994 0.116508 0.274909 -0.099983 -0.167712 0.021717 -0.167038 0.214028 0.049617 0.043460 -0.030771 0.097138 0.180112 -0.058829 -0.068356 0.083945 -0.207755 0.093856 0.396265 -0.137278 0.065056 -0.135306 0.125758 -0.039166 0.105542 -0.036691 -0.062843 -0.033781 -0.244249 -0.139301 0.083735 0.118586 -0.118491 -0.263618 0.092415 0.038785 0.122208 0.016422 0.084756 0.098830 0.187720 -0.091127 0.232795 0.275282 0.233438 -0.027293 0.064025 -0.189432 -0.118625 -0.166970 -0.221076 -0.103902 -0.107458 -0.235409 0.089185 0.326327 -0.024981 -0.252183 0.184910 0.292215 0.048979 0.058944 0.190139 0.008607 -0.137127 0.108643 -0.139956 0.191497 0.320680 0.188373 0.040334 0.061964 -0.043370 -0.150438 
O:4087188:2.0 -0.152757 0.019567 0.124101 0.069114 0.170653 -0.046288 -0.054866 -0.149891 -0.086832 0.238876 -0.027283 0.220174 -0.114635 -0.080441 -0.117786 0.274664 0.116979 -0.100012 0.286692 0.053732 -0.269618 0.091313 0.070673 -0.150532 0.076466 -0.225396 0.134588 0.096607 0.209360 -0.076079 -0.117782 0.016567 -0.123762 0.160015 0.032641 0.032165 -0.016863 0.066597 0.126545 -0.046922 -0.047958 0.057094 -0.162075 0.074404 0.289966 -0.096637 0.052634 -0.098289 0.094826 -0.034532 0.080858 -0.030684 -0.048125 -0.035047 -0.180575 -0.107969 0.057044 0.091600 -0.089887 -0.196300 0.068720 0.026361 0.094432 0.014964 0.073899 0.068819 0.127808 -0.063355 0.173041 0.207095 0.166862 -0.010064 0.042820 -0.142933 -0.086208 -0.119491 -0.152933 -0.076589 -0.073485 -0.181695 0.067963 0.251938 -0.015099 -0.187237 0.140779 0.212323 0.036964 0.046934 0.137464 0.005324 -0.109585 0.076609 -0.108905 0.139999 0.238554 0.136386 0.028125 0.039658 -0.029414 -0.110765 
C:4507433:18 -0.119834 0.013878 0.095699 0.064119 0.138451 -0.029882 -0.047026 -0.125441 -0.075105 0.184023 -0.021562 0.170977 -0.090198 -0.059663 -0.089206 0.213576 0.096891 -0.087612 0.228709 0.043268 -0.207697 0.063491 0.057649 -0.124898 0.059488 -0.183885 0.098434 0.079404 0.160490 -0.062160 -0.099753 0.014461 -0.099133 0.133975 0.031969 0.030715 -0.015147 0.054871 0.105034 -0.043138 -0.033094 0.044297 -0.121771 0.066735 0.231508 -0.080547 0.032728 -0.078877 0.079245 -0.031180 0.066743 -0.029332 -0.041635 -0.025530 -0.140565 -0.086575 0.045373 0.075765 -0.068925 -0.162319 0.052528 0.023336 0.071097 0.014680 0.055465 0.058576 0.098023 -0.051049 0.133820 0.160282 0.131528 -0.006655 0.034260 -0.109996 -0.064616 -0.091196 -0.115584 -0.058308 -0.068647 -0.142039 0.062271 0.193586 -0.011745 -0.144297 0.113100 0.170354 0.021486 0.033207 0.101130 0.003073 -0.079062 0.065227 -0.084276 0.118016 0.188806 0.108796 0.020219 0.034306 -0.018799 -0.085369 
I:3673779:1 -0.295734 0.019139 0.262036 0.152746 0.350111 -0.100986 -0.137724 -0.307475 -0.199723 0.481747 -0.040168 0.457689 -0.249612 -0.130482 -0.220409 0.549888 0.257945 -0.185945 0.558080 0.135043 -0.516758 0.160012 0.166132 -0.287339 0.157537 -0.485711 0.243042 0.172715 0.421901 -0.146113 -0.267343 0.033493 -0.265871 0.310616 0.060431 0.057656 -0.001905 0.153038 0.232930 -0.073609 -0.106446 0.103810 -0.295702 0.164659 0.575805 -0.183836 0.127371 -0.176381 0.174966 -0.062297 0.127795 -0.080707 -0.085107 -0.047811 -0.328736 -0.215286 0.120638 0.132095 -0.176091 -0.370622 0.115112 0.076635 0.167290 0.014931 0.109204 0.119248 0.304255 -0.113281 0.352586 0.416110 0.342663 -0.030049 0.138496 -0.282659 -0.172140 -0.250996 -0.320881 -0.117056 -0.144635 -0.340086 0.146481 0.512065 -0.020232 -0.352934 0.256304 0.449388 0.083653 0.114247 0.289056 0.038713 -0.202135 0.169167 -0.201413 0.263866 0.496423 0.273474 0.054858 0.105408 -0.096862 -0.226682 
O:4087184:questionnaires -0.280154 0.029054 0.221209 0.129394 0.314628 -0.076349 -0.101042 -0.259153 -0.161698 0.425906 -0.046054 0.395461 -0.201556 -0.131546 -0.205352 0.479528 0.214554 -0.174657 0.503333 0.115404 -0.471536 0.153752 0.139629 -0.271071 0.135782 -0.406694 0.220435 0.155532 0.364638 -0.149665 -0.211551 0.024118 -0.205500 0.298058 0.058469 0.055997 -0.043538 0.131304 0.229876 -0.082622 -0.081569 0.094348 -0.272933 0.133858 0.514453 -0.178923 0.092768 -0.179879 0.174638 -0.057499 0.135230 -0.055844 -0.081561 -0.036552 -0.315658 -0.179196 0.103640 0.158089 -0.147172 -0.354875 0.107535 0.045076 0.161403 0.022068 0.115640 0.124510 0.235742 -0.109428 0.305696 0.370304 0.301558 -0.023427 0.081787 -0.235259 -0.147920 -0.209659 -0.283801 -0.130431 -0.131963 -0.313307 0.122764 0.425604 -0.036128 -0.321867 0.252899 0.384101 0.060728 0.079249 0.237723 0.014095 -0.182241 0.138485 -0.189018 0.243883 0.425767 0.236656 0.052312 0.076437 -0.065087 -0.201422 
O:4087184:self-reports -0.198601 0.016415 0.162745 0.094752 0.221120 -0.050991 -0.073998 -0.198062 -0.118131 0.307925 -0.037667 0.287127 -0.145296 -0.099325 -0.146518 0.348156 0.158368 -0.129824 0.351422 0.070957 -0.337093 0.111860 0.089085 -0.192455 0.100188 -0.285142 0.165082 0.115458 0.264756 -0.106183 -0.153388 0.025981 -0.157277 0.202516 0.052138 0.044783 -0.025209 0.093110 0.172054 -0.064306 -0.053648 0.070313 -0.201231 0.101598 0.366991 -0.131605 0.056419 -0.121011 0.119482 -0.052430 0.097266 -0.040753 -0.058445 -0.040121 -0.229200 -0.132665 0.066752 0.112687 -0.109510 -0.255069 0.080950 0.037636 0.113470 0.016104 0.092406 0.093392 0.158555 -0.077897 0.213756 0.260412 0.213393 -0.012910 0.057174 -0.170979 -0.111577 -0.149003 -0.200155 -0.089638 -0.105201 -0.230338 0.090267 0.316360 -0.026551 -0.227079 0.178128 0.276332 0.042673 0.056020 0.173284 0.015510 -0.136949 0.101383 -0.134062 0.182445 0.313631 0.174525 0.038331 0.055017 -0.039021 -0.138619 
O:4087186:salivary_cotinine -0.192792 0.019210 0.148877 0.089315 0.215320 -0.056727 -0.064603 -0.187584 -0.107780 0.292072 -0.030524 0.266471 -0.132294 -0.095481 -0.139300 0.334244 0.143697 -0.126383 0.345386 0.057630 -0.321075 0.099737 0.081298 -0.186027 0.092438 -0.270847 0.150249 0.112057 0.253726 -0.094351 -0.144943 0.023465 -0.148539 0.202006 0.047519 0.047184 -0.028586 0.081483 0.157697 -0.060742 -0.047513 0.078374 -0.197477 0.096098 0.348730 -0.119328 0.054627 -0.113353 0.114159 -0.051648 0.100217 -0.036559 -0.058299 -0.042732 -0.212572 -0.128519 0.067770 0.109028 -0.108286 -0.248422 0.079344 0.031094 0.109995 0.018471 0.083720 0.092600 0.149534 -0.074949 0.201379 0.240458 0.205929 -0.008761 0.050429 -0.170656 -0.106733 -0.141922 -0.179075 -0.090412 -0.094351 -0.226054 0.083486 0.293438 -0.018906 -0.220025 0.179248 0.252703 0.040915 0.051365 0.155290 0.002915 -0.124943 0.090359 -0.124337 0.169336 0.296679 0.163717 0.027745 0.057077 -0.029147 -0.131701 
O:4087187:end_of_pregnancy -0.174907 0.023540 0.141670 0.087809 0.194040 -0.051939 -0.059763 -0.169799 -0.099506 0.274919 -0.025911 0.244551 -0.130070 -0.084866 -0.128912 0.303619 0.135166 -0.112981 0.318515 0.056775 -0.301251 0.098007 0.077704 -0.167784 0.089282 -0.248377 0.145469 0.104833 0.229408 -0.087395 -0.143468 0.021467 -0.131189 0.185830 0.047690 0.041726 -0.028107 0.074710 0.148454 -0.048077 -0.053209 0.066615 -0.178067 0.084114 0.321530 -0.109972 0.047708 -0.105302 0.107732 -0.049627 0.094052 -0.039305 -0.048718 -0.029796 -0.199452 -0.116812 0.054576 0.103916 -0.093198 -0.223996 0.069192 0.034113 0.104064 0.018201 0.086685 0.083841 0.147323 -0.071260 0.191579 0.231730 0.183830 -0.013951 0.050201 -0.158854 -0.092903 -0.132478 -0.174516 -0.081431 -0.084013 -0.199943 0.087734 0.274639 -0.019456 -0.211517 0.157076 0.245804 0.037022 0.047551 0.149159 0.003280 -0.113206 0.083358 -0.118361 0.155758 0.276270 0.151603 0.027858 0.054993 -0.035383 -0.128694 
O:4087188:4.0 -0.183856 0.016474 0.144482 0.091911 0.209405 -0.048241 -0.062693 -0.179541 -0.101964 0.285467 -0.032086 0.254957 -0.128683 -0.088812 -0.139280 0.322613 0.144911 -0.116896 0.333353 0.069272 -0.311124 0.099284 0.083406 -0.183927 0.091732 -0.266376 0.150020 0.109224 0.241603 -0.089007 -0.140445 0.023659 -0.136893 0.192755 0.048079 0.035276 -0.025066 0.085227 0.157752 -0.058777 -0.045146 0.070872 -0.184216 0.094619 0.339022 -0.118889 0.050515 -0.111778 0.111658 -0.045796 0.096548 -0.036908 -0.059746 -0.034504 -0.206581 -0.123809 0.057864 0.104170 -0.109804 -0.228797 0.078752 0.037273 0.103344 0.015944 0.080963 0.084949 0.143928 -0.077533 0.195693 0.241411 0.200828 -0.008823 0.047057 -0.163737 -0.102734 -0.138213 -0.179307 -0.094923 -0.093104 -0.210054 0.089518 0.292645 -0.023883 -0.215103 0.166679 0.251495 0.032082 0.052595 0.156739 0.007663 -0.119882 0.091047 -0.124234 0.164225 0.284431 0.163926 0.026154 0.049900 -0.031997 -0.135307 
O:4087172:smokers -0.184565 0.021873 0.148479 0.084411 0.225088 -0.048184 -0.075048 -0.173572 -0.110157 0.299389 -0.029603 0.270618 -0.142596 -0.094824 -0.138131 0.335414 0.149480 -0.120989 0.337606 0.079008 -0.320383 0.096895 0.093813 -0.194486 0.103141 -0.276034 0.149410 0.110022 0.256763 -0.093908 -0.149597 0.029486 -0.151313 0.192740 0.035192 0.033932 -0.022665 0.092419 0.155783 -0.063949 -0.058074 0.073066 -0.190938 0.090764 0.359259 -0.123807 0.058137 -0.121432 0.116302 -0.042420 0.086479 -0.039658 -0.055614 -0.030927 -0.213202 -0.132756 0.076987 0.095109 -0.104067 -0.237409 0.079653 0.040076 0.094871 0.016042 0.079440 0.082486 0.171374 -0.078947 0.215627 0.254140 0.212886 -0.019624 0.066584 -0.169964 -0.101290 -0.155237 -0.197514 -0.084010 -0.107508 -0.219610 0.083505 0.297436 -0.016131 -0.221164 0.165113 0.268101 0.030609 0.045783 0.169588 0.008261 -0.123343 0.100125 -0.133660 0.162047 0.301544 0.173594 0.035406 0.057835 -0.039896 -0.141665 
O:4087187:end_of_treatment -0.158089 0.018695 0.127496 0.076030 0.190096 -0.046950 -0.061956 -0.154543 -0.097487 0.243243 -0.033318 0.231823 -0.114906 -0.082015 -0.117951 0.282604 0.131249 -0.104142 0.282651 0.064119 -0.271668 0.092110 0.076077 -0.160953 0.077436 -0.237118 0.129410 0.097763 0.218001 -0.074470 -0.124397 0.025507 -0.130512 0.162531 0.039547 0.030549 -0.023445 0.077574 0.137440 -0.056341 -0.051349 0.060128 -0.161942 0.079735 0.302609 -0.105346 0.054571 -0.099248 0.096718 -0.040544 0.082693 -0.039522 -0.045507 -0.028276 -0.180604 -0.112165 0.056650 0.084552 -0.096156 -0.208771 0.060775 0.034724 0.090118 0.010028 0.073423 0.071406 0.137634 -0.061758 0.174660 0.209829 0.177853 -0.014061 0.041826 -0.144965 -0.086527 -0.130958 -0.159716 -0.079738 -0.081861 -0.191009 0.069710 0.252313 -0.020462 -0.185640 0.145094 0.221542 0.027137 0.042238 0.139609 0.004453 -0.109229 0.082488 -0.110866 0.144537 0.251968 0.143165 0.027048 0.047589 -0.036178 -0.110207 
O:4087188:3- -0.174465 0.022077 0.154627 0.083335 0.205443 -0.053930 -0.061796 -0.180524 -0.103603 0.286146 -0.034992 0.262797 -0.125853 -0.079514 -0.139560 0.310766 0.141200 -0.118485 0.327913 0.076513 -0.315963 0.098665 0.081941 -0.181285 0.093740 -0.273829 0.150549 0.104696 0.244303 -0.085819 -0.144851 0.022409 -0.146287 0.182081 0.050298 0.037601 -0.026158 0.078039 0.156848 -0.049445 -0.056745 0.061886 -0.183993 0.090445 0.346035 -0.121849 0.057003 -0.119834 0.114066 -0.042658 0.090913 -0.036090 -0.051881 -0.042601 -0.208929 -0.121472 0.067557 0.099378 -0.097804 -0.229626 0.074116 0.037952 0.094973 0.007773 0.082529 0.077386 0.151623 -0.077840 0.197357 0.235594 0.199807 -0.016094 0.054161 -0.165475 -0.100086 -0.148537 -0.179309 -0.081458 -0.097829 -0.205955 0.079932 0.286337 -0.017194 -0.206122 0.165666 0.251508 0.035222 0.046281 0.164752 0.008017 -0.125091 0.084314 -0.124710 0.163416 0.280702 0.155204 0.032552 0.059296 -0.034133 -0.126682 
O:4087191:12-months -0.150947 0.024775 0.120311 0.076664 0.163045 -0.043642 -0.041802 -0.149865 -0.079100 0.225262 -0.026725 0.206467 -0.105853 -0.082231 -0.109545 0.257560 0.109367 -0.108598 0.269766 0.039256 -0.252724 0.084869 0.056711 -0.135463 0.062499 -0.202578 0.122488 0.097460 0.198853 -0.082235 -0.118500 0.013634 -0.105444 0.155473 0.039652 0.041622 -0.027985 0.063259 0.128753 -0.044384 -0.025992 0.061828 -0.161913 0.080280 0.271774 -0.091525 0.045019 -0.095424 0.090960 -0.051396 0.085699 -0.026541 -0.050451 -0.036316 -0.167481 -0.091783 0.040424 0.088076 -0.089145 -0.195619 0.058285 0.022932 0.092430 0.003568 0.075358 0.071999 0.106700 -0.056594 0.152203 0.188958 0.162704 0.009354 0.019302 -0.133921 -0.078156 -0.110761 -0.131292 -0.086109 -0.082356 -0.187588 0.074413 0.236259 -0.024254 -0.179176 0.143279 0.198486 0.018976 0.033818 0.116574 0.000234 -0.100479 0.067766 -0.101885 0.136742 0.227042 0.124743 0.023897 0.036638 -0.024490 -0.109703 
O:4087191:18.0 -0.134837 0.012266 0.120673 0.064566 0.161160 -0.034333 -0.045885 -0.138162 -0.086267 0.219779 -0.023553 0.203008 -0.109186 -0.072472 -0.106082 0.243949 0.115626 -0.094923 0.260089 0.047907 -0.242641 0.073830 0.072837 -0.140968 0.064872 -0.209978 0.117064 0.087713 0.187382 -0.072861 -0.108565 0.017912 -0.114499 0.149141 0.030895 0.029466 -0.018242 0.061478 0.123056 -0.047442 -0.043345 0.051187 -0.139821 0.067797 0.268476 -0.090117 0.038192 -0.094986 0.089420 -0.035514 0.067416 -0.035254 -0.046194 -0.022366 -0.166190 -0.100426 0.055987 0.076245 -0.080041 -0.181157 0.060496 0.032513 0.081642 0.006239 0.064377 0.067050 0.117787 -0.060271 0.158915 0.184935 0.151372 -0.009034 0.045366 -0.129814 -0.076079 -0.116059 -0.144795 -0.065832 -0.077494 -0.168736 0.065037 0.224628 -0.020609 -0.167179 0.130279 0.198884 0.029221 0.034992 0.131723 0.001503 -0.101418 0.076263 -0.098595 0.130005 0.218323 0.120580 0.018974 0.041385 -0.033715 -0.096649 
O:4087187:6- -0.211125 0.030840 0.168665 0.096657 0.219685 -0.052895 -0.051545 -0.212081 -0.115956 0.300889 -0.049523 0.274037 -0.140564 -0.113904 -0.148121 0.345754 0.160422 -0.143810 0.364308 0.039457 -0.339917 0.117336 0.072048 -0.190568 0.077330 -0.272530 0.169301 0.132482 0.264325 -0.116544 -0.160029 0.027122 -0.145800 0.211450 0.059073 0.062831 -0.038229 0.086965 0.176773 -0.066506 -0.034011 0.081372 -0.216028 0.105516 0.366072 -0.125949 0.051851 -0.116443 0.124293 -0.074535 0.117647 -0.039185 -0.060116 -0.044632 -0.230733 -0.137051 0.055467 0.131272 -0.117329 -0.267637 0.074521 0.042871 0.122113 0.013310 0.107081 0.104200 0.138656 -0.084491 0.198121 0.247698 0.210142 0.006837 0.028685 -0.178280 -0.108603 -0.156597 -0.176057 -0.116970 -0.110647 -0.254515 0.104003 0.320393 -0.025846 -0.238557 0.182110 0.254447 0.023285 0.040015 0.151998 0.005188 -0.141714 0.087376 -0.129571 0.187142 0.308666 0.169781 0.030151 0.045673 -0.031960 -0.136037 
C:4507424:English_speaking -0.036864 0.004203 0.021388 0.013182 0.035092 -0.012152 -0.007119 -0.026270 -0.014967 0.050376 -0.009440 0.049308 -0.022394 -0.012473 -0.021017 0.059805 0.021825 -0.015753 0.061356 0.011720 -0.054729 0.018897 0.017968 -0.033837 0.015526 -0.047547 0.023994 0.024286 0.041945 -0.019629 -0.028597 0.006418 -0.022322 0.032842 0.008757 0.010999 -0.007233 0.012962 0.031745 -0.005429 -0.014192 0.013610 -0.029252 0.018473 0.057071 -0.022142 0.006734 -0.021059 0.019960 -0.005633 0.013456 -0.009004 -0.009408 -0.009417 -0.040357 -0.018169 0.008849 0.016994 -0.015567 -0.045628 0.008755 0.004038 0.022621 0.006610 0.014424 0.010291 0.028286 -0.011173 0.031447 0.039520 0.035780 -0.005940 0.006679 -0.027789 -0.022059 -0.020552 -0.026718 -0.012432 -0.019430 -0.040845 0.017759 0.049233 -0.007916 -0.040151 0.028917 0.044796 0.001579 0.011101 0.023317 -0.001766 -0.018769 0.014827 -0.017753 0.025118 0.047047 0.026321 0.004036 0.009571 -0.007418 -0.018590 
C:4507524:pregnancy -0.138878 0.006928 0.119544 0.062728 0.163474 -0.043355 -0.043330 -0.140256 -0.073996 0.214244 -0.025494 0.194194 -0.104530 -0.060597 -0.102748 0.238877 0.107876 -0.087500 0.251264 0.060530 -0.235251 0.077252 0.062173 -0.142651 0.067237 -0.203069 0.106947 0.075466 0.185012 -0.064312 -0.109798 0.017608 -0.111799 0.143857 0.035220 0.031861 -0.022546 0.063551 0.113108 -0.041697 -0.041182 0.048311 -0.138760 0.068081 0.263283 -0.088607 0.042597 -0.093545 0.092515 -0.030453 0.074018 -0.031773 -0.034525 -0.033680 -0.160718 -0.098203 0.053755 0.073869 -0.076349 -0.182501 0.055061 0.022352 0.077039 0.003733 0.062140 0.059066 0.118811 -0.055853 0.151877 0.179748 0.149778 -0.015816 0.043395 -0.119924 -0.074865 -0.111122 -0.145512 -0.057676 -0.078897 -0.163057 0.065539 0.219046 -0.017302 -0.164609 0.126496 0.193747 0.025794 0.038228 0.122314 0.002920 -0.096000 0.067486 -0.094843 0.132326 0.218862 0.119657 0.031263 0.040257 -0.024796 -0.099905 
O:4087186:expired_carbon_monoxide -0.229132 0.020504 0.182362 0.111817 0.252376 -0.057221 -0.074081 -0.213478 -0.126702 0.347365 -0.041267 0.318387 -0.165016 -0.111358 -0.167755 0.390261 0.176807 -0.143491 0.401741 0.086145 -0.380415 0.124632 0.109408 -0.219418 0.106516 -0.322725 0.182619 0.136062 0.301295 -0.118731 -0.179936 0.029839 -0.169098 0.232981 0.054421 0.049282 -0.032060 0.099508 0.189588 -0.062789 -0.066553 0.083057 -0.218915 0.106188 0.410629 -0.143190 0.074299 -0.135150 0.133149 -0.055987 0.108760 -0.039600 -0.065487 -0.040339 -0.258362 -0.150234 0.076435 0.124758 -0.129723 -0.283259 0.086126 0.037680 0.123355 0.013116 0.095088 0.106188 0.182369 -0.090600 0.242236 0.289952 0.236386 -0.014315 0.065524 -0.189141 -0.125590 -0.174953 -0.219580 -0.105988 -0.115245 -0.257353 0.100209 0.356062 -0.024515 -0.268562 0.206635 0.304187 0.048059 0.064711 0.193546 0.013270 -0.154950 0.114410 -0.149422 0.206037 0.344825 0.191164 0.032798 0.060932 -0.046187 -0.162577 
C:4507490:patients -0.113439 0.014189 0.098875 0.056531 0.136917 -0.033080 -0.049368 -0.114579 -0.070713 0.186784 -0.025295 0.171311 -0.085356 -0.058056 -0.083853 0.208191 0.097457 -0.072713 0.216082 0.042983 -0.197379 0.067176 0.060309 -0.111284 0.056394 -0.175450 0.095459 0.065292 0.161185 -0.056811 -0.094466 0.016306 -0.095231 0.124784 0.026723 0.027662 -0.016541 0.054305 0.099448 -0.033435 -0.032189 0.047026 -0.118567 0.053439 0.224045 -0.074213 0.034793 -0.075604 0.070251 -0.022673 0.059087 -0.025312 -0.037575 -0.016874 -0.129493 -0.078035 0.046655 0.068173 -0.069049 -0.151741 0.048436 0.016640 0.066974 0.014693 0.048082 0.047992 0.099852 -0.048054 0.127077 0.152470 0.128377 -0.008664 0.033048 -0.100778 -0.066310 -0.087617 -0.121087 -0.052480 -0.061695 -0.132961 0.053502 0.180951 -0.018936 -0.137280 0.109015 0.166131 0.025845 0.035177 0.100111 0.009493 -0.078149 0.059822 -0.081027 0.100666 0.182121 0.098292 0.023056 0.034782 -0.029503 -0.086074 
I:3675714:1 -0.488179 0.054698 0.408421 0.233059 0.564947 -0.142967 -0.166080 -0.456815 -0.271878 0.762030 -0.070647 0.686775 -0.343781 -0.235506 -0.348455 0.841788 0.363232 -0.312751 0.889631 0.209060 -0.824771 0.267440 0.232989 -0.487307 0.244152 -0.711620 0.402645 0.287313 0.639931 -0.256102 -0.385397 0.061468 -0.388588 0.507040 0.121175 0.087783 -0.061543 0.217789 0.420092 -0.155785 -0.159242 0.179624 -0.493215 0.242086 0.901173 -0.309115 0.150398 -0.322237 0.308252 -0.101399 0.245864 -0.095340 -0.138995 -0.089286 -0.546036 -0.328630 0.180625 0.269813 -0.258999 -0.616338 0.201471 0.084356 0.262226 0.030021 0.196950 0.226571 0.414207 -0.214371 0.526250 0.643221 0.533101 -0.045347 0.153403 -0.438285 -0.251949 -0.386900 -0.489343 -0.234021 -0.248151 -0.562149 0.207707 0.775055 -0.062860 -0.572663 0.437172 0.692956 0.112516 0.143338 0.437738 0.037147 -0.334650 0.263450 -0.338996 0.434383 0.747894 0.409709 0.087606 0.148226 -0.099014 -0.351786 
O:4087184:reported -0.313475 0.038317 0.255468 0.147311 0.343017 -0.086483 -0.098458 -0.310197 -0.171731 0.470803 -0.067721 0.432581 -0.214781 -0.150483 -0.228640 0.536891 0.235872 -0.216409 0.545329 0.085284 -0.521580 0.167400 0.130254 -0.292052 0.140713 -0.441187 0.252258 0.186161 0.404949 -0.157420 -0.240094 0.036507 -0.225812 0.318867 0.083288 0.088981 -0.057143 0.136671 0.258503 -0.097062 -0.078187 0.115305 -0.322068 0.159692 0.565386 -0.195530 0.090248 -0.192812 0.187850 -0.091192 0.161238 -0.060013 -0.101349 -0.069588 -0.357472 -0.202723 0.094532 0.183474 -0.175786 -0.392154 0.126837 0.061036 0.186212 0.014931 0.155939 0.150053 0.239744 -0.127465 0.324098 0.391605 0.332980 -0.007289 0.071301 -0.279008 -0.158866 -0.236793 -0.292205 -0.158118 -0.157013 -0.371245 0.138395 0.478353 -0.035444 -0.365379 0.278189 0.407851 0.053311 0.080342 0.244877 0.001256 -0.204146 0.148095 -0.210122 0.280758 0.476835 0.262296 0.055324 0.077708 -0.047730 -0.216820 
O:4087186:CO_level -0.137634 0.010942 0.123790 0.063846 0.165539 -0.037615 -0.053228 -0.147137 -0.083590 0.230249 -0.028842 0.200892 -0.107645 -0.070227 -0.099994 0.249579 0.114554 -0.089883 0.255792 0.052331 -0.243713 0.074879 0.062937 -0.139244 0.066297 -0.208575 0.112467 0.082780 0.197368 -0.070775 -0.116048 0.019613 -0.113848 0.149975 0.033067 0.030695 -0.019266 0.061389 0.113660 -0.036965 -0.047821 0.052457 -0.145651 0.072735 0.266200 -0.091949 0.046128 -0.090459 0.087313 -0.035672 0.077097 -0.027118 -0.037115 -0.032376 -0.164292 -0.100427 0.056919 0.081104 -0.083065 -0.187197 0.056881 0.027199 0.076661 0.001539 0.064607 0.064590 0.117746 -0.062274 0.152216 0.194564 0.157218 -0.018716 0.037252 -0.131374 -0.075320 -0.114324 -0.145249 -0.069333 -0.071508 -0.163394 0.065360 0.227990 -0.011353 -0.169687 0.128325 0.196574 0.024110 0.044374 0.124886 0.008402 -0.095825 0.066437 -0.096542 0.127758 0.227066 0.128816 0.027722 0.043853 -0.030500 -0.097141 
O:4087187:3- -0.182041 0.024372 0.139411 0.085958 0.191236 -0.049272 -0.049762 -0.174513 -0.095913 0.261442 -0.031943 0.243434 -0.128806 -0.089627 -0.134332 0.305605 0.137836 -0.117619 0.312136 0.050346 -0.293848 0.101466 0.074997 -0.166821 0.078244 -0.243443 0.152057 0.118242 0.231317 -0.095915 -0.137969 0.017846 -0.133471 0.185688 0.054866 0.047224 -0.035976 0.075959 0.156534 -0.057031 -0.033320 0.067328 -0.185588 0.088384 0.324926 -0.109611 0.043366 -0.109983 0.111072 -0.055510 0.092284 -0.039762 -0.054741 -0.039167 -0.203001 -0.121606 0.055608 0.103220 -0.102477 -0.225797 0.069429 0.033846 0.103714 0.007549 0.087016 0.080376 0.123729 -0.075925 0.176630 0.222954 0.187033 0.008863 0.030977 -0.158848 -0.097992 -0.138308 -0.161043 -0.093144 -0.089099 -0.214390 0.087724 0.277464 -0.024704 -0.203574 0.158027 0.237315 0.031287 0.047296 0.134074 0.004887 -0.111295 0.079821 -0.114800 0.158338 0.272822 0.150159 0.025200 0.050710 -0.025669 -0.124316 
O:4087189:24.0 -0.128866 0.007112 0.100959 0.056782 0.147321 -0.029373 -0.042937 -0.121176 -0.077998 0.194622 -0.016321 0.187927 -0.096862 -0.056794 -0.095198 0.229015 0.102560 -0.084250 0.233844 0.047644 -0.218152 0.070766 0.066157 -0.128672 0.060928 -0.187726 0.103972 0.078559 0.172859 -0.067021 -0.095740 0.009685 -0.096064 0.132735 0.033619 0.024276 -0.022040 0.057108 0.112886 -0.040059 -0.034244 0.047610 -0.126304 0.061009 0.235210 -0.081648 0.045760 -0.084525 0.083997 -0.031593 0.056871 -0.022321 -0.042027 -0.022252 -0.149484 -0.083340 0.046474 0.078102 -0.074913 -0.160796 0.055654 0.026327 0.076018 0.007687 0.048429 0.053422 0.103261 -0.057058 0.142989 0.171487 0.140949 -0.014467 0.041127 -0.108770 -0.066134 -0.097024 -0.130603 -0.062350 -0.069053 -0.141755 0.058708 0.197083 -0.009932 -0.151384 0.118532 0.174851 0.025464 0.035903 0.116071 0.001692 -0.090190 0.070055 -0.090560 0.120519 0.192777 0.108717 0.023844 0.030813 -0.024702 -0.094349 
O:4087189:36.0 -0.117623 0.011842 0.102327 0.055188 0.138626 -0.031000 -0.039260 -0.113128 -0.061980 0.180728 -0.020370 0.170937 -0.084586 -0.050678 -0.087355 0.206660 0.090336 -0.075301 0.215148 0.045934 -0.206950 0.068330 0.059060 -0.118234 0.058574 -0.171697 0.099524 0.072455 0.164069 -0.057101 -0.098433 0.014817 -0.088570 0.122574 0.030448 0.023479 -0.013735 0.053225 0.096092 -0.034282 -0.038389 0.043801 -0.117565 0.049905 0.222657 -0.080332 0.038348 -0.079960 0.070557 -0.023996 0.062964 -0.023839 -0.031056 -0.021677 -0.141185 -0.082949 0.039801 0.066910 -0.065815 -0.148070 0.049485 0.018921 0.070878 0.002393 0.053169 0.052039 0.104607 -0.050678 0.132565 0.154813 0.127660 -0.014458 0.040402 -0.105974 -0.063064 -0.093450 -0.119553 -0.052358 -0.064883 -0.129546 0.055323 0.180890 -0.012307 -0.140750 0.102443 0.162976 0.028903 0.032295 0.105994 0.001509 -0.080806 0.054180 -0.084994 0.106716 0.182608 0.108322 0.023389 0.039997 -0.019403 -0.080664 
O:4087191:13.0 -0.149169 0.020003 0.124066 0.076111 0.166136 -0.038947 -0.044485 -0.147865 -0.082450 0.231912 -0.028151 0.206644 -0.105375 -0.071362 -0.109475 0.259193 0.119855 -0.098818 0.265562 0.050289 -0.259131 0.086496 0.060992 -0.142557 0.072152 -0.215629 0.121003 0.089131 0.194699 -0.083360 -0.118582 0.013632 -0.108514 0.164826 0.042166 0.034445 -0.019322 0.067664 0.130631 -0.043949 -0.034086 0.061582 -0.156709 0.075628 0.273955 -0.093673 0.043821 -0.092356 0.094437 -0.037716 0.072212 -0.029713 -0.043004 -0.024542 -0.175528 -0.098891 0.046491 0.086210 -0.081898 -0.188788 0.055109 0.026089 0.088767 0.007404 0.065190 0.075489 0.119003 -0.065859 0.159548 0.197881 0.157243 -0.009470 0.029908 -0.130622 -0.082524 -0.117002 -0.146163 -0.080593 -0.072706 -0.181390 0.068558 0.236976 -0.020176 -0.178931 0.137139 0.207343 0.033444 0.040264 0.119522 0.010641 -0.095822 0.077301 -0.106475 0.137002 0.225586 0.125140 0.023291 0.043633 -0.025053 -0.107071 
O:4087191:24.0 -0.142407 0.012369 0.108813 0.072839 0.159384 -0.039949 -0.054213 -0.135311 -0.082559 0.218873 -0.021490 0.206743 -0.103220 -0.066448 -0.103683 0.250210 0.103630 -0.083915 0.250340 0.051200 -0.233787 0.077992 0.070649 -0.132541 0.068217 -0.211599 0.109095 0.086480 0.190862 -0.073707 -0.108581 0.019320 -0.111178 0.151519 0.034557 0.020501 -0.015726 0.067861 0.121046 -0.038787 -0.044961 0.055074 -0.144696 0.062201 0.256353 -0.097356 0.042334 -0.088991 0.083672 -0.033300 0.061631 -0.022015 -0.037368 -0.018926 -0.157354 -0.095199 0.049014 0.083985 -0.071609 -0.175038 0.052513 0.021105 0.074732 0.015385 0.051906 0.063274 0.124306 -0.057664 0.151934 0.190639 0.155715 -0.017330 0.043687 -0.116621 -0.084384 -0.103126 -0.149444 -0.068647 -0.069933 -0.158182 0.068113 0.223427 -0.018636 -0.162121 0.131560 0.200949 0.034739 0.038171 0.121809 0.004558 -0.096501 0.077003 -0.095249 0.125169 0.222323 0.123771 0.032013 0.040870 -0.031715 -0.102815 
O:4087186:expired-air_carbon_monoxide_(CO) -0.206298 0.025523 0.171321 0.095680 0.243297 -0.054914 -0.072489 -0.205120 -0.125013 0.330090 -0.031667 0.303237 -0.148974 -0.106507 -0.156072 0.365136 0.167894 -0.132871 0.385101 0.076331 -0.361425 0.114105 0.093396 -0.208591 0.098200 -0.307959 0.170315 0.123001 0.285399 -0.110014 -0.160324 0.022454 -0.166836 0.222878 0.049707 0.046741 -0.023930 0.093599 0.181349 -0.064305 -0.064480 0.082330 -0.216047 0.103922 0.396823 -0.141073 0.070748 -0.138762 0.136944 -0.051785 0.111355 -0.040640 -0.058259 -0.040946 -0.239641 -0.145859 0.078402 0.118959 -0.119140 -0.273969 0.090675 0.042969 0.121012 0.017184 0.097464 0.093697 0.171503 -0.092872 0.226145 0.279294 0.230483 -0.021284 0.056622 -0.184264 -0.117747 -0.166770 -0.216218 -0.106853 -0.115298 -0.250225 0.091477 0.327922 -0.025023 -0.247224 0.187487 0.290159 0.042320 0.055763 0.182845 0.006178 -0.147756 0.102646 -0.148302 0.186247 0.322763 0.180640 0.037632 0.061810 -0.043087 -0.143267 
O:4087188:13.0 -0.140225 0.017719 0.118714 0.070081 0.163966 -0.040171 -0.052294 -0.133428 -0.086960 0.227685 -0.020396 0.204043 -0.106561 -0.067946 -0.106531 0.251609 0.111724 -0.083489 0.254591 0.062254 -0.248726 0.082521 0.068247 -0.142604 0.069520 -0.216346 0.120132 0.078540 0.188615 -0.077473 -0.114948 0.012465 -0.116293 0.145501 0.031381 0.030471 -0.016358 0.069662 0.119058 -0.047369 -0.048258 0.049476 -0.137801 0.062499 0.268306 -0.092901 0.041781 -0.086037 0.084262 -0.031822 0.065446 -0.028605 -0.036873 -0.027010 -0.167985 -0.099130 0.053801 0.075146 -0.077857 -0.181375 0.054717 0.022965 0.081595 0.014643 0.059603 0.068107 0.129587 -0.063299 0.154324 0.185395 0.162377 -0.010351 0.046568 -0.124124 -0.077308 -0.105162 -0.143797 -0.066403 -0.076371 -0.161423 0.064794 0.227701 -0.012499 -0.169852 0.132474 0.200987 0.030357 0.038370 0.131857 0.010913 -0.097034 0.070271 -0.093304 0.123827 0.223106 0.124402 0.023450 0.041477 -0.027828 -0.096612 
C:4507490:outpatient -0.118311 0.009668 0.090237 0.051257 0.137463 -0.029710 -0.045099 -0.115649 -0.068771 0.180306 -0.017267 0.167979 -0.087744 -0.054326 -0.090394 0.207491 0.092869 -0.076659 0.207802 0.042487 -0.205258 0.063142 0.051114 -0.119417 0.059854 -0.167585 0.091019 0.071644 0.158946 -0.064767 -0.092929 0.018507 -0.086645 0.119340 0.030314 0.027906 -0.019202 0.056004 0.103255 -0.031832 -0.029344 0.039786 -0.122306 0.062414 0.220319 -0.074642 0.040427 -0.073849 0.074842 -0.031765 0.061600 -0.026826 -0.034019 -0.019567 -0.134842 -0.079594 0.044628 0.065592 -0.069112 -0.154120 0.046884 0.022163 0.067271 0.005909 0.049409 0.057375 0.100456 -0.050469 0.128510 0.151131 0.126387 -0.005612 0.028616 -0.103300 -0.068266 -0.090561 -0.115180 -0.059799 -0.062653 -0.136705 0.055945 0.188189 -0.011711 -0.141848 0.100887 0.164888 0.018547 0.037259 0.104139 0.006518 -0.076891 0.063512 -0.082915 0.107773 0.176549 0.104942 0.025215 0.030132 -0.021259 -0.082545 
I:3675715:1 -0.242822 -0.008133 0.209544 0.127699 0.298802 -0.062720 -0.101680 -0.229709 -0.152008 0.409874 -0.048447 0.364521 -0.173028 -0.113096 -0.193695 0.427871 0.193352 -0.129401 0.441823 0.134711 -0.446987 0.141001 0.110947 -0.266802 0.113269 -0.376932 0.186301 0.145156 0.332688 -0.102622 -0.209439 0.050223 -0.185387 0.246961 0.027335 0.031778 -0.022157 0.119640 0.195382 -0.066178 -0.106400 0.074406 -0.232568 0.101085 0.479228 -0.152988 0.076433 -0.178442 0.136360 -0.031050 0.101207 -0.029069 -0.078896 -0.026992 -0.260482 -0.166602 0.118863 0.113723 -0.148301 -0.333450 0.087598 0.057098 0.147195 0.024729 0.089339 0.114707 0.215455 -0.109105 0.268424 0.342176 0.286212 -0.055489 0.073216 -0.220203 -0.125857 -0.208105 -0.281859 -0.095856 -0.107069 -0.253696 0.121276 0.381210 -0.013824 -0.289663 0.215119 0.359045 0.048793 0.065950 0.255637 0.029983 -0.172446 0.140637 -0.149587 0.234628 0.379060 0.219600 0.040902 0.081913 -0.046830 -0.172965 
O:4087186:urine-cotinine -0.157661 0.012701 0.132088 0.072815 0.183890 -0.047426 -0.063450 -0.157252 -0.094686 0.258844 -0.030600 0.230360 -0.119952 -0.074176 -0.120759 0.285668 0.130513 -0.107588 0.302240 0.064951 -0.279938 0.084949 0.076773 -0.161849 0.084227 -0.241039 0.131349 0.089402 0.224117 -0.079927 -0.132057 0.024714 -0.125536 0.175583 0.037383 0.029389 -0.025438 0.070801 0.136678 -0.045741 -0.046914 0.056760 -0.168900 0.080758 0.303118 -0.100216 0.050058 -0.106145 0.096582 -0.036049 0.079104 -0.031131 -0.043569 -0.030345 -0.180719 -0.107920 0.061985 0.086847 -0.095730 -0.208306 0.071391 0.027459 0.085484 0.013979 0.071803 0.069214 0.146762 -0.064424 0.176346 0.219987 0.175918 -0.015464 0.047669 -0.143599 -0.089452 -0.129948 -0.172323 -0.070846 -0.086213 -0.185273 0.075955 0.262704 -0.017626 -0.196521 0.153366 0.229220 0.039094 0.044880 0.150056 0.010659 -0.117019 0.086819 -0.109585 0.149745 0.254235 0.144136 0.030382 0.043022 -0.033756 -0.112476 
C:4507413:African_American -0.100497 0.008951 0.078968 0.052514 0.114567 -0.030196 -0.035469 -0.094086 -0.059747 0.154714 -0.022374 0.141202 -0.075645 -0.046234 -0.067376 0.168231 0.072853 -0.067368 0.175964 0.029926 -0.167011 0.059217 0.049486 -0.101150 0.048940 -0.139393 0.079214 0.055859 0.132763 -0.056251 -0.081051 0.014081 -0.074675 0.104257 0.023102 0.022358 -0.017323 0.043310 0.087663 -0.034591 -0.031148 0.036997 -0.101363 0.050371 0.183743 -0.064020 0.026320 -0.062444 0.061102 -0.022423 0.050417 -0.023338 -0.027764 -0.013854 -0.116580 -0.064244 0.035800 0.062019 -0.051504 -0.121621 0.041427 0.022996 0.052133 0.005322 0.047503 0.044136 0.082637 -0.043332 0.109269 0.124697 0.111942 -0.001943 0.022315 -0.090618 -0.057902 -0.070137 -0.099763 -0.052172 -0.046986 -0.119543 0.047485 0.152112 -0.014760 -0.114733 0.093345 0.139028 0.024464 0.027216 0.084709 0.008187 -0.070867 0.052820 -0.063246 0.089466 0.152670 0.089559 0.013723 0.024634 -0.016763 -0.071634 
O:4087185:family_or_friends -0.125962 0.015437 0.098523 0.065057 0.139148 -0.033692 -0.045234 -0.114586 -0.067595 0.194085 -0.024568 0.183915 -0.090486 -0.057681 -0.093208 0.217386 0.086953 -0.077488 0.224977 0.053129 -0.207722 0.070517 0.063703 -0.124341 0.060524 -0.180192 0.100388 0.067920 0.167218 -0.062210 -0.099224 0.015119 -0.097024 0.133801 0.030098 0.019676 -0.019957 0.058097 0.104762 -0.032318 -0.038409 0.049951 -0.118249 0.053071 0.230842 -0.082383 0.037885 -0.080032 0.077533 -0.021433 0.057297 -0.023769 -0.041922 -0.023042 -0.138480 -0.077337 0.044047 0.069173 -0.071059 -0.159004 0.043710 0.020719 0.072277 0.011913 0.045296 0.058380 0.103885 -0.045680 0.138835 0.164354 0.139452 -0.008920 0.036645 -0.111164 -0.073622 -0.088324 -0.133245 -0.062592 -0.056209 -0.135222 0.056271 0.190572 -0.012929 -0.153373 0.111057 0.172518 0.032358 0.041669 0.110645 0.002289 -0.085011 0.059291 -0.084971 0.115587 0.186445 0.105541 0.028535 0.030314 -0.025753 -0.082096 
O:4087186:CO_testingcotinine -0.131985 0.014250 0.106573 0.065992 0.147537 -0.032776 -0.042431 -0.138073 -0.073625 0.199122 -0.025716 0.188497 -0.090345 -0.072499 -0.094384 0.233551 0.105070 -0.095468 0.237881 0.030834 -0.236109 0.080258 0.049147 -0.132062 0.054433 -0.186361 0.112974 0.090193 0.180187 -0.078858 -0.105285 0.013396 -0.103631 0.144754 0.040210 0.039284 -0.028524 0.061634 0.119034 -0.039775 -0.033385 0.056066 -0.144669 0.072031 0.245516 -0.089102 0.038039 -0.078065 0.078750 -0.041967 0.079379 -0.027341 -0.041556 -0.030931 -0.158617 -0.089106 0.041499 0.082698 -0.083585 -0.174401 0.056014 0.030043 0.077085 0.012441 0.071588 0.071667 0.104366 -0.053861 0.134088 0.166748 0.147662 -0.002073 0.029409 -0.116197 -0.074671 -0.101181 -0.119971 -0.068132 -0.066845 -0.163962 0.063794 0.209469 -0.019879 -0.160197 0.118947 0.183049 0.018863 0.027499 0.107008 0.001324 -0.091401 0.065270 -0.086485 0.126844 0.202588 0.120597 0.016728 0.031597 -0.019242 -0.096945 
O:4087186:cotinine -0.102212 0.011278 0.078077 0.052464 0.113194 -0.029620 -0.030522 -0.093833 -0.056266 0.151873 -0.015879 0.143519 -0.065299 -0.044551 -0.073367 0.175682 0.077212 -0.066648 0.178815 0.041019 -0.170294 0.059987 0.046637 -0.093221 0.053469 -0.139046 0.080437 0.054443 0.133865 -0.055942 -0.072381 0.006735 -0.076552 0.106820 0.024459 0.015631 -0.015412 0.041035 0.079556 -0.029856 -0.032552 0.040654 -0.093734 0.044427 0.182496 -0.067769 0.026339 -0.063825 0.059500 -0.026815 0.049228 -0.022560 -0.033366 -0.018446 -0.108261 -0.066306 0.030366 0.054641 -0.053257 -0.122724 0.037121 0.022699 0.060385 0.007001 0.041909 0.045659 0.079833 -0.041508 0.105076 0.132172 0.111101 -0.005465 0.030667 -0.089694 -0.050843 -0.069776 -0.102354 -0.050492 -0.052012 -0.116770 0.039642 0.149907 -0.016580 -0.114457 0.084838 0.136367 0.025753 0.026083 0.082416 0.003214 -0.067669 0.051122 -0.072321 0.090299 0.149356 0.087393 0.020287 0.025822 -0.018401 -0.073584 
C:4507424:spoke_English -0.226809 0.023414 0.179551 0.102575 0.254724 -0.067218 -0.077512 -0.215927 -0.120535 0.344027 -0.038189 0.314427 -0.156778 -0.106551 -0.168654 0.391197 0.166898 -0.148808 0.403502 0.077166 -0.383245 0.120230 0.101603 -0.213142 0.108833 -0.319377 0.180256 0.135405 0.293498 -0.123288 -0.175181 0.023282 -0.174351 0.238358 0.052142 0.048688 -0.035787 0.105537 0.187832 -0.068342 -0.059152 0.082262 -0.232494 0.113870 0.416470 -0.150886 0.072869 -0.136891 0.136017 -0.061837 0.119536 -0.051956 -0.062198 -0.039829 -0.258830 -0.150806 0.076585 0.126274 -0.123347 -0.284728 0.089485 0.042025 0.125296 0.016191 0.099855 0.108488 0.179966 -0.094525 0.236065 0.289988 0.248542 -0.007096 0.058539 -0.193706 -0.127621 -0.173299 -0.219321 -0.110605 -0.119476 -0.264206 0.098226 0.355167 -0.027384 -0.259487 0.200152 0.305503 0.047043 0.057054 0.187044 0.005658 -0.145478 0.105141 -0.146000 0.207156 0.341593 0.190053 0.039471 0.067024 -0.041235 -0.153346 
C:4507426:Women -0.143303 0.017926 0.108486 0.071867 0.160083 -0.037964 -0.053660 -0.129458 -0.081200 0.220807 -0.018779 0.198766 -0.105478 -0.069659 -0.101094 0.242159 0.111955 -0.083430 0.256244 0.055725 -0.242462 0.073159 0.071901 -0.134752 0.071604 -0.207612 0.113956 0.077119 0.190004 -0.069393 -0.113909 0.017365 -0.112184 0.145000 0.032679 0.022474 -0.019931 0.068572 0.117891 -0.035994 -0.044949 0.051326 -0.141113 0.064326 0.262650 -0.093423 0.047848 -0.088758 0.086106 -0.026468 0.063128 -0.024481 -0.043510 -0.019695 -0.155787 -0.089567 0.058380 0.078743 -0.074944 -0.178380 0.061230 0.024971 0.075895 0.016762 0.053585 0.056051 0.116892 -0.054900 0.154000 0.189955 0.159939 -0.012897 0.046046 -0.121982 -0.082456 -0.105110 -0.142481 -0.066779 -0.075573 -0.160872 0.068112 0.225264 -0.018315 -0.165047 0.126048 0.197166 0.033612 0.039306 0.126520 0.005820 -0.095246 0.067036 -0.101475 0.129249 0.224757 0.118774 0.025167 0.044729 -0.027878 -0.097253 
C:4507433:21 -0.125947 0.012824 0.100063 0.060340 0.148434 -0.030152 -0.044874 -0.122794 -0.076424 0.195531 -0.027390 0.180186 -0.091328 -0.058057 -0.089589 0.221531 0.097672 -0.079584 0.224226 0.056561 -0.221875 0.068867 0.063899 -0.120604 0.064075 -0.191983 0.099021 0.078487 0.170572 -0.061827 -0.100977 0.010271 -0.099472 0.129570 0.031562 0.021044 -0.011081 0.054604 0.109229 -0.038404 -0.039876 0.051383 -0.126834 0.064341 0.235775 -0.086968 0.035101 -0.076072 0.081740 -0.026123 0.067856 -0.021352 -0.032415 -0.019523 -0.143713 -0.088463 0.053535 0.065266 -0.075156 -0.166013 0.055219 0.019654 0.067374 0.010490 0.056738 0.059524 0.112785 -0.050263 0.135546 0.168131 0.137600 -0.009427 0.045176 -0.111934 -0.066484 -0.097811 -0.134278 -0.057784 -0.062993 -0.143197 0.060634 0.200842 -0.012863 -0.150331 0.116224 0.183857 0.032115 0.038664 0.113049 0.011852 -0.086724 0.063224 -0.089273 0.113109 0.199997 0.109700 0.028585 0.033640 -0.024325 -0.087436 
O:4087172:smok-_ing -0.145718 0.016541 0.117024 0.069804 0.159373 -0.037439 -0.046017 -0.140509 -0.075443 0.222445 -0.031432 0.203956 -0.104935 -0.073559 -0.104950 0.255515 0.111326 -0.092114 0.262164 0.045444 -0.250612 0.082967 0.061005 -0.141994 0.064834 -0.202703 0.123252 0.088419 0.186100 -0.077076 -0.117127 0.022158 -0.103646 0.149215 0.032768 0.036959 -0.029090 0.067132 0.122536 -0.037455 -0.031125 0.059535 -0.141391 0.067112 0.262059 -0.086768 0.037531 -0.083486 0.088265 -0.037639 0.074755 -0.027313 -0.042304 -0.032968 -0.157300 -0.098367 0.050288 0.082608 -0.081975 -0.189735 0.060030 0.023688 0.090182 0.009400 0.067078 0.072670 0.111009 -0.056150 0.151757 0.184707 0.151878 -0.002106 0.036402 -0.126632 -0.078064 -0.108616 -0.133125 -0.076705 -0.075017 -0.174677 0.067854 0.220046 -0.018533 -0.173401 0.129562 0.192582 0.021083 0.037136 0.118028 -0.000363 -0.096433 0.074844 -0.098442 0.126486 0.218787 0.120750 0.027286 0.036128 -0.027659 -0.099086 
O:4087187:10.0 -0.127203 0.014801 0.104744 0.061294 0.146271 -0.037961 -0.043388 -0.121817 -0.072370 0.192063 -0.027660 0.179294 -0.088528 -0.062157 -0.097703 0.223558 0.091522 -0.081281 0.228076 0.037701 -0.220637 0.072145 0.055619 -0.117074 0.061193 -0.179698 0.102353 0.077241 0.166616 -0.065150 -0.095380 0.014189 -0.098663 0.137980 0.033354 0.033945 -0.014641 0.059016 0.111910 -0.033900 -0.028725 0.047615 -0.128722 0.062478 0.233500 -0.080878 0.035440 -0.084145 0.082366 -0.031706 0.068584 -0.029835 -0.035566 -0.029521 -0.140158 -0.084231 0.038419 0.077983 -0.076302 -0.164598 0.045892 0.024912 0.075693 0.010506 0.053624 0.056918 0.096304 -0.052202 0.129112 0.166571 0.131288 -0.007059 0.032128 -0.113707 -0.070016 -0.094404 -0.118866 -0.062904 -0.068708 -0.148690 0.060831 0.195083 -0.014691 -0.151142 0.112990 0.167352 0.026682 0.030476 0.109797 0.002457 -0.088464 0.067597 -0.081428 0.115547 0.190596 0.104461 0.026262 0.034228 -0.026855 -0.088861 
O:4087188:7.0 -0.148872 0.020818 0.123605 0.068162 0.165333 -0.035559 -0.048670 -0.147279 -0.088934 0.226641 -0.028278 0.206027 -0.103970 -0.066434 -0.103958 0.261369 0.109986 -0.099518 0.262947 0.051641 -0.253404 0.077817 0.074010 -0.148398 0.073347 -0.219749 0.118133 0.082543 0.201885 -0.075886 -0.112699 0.018733 -0.112609 0.159629 0.040921 0.032395 -0.015578 0.064552 0.127898 -0.038856 -0.044570 0.060098 -0.152122 0.068019 0.277321 -0.098918 0.049810 -0.090736 0.097174 -0.030827 0.070443 -0.029750 -0.046068 -0.032949 -0.172083 -0.097493 0.051324 0.084888 -0.088697 -0.190281 0.064479 0.025379 0.089730 0.007759 0.070760 0.067587 0.125801 -0.065919 0.162858 0.194641 0.159628 -0.016398 0.045004 -0.132383 -0.078430 -0.114514 -0.144573 -0.072232 -0.077699 -0.166904 0.070742 0.233744 -0.013833 -0.177225 0.129766 0.207434 0.026021 0.040436 0.125767 0.011924 -0.102639 0.077152 -0.104553 0.138072 0.232154 0.122764 0.025267 0.036601 -0.033075 -0.099667 
O:4087189:38.0 -0.135976 0.012685 0.114446 0.063729 0.155560 -0.037784 -0.046467 -0.139973 -0.074206 0.216569 -0.026927 0.196198 -0.096973 -0.070129 -0.097579 0.237179 0.102501 -0.093432 0.250804 0.054287 -0.242418 0.070808 0.060327 -0.135032 0.064834 -0.207571 0.107342 0.075720 0.190236 -0.070555 -0.114164 0.011694 -0.108310 0.142895 0.028460 0.026608 -0.016419 0.062202 0.113141 -0.044285 -0.047154 0.050032 -0.136323 0.062844 0.262702 -0.095026 0.045157 -0.089154 0.083757 -0.033066 0.069858 -0.025127 -0.042548 -0.032076 -0.160524 -0.089845 0.050178 0.076852 -0.071647 -0.175927 0.057127 0.026527 0.079553 0.008977 0.060093 0.058313 0.115813 -0.060094 0.148823 0.183187 0.150503 -0.014540 0.040032 -0.119478 -0.080018 -0.110719 -0.138267 -0.067046 -0.066950 -0.163970 0.056813 0.218388 -0.009215 -0.161868 0.123035 0.197796 0.027826 0.036669 0.124771 0.004876 -0.096489 0.069114 -0.098707 0.126497 0.217509 0.117144 0.027821 0.042183 -0.031844 -0.094130 
O:4087189:6, -0.143482 0.009565 0.114540 0.075239 0.170598 -0.040160 -0.050916 -0.135608 -0.079199 0.224782 -0.022210 0.217225 -0.110536 -0.070441 -0.114221 0.259062 0.113780 -0.094429 0.269491 0.063522 -0.258477 0.080290 0.070093 -0.145263 0.076710 -0.220374 0.115926 0.083416 0.198023 -0.071748 -0.114017 0.014457 -0.113857 0.156346 0.031751 0.032689 -0.014586 0.069691 0.130199 -0.042741 -0.048942 0.057371 -0.150887 0.067531 0.271699 -0.101892 0.049476 -0.088258 0.095729 -0.030721 0.075280 -0.023608 -0.044307 -0.030742 -0.164330 -0.093077 0.053849 0.086941 -0.082058 -0.183965 0.063419 0.021273 0.082934 0.011104 0.058369 0.068623 0.121976 -0.065440 0.160970 0.197044 0.164923 -0.013300 0.043608 -0.130597 -0.085349 -0.108962 -0.151385 -0.069447 -0.069323 -0.166919 0.060839 0.235729 -0.017116 -0.175527 0.139082 0.207636 0.037521 0.045687 0.126325 0.004773 -0.103546 0.074686 -0.106284 0.137708 0.222950 0.128463 0.022006 0.045687 -0.031612 -0.102788 
O:4099754:12-month -0.171567 0.023123 0.139397 0.079859 0.200079 -0.046228 -0.054945 -0.174875 -0.097143 0.271350 -0.030470 0.247329 -0.128128 -0.085898 -0.127329 0.301057 0.135602 -0.117385 0.316731 0.055416 -0.305861 0.098069 0.076024 -0.168438 0.079877 -0.248512 0.139930 0.105929 0.236223 -0.090730 -0.137304 0.020509 -0.132897 0.182793 0.042958 0.049040 -0.033402 0.081378 0.153268 -0.051189 -0.049625 0.063713 -0.185948 0.094639 0.326658 -0.111190 0.048686 -0.114639 0.104627 -0.046549 0.096447 -0.041473 -0.050149 -0.036998 -0.203974 -0.112652 0.058042 0.099762 -0.100338 -0.229315 0.072125 0.032561 0.098690 0.014790 0.080472 0.084570 0.138303 -0.070355 0.184772 0.226402 0.188147 -0.005831 0.038209 -0.160434 -0.089253 -0.137105 -0.170778 -0.092984 -0.089444 -0.211858 0.083959 0.279036 -0.021549 -0.205006 0.165829 0.235423 0.035323 0.043701 0.139490 0.006123 -0.113652 0.085100 -0.116135 0.156368 0.267890 0.146834 0.030997 0.042049 -0.028579 -0.128903 
C:4507426:female -0.059194 0.003766 0.044753 0.021690 0.065860 -0.011149 -0.019710 -0.054824 -0.028930 0.086911 -0.010307 0.082820 -0.040170 -0.026204 -0.045522 0.097602 0.046503 -0.031119 0.101677 0.019037 -0.092647 0.032487 0.027095 -0.048783 0.030767 -0.081449 0.046356 0.036064 0.073474 -0.031777 -0.043990 0.008222 -0.040872 0.061503 0.011714 0.008513 -0.008984 0.024150 0.045636 -0.016243 -0.017682 0.025028 -0.051498 0.030820 0.098542 -0.040452 0.021474 -0.029294 0.030040 -0.014893 0.025828 -0.009806 -0.019929 -0.007432 -0.058099 -0.032755 0.024750 0.031705 -0.026363 -0.064583 0.020393 0.006389 0.032241 0.005642 0.020999 0.021497 0.047568 -0.021437 0.064072 0.075108 0.055203 -0.009450 0.020126 -0.052226 -0.026634 -0.045398 -0.059748 -0.028088 -0.028339 -0.061914 0.021879 0.086613 -0.006877 -0.067596 0.052311 0.076344 0.014491 0.010656 0.043776 0.002735 -0.035308 0.026254 -0.040085 0.053550 0.083320 0.051347 0.014329 0.013991 -0.010327 -0.040385 
C:4507427:Men_868_(100) -0.301593 0.039064 0.243237 0.146733 0.344414 -0.076347 -0.104267 -0.292663 -0.165405 0.466186 -0.055278 0.429213 -0.217395 -0.144304 -0.227580 0.522099 0.231547 -0.202005 0.540576 0.107468 -0.519877 0.164118 0.143770 -0.299466 0.140777 -0.440091 0.249267 0.179267 0.403848 -0.158331 -0.241908 0.033601 -0.235670 0.312973 0.079079 0.074473 -0.045907 0.138028 0.255484 -0.090266 -0.078909 0.113815 -0.311881 0.153175 0.561511 -0.196415 0.091062 -0.192410 0.185624 -0.074600 0.151592 -0.064063 -0.087658 -0.052716 -0.340436 -0.204876 0.099709 0.177317 -0.169253 -0.388627 0.121124 0.052158 0.168714 0.025652 0.129105 0.142993 0.242466 -0.126651 0.320333 0.388345 0.323758 -0.016076 0.086197 -0.268957 -0.166342 -0.236812 -0.304111 -0.153128 -0.158297 -0.348667 0.143849 0.477760 -0.032538 -0.357597 0.268993 0.412919 0.058593 0.083742 0.254535 0.018893 -0.209649 0.150908 -0.205259 0.278800 0.468891 0.259617 0.056450 0.083314 -0.064437 -0.215048 
C:4507455:High_148_(100)Middle_1529_(100)Low_137_(100) -0.195089 0.022846 0.152740 0.088133 0.208671 -0.046940 -0.056237 -0.192687 -0.105532 0.292581 -0.036349 0.267929 -0.129878 -0.090416 -0.134737 0.332463 0.145347 -0.128742 0.336639 0.055905 -0.325572 0.111448 0.076937 -0.187518 0.084719 -0.275649 0.159905 0.114802 0.252765 -0.096136 -0.149459 0.020395 -0.148713 0.198910 0.046831 0.042761 -0.035543 0.083773 0.158816 -0.059229 -0.042533 0.067608 -0.196040 0.099350 0.351901 -0.120841 0.057377 -0.118010 0.124175 -0.052250 0.104792 -0.043585 -0.056788 -0.034522 -0.216256 -0.121740 0.058967 0.110798 -0.107591 -0.239969 0.077685 0.032346 0.110482 0.015322 0.084834 0.088506 0.148072 -0.082274 0.197712 0.242799 0.200011 -0.003776 0.045739 -0.171216 -0.095662 -0.149253 -0.179499 -0.098397 -0.093048 -0.221327 0.088591 0.294549 -0.028845 -0.225495 0.174917 0.255400 0.038973 0.055503 0.154923 0.005597 -0.123983 0.089051 -0.125179 0.172888 0.298528 0.161421 0.028840 0.048061 -0.035354 -0.130176 
C:4507524:pregnant -0.060882 0.007920 0.051441 0.030142 0.067552 -0.020733 -0.026913 -0.056390 -0.032732 0.099822 -0.009162 0.083717 -0.047993 -0.025499 -0.044070 0.114226 0.043596 -0.036882 0.112140 0.021479 -0.107144 0.031958 0.029609 -0.063479 0.033367 -0.094285 0.046519 0.036936 0.082081 -0.030478 -0.044668 0.006151 -0.053583 0.065405 0.016511 0.015732 -0.006740 0.033212 0.055174 -0.023411 -0.013937 0.020364 -0.068514 0.032828 0.119422 -0.041788 0.024432 -0.035626 0.038888 -0.019832 0.034684 -0.015717 -0.016406 -0.007302 -0.077055 -0.042258 0.025181 0.040162 -0.033223 -0.076697 0.026041 0.007834 0.040507 0.004134 0.027397 0.023867 0.046740 -0.030189 0.066756 0.081404 0.071736 -0.004533 0.012457 -0.057806 -0.039805 -0.046043 -0.061319 -0.028945 -0.028884 -0.077493 0.032942 0.095013 -0.006979 -0.076729 0.061525 0.085327 0.007697 0.012437 0.049505 0.001832 -0.036990 0.030177 -0.039018 0.054897 0.097655 0.057508 0.014573 0.018082 -0.015535 -0.040907 
I:3673274:1 -0.306328 0.043178 0.248313 0.134008 0.333521 -0.088105 -0.100473 -0.286485 -0.172673 0.468455 -0.062360 0.426585 -0.220684 -0.159706 -0.210041 0.525868 0.230179 -0.193783 0.541390 0.108194 -0.518156 0.170853 0.137345 -0.292639 0.133790 -0.438415 0.253605 0.180464 0.393986 -0.148772 -0.226692 0.042742 -0.241104 0.308411 0.082197 0.065058 -0.042217 0.145345 0.256566 -0.090580 -0.085512 0.119866 -0.317151 0.152128 0.564425 -0.187931 0.099575 -0.190424 0.190207 -0.073635 0.159231 -0.072400 -0.087467 -0.053825 -0.350363 -0.196202 0.102620 0.163109 -0.174920 -0.384574 0.131465 0.065251 0.165536 0.013786 0.130313 0.130578 0.246385 -0.126117 0.327152 0.386829 0.320579 -0.011269 0.068158 -0.269500 -0.156070 -0.231807 -0.293036 -0.153712 -0.156787 -0.359495 0.131407 0.479707 -0.041287 -0.351591 0.264865 0.418848 0.068664 0.074179 0.245491 0.015744 -0.200324 0.156657 -0.198318 0.281627 0.475034 0.268656 0.059486 0.090836 -0.062483 -0.218511 
O:4087178:not_smoking -0.124491 0.016743 0.099555 0.061600 0.138011 -0.027720 -0.043381 -0.123586 -0.074977 0.193618 -0.021146 0.180126 -0.089700 -0.059727 -0.090673 0.215832 0.097939 -0.078379 0.222743 0.043306 -0.213029 0.063541 0.061488 -0.124002 0.061119 -0.182321 0.096895 0.076202 0.160451 -0.062329 -0.100227 0.010443 -0.093258 0.125149 0.025245 0.023309 -0.019590 0.055288 0.103491 -0.034761 -0.031724 0.048105 -0.127954 0.059156 0.229021 -0.085089 0.036531 -0.079373 0.072124 -0.031816 0.060668 -0.027799 -0.040710 -0.023473 -0.135640 -0.084727 0.042635 0.063965 -0.074239 -0.161935 0.045449 0.028415 0.071781 0.009419 0.051202 0.050272 0.104863 -0.055091 0.133761 0.163338 0.136947 -0.005107 0.039628 -0.106379 -0.067892 -0.098835 -0.122299 -0.059782 -0.062972 -0.139613 0.057168 0.196920 -0.018273 -0.141690 0.115784 0.173315 0.031124 0.036228 0.113896 0.006518 -0.081863 0.066042 -0.088232 0.108445 0.197481 0.112668 0.026745 0.038195 -0.028310 -0.089984 
O:4087185:verify_smoking_status_through_the_partici-_pants_family_and_friends -0.141146 0.011270 0.115471 0.065378 0.167314 -0.038850 -0.059061 -0.136420 -0.083227 0.225610 -0.023564 0.208403 -0.109238 -0.062959 -0.108757 0.254500 0.111724 -0.092255 0.260047 0.057043 -0.243851 0.077770 0.075412 -0.142795 0.074989 -0.217911 0.114027 0.085291 0.194179 -0.071693 -0.109394 0.020126 -0.111052 0.146200 0.032851 0.021455 -0.015316 0.070949 0.119688 -0.048727 -0.049448 0.051876 -0.137857 0.069975 0.274818 -0.090675 0.052474 -0.088790 0.086938 -0.024213 0.069162 -0.034659 -0.038117 -0.022782 -0.164250 -0.093000 0.059610 0.074566 -0.077485 -0.188009 0.055518 0.030746 0.081808 0.014227 0.052460 0.065623 0.126141 -0.064195 0.161552 0.190820 0.157424 -0.012228 0.042237 -0.127103 -0.072517 -0.106025 -0.147801 -0.064293 -0.075949 -0.165110 0.058915 0.227280 -0.017702 -0.171416 0.133452 0.202912 0.033183 0.041734 0.127077 0.013788 -0.097237 0.074765 -0.103467 0.124515 0.222799 0.128227 0.026437 0.037872 -0.027950 -0.103597 
O:4087186:expired_carbon_monoxide_(CO) -0.175878 0.026442 0.146887 0.081413 0.202964 -0.043481 -0.053091 -0.178181 -0.098293 0.262860 -0.041308 0.241825 -0.122120 -0.090705 -0.128208 0.308675 0.143073 -0.119522 0.311649 0.043467 -0.301475 0.097235 0.076676 -0.170204 0.082845 -0.251854 0.146087 0.108941 0.234852 -0.096277 -0.132065 0.017880 -0.129759 0.186779 0.052755 0.053472 -0.026404 0.077520 0.155199 -0.055973 -0.039587 0.071955 -0.183902 0.091297 0.328042 -0.108419 0.046634 -0.108663 0.104397 -0.056588 0.097184 -0.039695 -0.060632 -0.037351 -0.199228 -0.117469 0.056717 0.099542 -0.109798 -0.222389 0.066526 0.032213 0.105664 0.007018 0.094119 0.083774 0.130291 -0.073249 0.185321 0.222629 0.190576 0.007157 0.032858 -0.151342 -0.093244 -0.137223 -0.157278 -0.089181 -0.092097 -0.213098 0.081466 0.278064 -0.024864 -0.203538 0.162096 0.238465 0.025815 0.046574 0.143977 0.006798 -0.119234 0.090312 -0.115280 0.160366 0.275371 0.151792 0.022271 0.051065 -0.027005 -0.124310 
O:4087186:expired_carbon_monoxidecotinine_verification -0.144213 0.014458 0.125935 0.071024 0.173775 -0.045999 -0.050036 -0.147679 -0.092729 0.240151 -0.023838 0.212894 -0.109487 -0.070554 -0.108156 0.267404 0.114731 -0.090766 0.273853 0.064732 -0.255470 0.080250 0.070802 -0.152141 0.074658 -0.220235 0.120703 0.091708 0.202710 -0.077114 -0.122314 0.012002 -0.123858 0.157240 0.034186 0.029686 -0.019753 0.074672 0.121701 -0.048028 -0.051697 0.052656 -0.158337 0.076354 0.289834 -0.101021 0.053420 -0.093895 0.098227 -0.033319 0.069115 -0.027254 -0.050215 -0.026733 -0.172536 -0.108199 0.053448 0.082793 -0.081843 -0.189979 0.067697 0.030760 0.084773 0.015178 0.062096 0.064177 0.135853 -0.060674 0.170498 0.203732 0.169799 -0.013977 0.046488 -0.134542 -0.087626 -0.113817 -0.157939 -0.076156 -0.080217 -0.176018 0.067696 0.234879 -0.019682 -0.181809 0.132259 0.214878 0.033066 0.037409 0.140077 0.007300 -0.103816 0.072418 -0.105625 0.139416 0.234500 0.136082 0.030170 0.045508 -0.028587 -0.109991 
O:4087186:saliva_samplecotinine -0.102730 0.005076 0.093978 0.048309 0.125753 -0.026885 -0.040090 -0.104899 -0.060548 0.171288 -0.017328 0.161073 -0.081894 -0.049174 -0.075045 0.195046 0.084239 -0.066658 0.191268 0.045280 -0.185811 0.060605 0.058770 -0.107625 0.060207 -0.161614 0.088567 0.058401 0.148968 -0.048621 -0.085011 0.008292 -0.090758 0.113043 0.025498 0.015893 -0.007281 0.052198 0.094633 -0.028150 -0.037946 0.043221 -0.110920 0.056123 0.200017 -0.067864 0.033205 -0.065679 0.070333 -0.024593 0.047227 -0.017176 -0.030890 -0.016218 -0.119107 -0.073418 0.041117 0.056534 -0.057985 -0.133752 0.041979 0.025179 0.060038 0.006596 0.042719 0.049244 0.091125 -0.045267 0.120454 0.145919 0.120183 -0.008414 0.040594 -0.089591 -0.060328 -0.087152 -0.118843 -0.046957 -0.058985 -0.125558 0.043779 0.175064 -0.008395 -0.123355 0.097857 0.153035 0.022943 0.034046 0.094771 0.010242 -0.077512 0.062876 -0.072845 0.101511 0.164771 0.096951 0.024493 0.032493 -0.020204 -0.081388 
C:4507427:Male38.5 -0.036521 0.000612 0.036093 0.016546 0.046402 -0.007587 -0.017121 -0.034241 -0.026871 0.062185 -0.006920 0.060174 -0.028440 -0.022830 -0.025231 0.065372 0.030267 -0.022373 0.069719 0.009880 -0.066092 0.018135 0.015551 -0.041390 0.015611 -0.056283 0.031105 0.023830 0.050275 -0.021672 -0.031908 0.010036 -0.032259 0.042551 0.011520 0.013143 -0.008039 0.019420 0.033933 -0.007416 -0.015727 0.011626 -0.040262 0.022497 0.078630 -0.028230 0.013921 -0.023529 0.024827 -0.013091 0.025582 -0.004590 -0.012538 -0.010321 -0.041350 -0.022518 0.016232 0.019873 -0.025880 -0.049455 0.019047 0.012482 0.022788 -0.000464 0.022419 0.021203 0.028503 -0.012838 0.037854 0.047759 0.042863 -0.005675 0.007653 -0.033604 -0.026359 -0.035074 -0.039071 -0.021411 -0.015422 -0.045964 0.019544 0.060923 -0.008310 -0.042341 0.033144 0.051717 0.003976 0.014631 0.032865 0.002467 -0.027467 0.014598 -0.028541 0.034846 0.057230 0.036469 0.007951 0.014795 -0.011758 -0.032113 
C:4507435:54.4 -0.013233 0.001168 0.018937 0.011134 0.018780 -0.000918 -0.009489 -0.015077 -0.013931 0.023788 0.000476 0.027444 -0.009877 -0.009940 -0.008688 0.029022 0.009676 -0.006132 0.035655 0.003436 -0.034348 0.011648 0.007439 -0.014236 0.013543 -0.025617 0.011401 0.010291 0.021604 -0.006600 -0.012457 0.003550 -0.010731 0.019525 0.008425 0.005218 -0.001324 0.012874 0.018666 -0.004928 -0.002748 0.008504 -0.019577 0.005470 0.028202 -0.015729 0.003628 -0.015834 0.006438 -0.003734 0.005320 -0.001899 -0.001582 -0.001198 -0.016608 -0.008433 0.008395 0.010358 -0.004827 -0.020448 0.002834 0.002496 0.012082 0.001649 0.009819 0.008490 0.016489 -0.002985 0.022955 0.027112 0.015619 -0.000025 0.006418 -0.018963 -0.012084 -0.018803 -0.019900 -0.006063 -0.012710 -0.023958 0.003067 0.031592 -0.005615 -0.019984 0.017079 0.024922 0.007770 0.002275 0.015376 0.000348 -0.014508 0.005661 -0.008031 0.019761 0.026543 0.017173 0.006453 0.003817 -0.001449 -0.012592 
