1113 100
C:4507457:Elementary -0.024699 -0.003884 0.024294 -0.010884 0.042707 -0.011026 -0.007627 -0.028758 -0.028946 0.035510 -0.014969 0.032656 -0.013697 -0.026215 -0.032040 0.045041 0.034814 0.021006 0.027650 0.029324 -0.050961 0.000565 -0.015418 -0.035234 -0.001675 0.001514 0.000693 0.035921 0.010782 0.006033 -0.005522 0.000367 -0.044831 0.038164 -0.004996 0.029403 0.010375 0.017535 0.027581 -0.037680 0.003124 0.009121 -0.026716 0.015059 0.023340 0.011563 -0.017660 0.013468 0.020613 0.002549 0.027337 -0.005054 0.000120 0.005904 -0.018531 -0.017094 -0.013069 0.028736 -0.027783 -0.040816 0.011691 -0.000238 0.026517 0.001180 -0.003007 0.012652 0.014301 -0.009174 0.025527 0.013805 0.037878 0.004912 0.013048 -0.041226 -0.017330 0.001289 -0.047525 -0.013966 -0.036477 -0.052819 0.039597 0.028411 -0.005453 -0.026049 0.037191 0.025173 -0.037386 0.000804 0.055166 -0.009109 -0.009862 0.021484 0.011570 0.033093 0.012653 0.041272 -0.039925 -0.005750 0.014011 0.012864 
O:4087172:smoking -0.305107 -0.140171 0.377474 -0.093236 0.482034 -0.186648 -0.110376 -0.378564 -0.333550 0.374209 -0.087141 0.364526 -0.176621 -0.292918 -0.332010 0.599844 0.376334 0.184019 0.316094 0.336152 -0.644719 0.076024 -0.104274 -0.473911 -0.045516 -0.038214 0.023054 0.382456 0.107999 0.061104 -0.070646 0.018585 -0.578844 0.448808 -0.027741 0.297723 0.085038 0.190242 0.281641 -0.499210 0.065077 0.157687 -0.380743 0.186089 0.293548 0.221506 -0.189488 0.135680 0.248992 0.025196 0.336174 -0.011148 -0.023613 0.077437 -0.257980 -0.126053 -0.201554 0.308254 -0.369914 -0.509342 0.083068 -0.001399 0.372952 -0.019330 -0.026279 0.159127 0.151032 -0.044105 0.372539 0.152217 0.380756 -0.001838 0.167319 -0.471131 -0.163567 -0.025026 -0.563943 -0.227386 -0.453315 -0.629685 0.481811 0.370269 -0.137175 -0.382406 0.466036 0.289445 -0.467983 -0.000369 0.629993 -0.086202 -0.109922 0.311832 0.159740 0.371032 0.151934 0.495774 -0.444119 -0.072767 0.120942 0.134082 
O:4087178:abstinence -0.395258 -0.080195 0.367610 -0.022743 0.493167 -0.175607 -0.059502 -0.424015 -0.317163 0.462692 -0.089116 0.397043 -0.146963 -0.352131 -0.354605 0.632628 0.442317 0.142020 0.380108 0.284060 -0.659375 0.116302 -0.099900 -0.464335 -0.074220 -0.030166 0.083707 0.395155 0.147636 0.023441 -0.101491 0.005654 -0.529157 0.480306 -0.008901 0.334369 0.030891 0.184821 0.340642 -0.485963 0.117478 0.180104 -0.415790 0.230424 0.391041 0.141530 -0.160179 0.137949 0.249082 -0.048800 0.387220 -0.035944 -0.035069 0.032308 -0.256199 -0.216276 -0.205453 0.330975 -0.328156 -0.548770 0.094190 0.034469 0.349963 -0.003154 0.056414 0.178457 0.164868 -0.070326 0.340066 0.144958 0.386739 0.102664 0.154384 -0.478495 -0.166013 -0.068069 -0.505208 -0.243592 -0.475302 -0.661460 0.510050 0.427581 -0.130813 -0.392228 0.489308 0.288108 -0.502100 -0.018749 0.561746 -0.102371 -0.128754 0.274365 0.128936 0.369796 0.199553 0.464429 -0.467907 -0.097144 0.109477 0.123306 
I:3675717:1 -0.958859 0.237105 0.571771 0.476095 0.930630 -0.220573 0.130715 -1.079668 -0.469697 1.058019 -0.111003 1.105238 -0.261632 -0.851599 -0.752801 1.415897 0.958804 -0.384484 1.059295 -0.109544 -1.348392 0.432649 -0.066794 -0.862056 -0.125232 -0.408289 0.451648 0.868628 0.658551 -0.598667 -0.529469 -0.140363 -0.643966 0.929888 0.240999 0.939970 -0.325055 0.325519 0.915337 -0.861938 0.522921 0.415376 -0.999432 0.810541 1.145393 -0.222358 -0.160264 -0.033929 0.476969 -0.554820 0.800080 -0.049039 -0.118114 -0.134415 -0.707129 -0.713317 -0.384743 0.872749 -0.495561 -1.373261 -0.057431 0.250877 0.655981 -0.006443 0.561003 0.591637 0.143646 -0.169389 0.512836 0.307681 0.717307 0.718419 -0.084913 -0.708556 -0.276707 -0.377932 -0.417246 -0.917022 -0.728949 -1.327644 0.738478 1.064681 -0.396194 -1.110164 0.820713 0.542696 -0.924961 0.103209 0.501729 -0.218802 -0.400078 0.259942 -0.184044 0.742921 0.645797 0.809590 -0.779953 -0.179369 0.110391 -0.179542 
O:4087186:co_carbon_monoxide -0.440811 -0.104787 0.406012 -0.069805 0.603668 -0.202181 -0.122833 -0.436596 -0.372613 0.508525 -0.136353 0.495937 -0.175265 -0.371348 -0.426284 0.723734 0.468827 0.233626 0.400390 0.386857 -0.779586 0.088559 -0.133642 -0.591736 -0.066731 -0.063568 0.039316 0.458407 0.205212 0.031037 -0.107512 0.038209 -0.657707 0.581711 -0.012431 0.351729 0.057240 0.279929 0.410812 -0.551662 0.110160 0.191092 -0.463983 0.229737 0.414777 0.165668 -0.191520 0.139662 0.301098 0.004647 0.457557 0.001009 0.000022 0.073779 -0.316917 -0.220490 -0.243178 0.418715 -0.397364 -0.619298 0.111531 0.042094 0.417281 -0.012055 -0.010875 0.184580 0.185507 -0.070635 0.412912 0.174172 0.487304 0.019018 0.231886 -0.553684 -0.241193 -0.016509 -0.625630 -0.285191 -0.543591 -0.732417 0.585244 0.467121 -0.149322 -0.478208 0.554024 0.315185 -0.594191 0.012234 0.701920 -0.076373 -0.137709 0.338428 0.179057 0.445329 0.181449 0.581653 -0.535905 -0.107079 0.136307 0.160294 
O:4087186:cotinine -0.406621 -0.105648 0.409512 -0.101651 0.611911 -0.205571 -0.142535 -0.420962 -0.383710 0.474318 -0.144570 0.460827 -0.203949 -0.373987 -0.408763 0.690707 0.478293 0.259851 0.353468 0.397168 -0.762592 0.067179 -0.149842 -0.592648 -0.067318 -0.015561 0.007869 0.456542 0.160595 0.083318 -0.073935 0.050618 -0.670642 0.570102 -0.036260 0.349774 0.093999 0.274932 0.395177 -0.583630 0.107703 0.179883 -0.446565 0.237766 0.389021 0.218560 -0.206753 0.161879 0.287034 0.002695 0.434821 -0.012875 -0.003411 0.067833 -0.290094 -0.213493 -0.236180 0.378955 -0.432238 -0.577079 0.118819 0.034112 0.406492 0.006490 -0.035216 0.159821 0.191918 -0.064311 0.415017 0.161061 0.499812 0.017520 0.236978 -0.555762 -0.220566 -0.023294 -0.632574 -0.231774 -0.573201 -0.749690 0.601674 0.450887 -0.136335 -0.430935 0.558833 0.314463 -0.621767 -0.017399 0.732080 -0.069482 -0.114279 0.348337 0.191969 0.426463 0.188453 0.598737 -0.557886 -0.109480 0.141535 0.165369 
O:4087184:self-report -0.416609 -0.171720 0.443324 -0.171264 0.635838 -0.218904 -0.159946 -0.447815 -0.396960 0.509617 -0.193107 0.469578 -0.217466 -0.376434 -0.442387 0.692078 0.516499 0.327411 0.343081 0.493889 -0.817950 0.030712 -0.177638 -0.629037 -0.079928 -0.016182 -0.018906 0.510145 0.137309 0.110902 -0.034730 0.074392 -0.781554 0.626636 -0.010681 0.397822 0.127260 0.301127 0.448831 -0.591664 0.075963 0.212617 -0.493827 0.206337 0.377221 0.297292 -0.253764 0.220302 0.355706 0.065659 0.517533 -0.039845 0.020369 0.102374 -0.335765 -0.165424 -0.267932 0.455268 -0.479055 -0.624039 0.134489 -0.003412 0.465055 -0.037838 -0.086231 0.174021 0.199314 -0.078459 0.422178 0.191562 0.544538 -0.028488 0.285693 -0.632669 -0.272172 0.025466 -0.744749 -0.240016 -0.653443 -0.799112 0.638348 0.458977 -0.143962 -0.434687 0.623383 0.336481 -0.671556 -0.030730 0.836960 -0.097232 -0.096127 0.415522 0.265247 0.457342 0.131743 0.652961 -0.600305 -0.103914 0.187516 0.249872 
O:4087191:54.0 -0.295658 -0.084680 0.318654 -0.076157 0.444276 -0.146342 -0.102639 -0.342823 -0.273912 0.357689 -0.098425 0.337374 -0.144878 -0.276609 -0.302387 0.511561 0.360412 0.184729 0.277843 0.285229 -0.563754 0.069309 -0.100206 -0.419805 -0.059528 -0.011946 0.023057 0.338770 0.132142 0.051699 -0.070642 0.042449 -0.504475 0.436982 -0.027346 0.277951 0.066665 0.191284 0.289482 -0.418719 0.080204 0.156257 -0.363073 0.163752 0.294675 0.176309 -0.151873 0.138852 0.217417 -0.008876 0.321909 -0.013957 -0.020360 0.050246 -0.234456 -0.149451 -0.176122 0.290250 -0.310799 -0.452348 0.087950 0.019602 0.336243 -0.013246 -0.029815 0.124243 0.123796 -0.065810 0.313811 0.120281 0.361629 0.021803 0.151476 -0.436183 -0.180323 -0.009203 -0.485514 -0.203160 -0.419637 -0.578033 0.439431 0.334760 -0.097794 -0.342577 0.415044 0.249000 -0.450210 0.001069 0.551873 -0.068334 -0.091209 0.266205 0.162294 0.344815 0.142328 0.434334 -0.416242 -0.074934 0.104389 0.137512 
O:4087191:27.0 -0.251027 -0.112286 0.283513 -0.119789 0.406947 -0.146289 -0.097195 -0.276100 -0.239273 0.310083 -0.123786 0.275887 -0.126212 -0.226712 -0.268564 0.414798 0.305789 0.197046 0.215092 0.316081 -0.507281 0.020648 -0.116056 -0.386950 -0.060079 -0.008880 -0.011714 0.295987 0.091963 0.083935 -0.032540 0.047782 -0.476009 0.371272 -0.008618 0.236020 0.087517 0.172276 0.253034 -0.358076 0.045218 0.126164 -0.305449 0.112179 0.233841 0.167614 -0.152401 0.127344 0.216741 0.036890 0.313231 -0.030223 0.006539 0.047089 -0.211378 -0.107626 -0.154026 0.259899 -0.287903 -0.373536 0.098051 0.005909 0.283216 -0.022867 -0.052191 0.100886 0.121808 -0.039238 0.276051 0.117455 0.340524 -0.034680 0.189220 -0.394120 -0.161609 0.004993 -0.454769 -0.129043 -0.400025 -0.484529 0.395080 0.274774 -0.087200 -0.258273 0.368157 0.206974 -0.411393 -0.015966 0.514024 -0.070319 -0.060076 0.239387 0.175507 0.287924 0.096001 0.409982 -0.356357 -0.054000 0.124409 0.152173 
O:4087187:13.5 -0.268679 -0.101283 0.278170 -0.102742 0.405102 -0.134827 -0.085214 -0.274723 -0.235488 0.313194 -0.116978 0.284359 -0.118743 -0.253529 -0.280862 0.430733 0.320459 0.193261 0.218861 0.298659 -0.513307 0.030724 -0.112075 -0.397446 -0.054605 -0.010456 -0.005999 0.315648 0.091423 0.065486 -0.030348 0.035112 -0.473641 0.392913 -0.015110 0.241265 0.073290 0.183426 0.267409 -0.372218 0.050791 0.122756 -0.301524 0.125241 0.230969 0.178743 -0.153612 0.147373 0.206508 0.031047 0.321784 -0.034122 -0.002979 0.061468 -0.202877 -0.114897 -0.167349 0.281319 -0.300392 -0.371320 0.080671 -0.007137 0.300941 -0.015917 -0.046735 0.105137 0.122479 -0.043516 0.260291 0.110283 0.343105 -0.029050 0.174727 -0.393628 -0.165834 0.024924 -0.449286 -0.161608 -0.395302 -0.506602 0.411476 0.286835 -0.095839 -0.274735 0.392016 0.210713 -0.430171 -0.010910 0.505306 -0.062182 -0.066506 0.251200 0.174863 0.300667 0.092395 0.402005 -0.386215 -0.065348 0.124114 0.154949 
I:3675718:1 -0.305966 -0.373576 0.213349 -0.484771 0.500913 -0.078875 -0.181086 -0.079935 -0.274157 0.198701 -0.344251 0.044158 -0.138603 -0.256914 -0.381127 0.092139 0.423840 0.645183 -0.041050 0.797559 -0.564353 -0.312879 -0.370848 -0.461936 -0.149006 0.105962 -0.309055 0.461324 -0.155861 0.385480 0.283111 0.093041 -0.891008 0.523770 -0.045191 0.327735 0.290637 0.276587 0.407626 -0.276846 -0.244348 0.098712 -0.111763 -0.116573 -0.026529 0.602304 -0.267723 0.492774 0.358721 0.437006 0.549653 -0.230214 0.135363 0.341574 -0.243712 0.110940 -0.374019 0.472937 -0.539878 -0.193516 0.173603 -0.236676 0.436171 -0.050555 -0.455184 -0.121434 0.161891 0.038297 0.222105 0.131459 0.577306 -0.409817 0.566806 -0.582218 -0.368768 0.307828 -0.860024 0.002709 -0.740160 -0.676578 0.587204 0.252966 -0.222501 -0.059861 0.615690 0.239236 -0.720539 -0.193895 0.922594 -0.249629 0.108035 0.504406 0.583936 0.283986 -0.234654 0.607774 -0.619892 -0.129009 0.363778 0.545677 
O:4087186:biochemical -0.388733 -0.128862 0.391657 -0.113007 0.568251 -0.193004 -0.115980 -0.394533 -0.355947 0.448413 -0.154447 0.422613 -0.169113 -0.347944 -0.379463 0.633038 0.433152 0.248467 0.325891 0.397144 -0.714234 0.052534 -0.148751 -0.553779 -0.082072 -0.006692 0.001886 0.429954 0.142773 0.079482 -0.057918 0.050115 -0.647664 0.540103 -0.021761 0.340278 0.092777 0.252561 0.368331 -0.523070 0.101357 0.185829 -0.440106 0.196589 0.337934 0.215392 -0.209462 0.169549 0.290262 0.019632 0.425546 -0.025381 0.003512 0.056534 -0.289706 -0.169152 -0.225241 0.380201 -0.392553 -0.548100 0.121019 0.017754 0.401177 -0.019707 -0.049975 0.158911 0.163144 -0.070649 0.379155 0.152214 0.460878 -0.010526 0.219032 -0.536347 -0.222201 -0.000330 -0.613089 -0.217327 -0.551321 -0.706598 0.559760 0.410603 -0.122577 -0.402234 0.529755 0.287919 -0.576661 -0.023743 0.691474 -0.073767 -0.098492 0.337284 0.212971 0.421260 0.152837 0.556182 -0.521925 -0.092035 0.155733 0.184504 
O:4087187:27.0 -0.287105 -0.072705 0.292775 -0.058651 0.404320 -0.141884 -0.084175 -0.312723 -0.253234 0.343783 -0.101035 0.327775 -0.121695 -0.257479 -0.279328 0.475539 0.330222 0.156952 0.259986 0.262360 -0.538671 0.052184 -0.101010 -0.403823 -0.047166 -0.027183 0.018956 0.323030 0.118364 0.042756 -0.060976 0.030182 -0.453504 0.396944 -0.005074 0.260662 0.045538 0.172924 0.282680 -0.384919 0.084554 0.140895 -0.323958 0.150058 0.275558 0.136160 -0.141267 0.110915 0.209937 -0.001256 0.320421 -0.020120 -0.000143 0.047687 -0.209007 -0.148799 -0.172128 0.277038 -0.284302 -0.416479 0.083922 0.019818 0.300483 -0.004463 -0.006688 0.120264 0.123545 -0.056304 0.276206 0.112713 0.342376 0.026691 0.147881 -0.391549 -0.148165 -0.017448 -0.434117 -0.176038 -0.388104 -0.512855 0.411717 0.316790 -0.093147 -0.318803 0.381372 0.205753 -0.419422 -0.005756 0.496504 -0.060255 -0.085500 0.240542 0.141312 0.309759 0.130853 0.402644 -0.369617 -0.068278 0.108552 0.122550 
O:4087178:cessation -0.285711 -0.116164 0.310362 -0.129534 0.456433 -0.150995 -0.122197 -0.306899 -0.288361 0.335432 -0.129492 0.317360 -0.152263 -0.259411 -0.308455 0.477855 0.337955 0.229229 0.228754 0.353206 -0.573769 0.021815 -0.124116 -0.450736 -0.065702 -0.012390 -0.019859 0.335736 0.093387 0.085938 -0.027345 0.053798 -0.547748 0.430553 -0.022510 0.264966 0.089008 0.200732 0.293885 -0.423329 0.061100 0.137645 -0.323414 0.136086 0.249600 0.195378 -0.171521 0.156467 0.225855 0.038990 0.333422 -0.014733 0.016060 0.063841 -0.219227 -0.113004 -0.187073 0.292450 -0.328942 -0.419767 0.106931 -0.002129 0.332494 -0.024774 -0.066043 0.108279 0.131775 -0.037647 0.311631 0.118684 0.386555 -0.036724 0.210823 -0.439422 -0.179267 0.024338 -0.510665 -0.152509 -0.454040 -0.545234 0.442202 0.317082 -0.101057 -0.294311 0.423279 0.230028 -0.470642 -0.013043 0.592377 -0.072213 -0.076851 0.288554 0.199870 0.321065 0.103150 0.456074 -0.408420 -0.084455 0.134437 0.162770 
I:3673272:1 -0.269147 -0.241982 0.450094 -0.261148 0.578758 -0.247196 -0.251492 -0.320056 -0.405445 0.321068 -0.168636 0.278499 -0.258075 -0.297776 -0.306028 0.547679 0.302027 0.430755 0.225908 0.397277 -0.639842 0.082719 -0.159400 -0.479204 -0.072728 0.125093 -0.084947 0.358521 0.049831 0.198588 -0.013567 0.117340 -0.716860 0.553560 -0.148187 0.192936 0.239537 0.296182 0.181562 -0.524431 0.059642 0.144802 -0.447575 0.142005 0.171296 0.326660 -0.259793 0.153162 0.317136 0.021141 0.267521 0.020913 -0.063381 0.078304 -0.283018 -0.043112 -0.123377 0.285653 -0.411026 -0.418439 0.228545 0.023877 0.445540 0.027306 -0.221619 0.085361 0.109925 -0.054543 0.492329 0.114193 0.430897 -0.080560 0.212763 -0.545108 -0.223230 0.058542 -0.727307 -0.072375 -0.527747 -0.655802 0.572036 0.235062 -0.109335 -0.294771 0.518773 0.322975 -0.522445 -0.064395 0.765324 0.014546 0.004042 0.318629 0.292048 0.433820 0.156819 0.608853 -0.424698 -0.031601 0.158965 0.162899 
I:3719286:1 -0.468015 -0.162014 0.479065 -0.245385 0.674049 -0.313152 -0.252128 -0.310153 -0.445899 0.528550 -0.228556 0.476472 -0.176148 -0.256635 -0.525388 0.731409 0.421381 0.492494 0.251497 0.647317 -0.845476 -0.086596 -0.288008 -0.732432 -0.126404 0.073538 -0.073272 0.435601 0.184943 0.321432 -0.002314 0.199778 -0.778545 0.602044 -0.089656 0.206807 0.141894 0.351082 0.398163 -0.641492 0.064036 0.186080 -0.397885 0.147476 0.303866 0.230210 -0.251313 0.196731 0.178041 0.207530 0.524351 0.122144 0.117464 0.033983 -0.154714 -0.232125 -0.354847 0.319373 -0.427885 -0.557301 0.206065 0.109947 0.339338 -0.096645 -0.081223 0.144675 0.265448 -0.077471 0.352972 0.077989 0.524833 -0.218663 0.426804 -0.679998 -0.283981 0.034765 -0.728674 -0.124906 -0.662135 -0.762736 0.747288 0.460479 -0.028666 -0.416658 0.595453 0.160523 -0.735852 0.024227 0.947578 -0.006023 -0.174378 0.422608 0.346747 0.478671 0.062530 0.656427 -0.703098 -0.188404 0.144851 0.366807 
O:4087184:question -0.447207 -0.145339 0.429260 -0.147462 0.632253 -0.220416 -0.133779 -0.431326 -0.390067 0.507563 -0.174021 0.464777 -0.191236 -0.389270 -0.445145 0.693762 0.495456 0.303247 0.369222 0.459554 -0.803057 0.043623 -0.184914 -0.629239 -0.086522 -0.018853 -0.005431 0.492193 0.158492 0.109201 -0.056413 0.063113 -0.728564 0.610390 -0.028317 0.380235 0.108432 0.293459 0.430478 -0.587893 0.096181 0.206943 -0.469532 0.205160 0.386835 0.254695 -0.231136 0.192653 0.316855 0.036896 0.493844 -0.028864 0.013813 0.079542 -0.327092 -0.189604 -0.265739 0.432888 -0.457107 -0.605272 0.146523 0.011054 0.455867 -0.014887 -0.054339 0.166373 0.182012 -0.071880 0.412356 0.172956 0.529116 -0.018204 0.278380 -0.612039 -0.260568 0.012200 -0.692962 -0.241906 -0.627669 -0.796055 0.637064 0.464425 -0.151998 -0.441467 0.606339 0.311914 -0.665055 -0.029786 0.789297 -0.091249 -0.119341 0.379099 0.249371 0.459577 0.149590 0.631849 -0.589330 -0.122779 0.177364 0.218814 
C:4507427:M_(unspecified)_F_(unspecified) -0.252606 -0.074427 0.258457 -0.070625 0.365769 -0.134483 -0.084640 -0.250441 -0.223316 0.311078 -0.098531 0.293639 -0.121886 -0.228359 -0.253123 0.428382 0.302702 0.183006 0.215921 0.264088 -0.483324 0.047686 -0.099097 -0.384903 -0.065673 -0.022147 0.000986 0.278789 0.107901 0.057448 -0.054440 0.040577 -0.432084 0.354621 -0.020658 0.219249 0.053545 0.179463 0.241579 -0.354498 0.072217 0.125971 -0.289233 0.139304 0.227836 0.136392 -0.122193 0.114806 0.174676 0.018995 0.302608 -0.018861 0.011481 0.053213 -0.185178 -0.132960 -0.153917 0.263222 -0.256568 -0.376779 0.092446 0.027278 0.264092 -0.012441 -0.039595 0.109128 0.113751 -0.049879 0.255485 0.089278 0.308749 -0.012003 0.145941 -0.362015 -0.142506 -0.013317 -0.406063 -0.163108 -0.357911 -0.454852 0.373730 0.288377 -0.072749 -0.279424 0.345011 0.187086 -0.395322 -0.006274 0.463738 -0.053157 -0.086181 0.224366 0.130261 0.289760 0.095160 0.370384 -0.343289 -0.079655 0.094471 0.123146 
O:4087188:27.0 -0.227494 -0.071385 0.218294 -0.064412 0.321457 -0.105166 -0.062249 -0.228951 -0.192983 0.257054 -0.079864 0.246176 -0.099020 -0.205822 -0.220861 0.366779 0.255694 0.144852 0.191861 0.211362 -0.416881 0.040780 -0.080179 -0.316320 -0.046735 -0.004887 0.014661 0.248581 0.090095 0.034815 -0.038929 0.033240 -0.360805 0.317079 -0.011353 0.196066 0.050529 0.142168 0.212076 -0.300071 0.062945 0.107938 -0.247121 0.116856 0.209894 0.109263 -0.112516 0.091098 0.159199 0.001933 0.238675 -0.014044 -0.007942 0.029581 -0.172789 -0.107443 -0.131203 0.218411 -0.218501 -0.320278 0.065624 0.021506 0.231993 -0.003864 -0.023528 0.093076 0.093160 -0.039831 0.209577 0.085266 0.263978 0.006232 0.122902 -0.314209 -0.119545 0.002175 -0.348150 -0.130523 -0.310465 -0.403452 0.324600 0.234976 -0.077801 -0.233222 0.307227 0.158586 -0.326535 -0.004934 0.398593 -0.049717 -0.059779 0.183545 0.114933 0.241587 0.083389 0.322979 -0.290980 -0.060818 0.081077 0.097647 
O:4087188:13.5 -0.233229 -0.072044 0.223310 -0.069955 0.337999 -0.110117 -0.066332 -0.235582 -0.202626 0.269135 -0.086604 0.255181 -0.103736 -0.208636 -0.239235 0.375336 0.269078 0.154503 0.196790 0.228564 -0.429275 0.033009 -0.089658 -0.328256 -0.048890 -0.015354 0.002146 0.256980 0.090516 0.046572 -0.044183 0.031655 -0.385834 0.316115 -0.014651 0.206320 0.045051 0.154882 0.224422 -0.312904 0.052750 0.111663 -0.253828 0.117016 0.205713 0.129551 -0.121239 0.096799 0.174587 0.013338 0.258958 -0.015606 0.007471 0.041879 -0.170984 -0.115365 -0.142725 0.227515 -0.232231 -0.331611 0.069360 0.016886 0.239968 -0.011545 -0.020862 0.093963 0.093278 -0.044570 0.223074 0.087758 0.275626 0.002121 0.140157 -0.325179 -0.139366 -0.006329 -0.353708 -0.136843 -0.325977 -0.416248 0.329712 0.243065 -0.072316 -0.243669 0.313058 0.169832 -0.343554 -0.003850 0.410395 -0.045580 -0.069472 0.195099 0.118800 0.245808 0.081963 0.328490 -0.313733 -0.055407 0.088673 0.107958 
O:4087185:family-friend -0.219615 -0.072746 0.219317 -0.082726 0.315575 -0.110502 -0.064122 -0.211482 -0.189147 0.249481 -0.086887 0.221080 -0.100844 -0.193328 -0.225014 0.330932 0.240049 0.154459 0.176337 0.228682 -0.397710 0.019648 -0.090695 -0.304852 -0.040032 -0.008634 -0.002357 0.242517 0.080506 0.050973 -0.028333 0.025035 -0.365086 0.309312 -0.019073 0.194509 0.051092 0.138205 0.212817 -0.293626 0.042683 0.104906 -0.224159 0.094539 0.183631 0.129606 -0.112597 0.110664 0.163310 0.020455 0.242575 -0.017050 0.012293 0.045450 -0.163912 -0.092679 -0.131738 0.219223 -0.234242 -0.302609 0.072511 -0.001764 0.228245 -0.014183 -0.036943 0.084250 0.098707 -0.038558 0.211744 0.087643 0.268632 -0.009817 0.142685 -0.299489 -0.130636 0.005244 -0.348305 -0.123414 -0.320512 -0.399970 0.317015 0.228798 -0.080512 -0.217958 0.296037 0.150889 -0.339217 -0.014725 0.404378 -0.054101 -0.047243 0.199067 0.131786 0.233417 0.073629 0.317268 -0.299402 -0.053482 0.089004 0.115756 
O:4087187:4.5 -0.209916 -0.074000 0.215043 -0.075318 0.316418 -0.108165 -0.065934 -0.211133 -0.197425 0.250637 -0.081472 0.234312 -0.100324 -0.185809 -0.213261 0.349854 0.244045 0.147171 0.178475 0.231457 -0.393472 0.027126 -0.089936 -0.312731 -0.046840 -0.005646 -0.000836 0.238536 0.072979 0.052599 -0.028542 0.026179 -0.357858 0.301418 -0.012800 0.188315 0.056027 0.139865 0.204767 -0.290086 0.046238 0.098611 -0.239770 0.103126 0.183834 0.128191 -0.111297 0.104199 0.151747 0.022074 0.242054 -0.013951 -0.001070 0.037777 -0.161255 -0.096362 -0.135100 0.212473 -0.226371 -0.305651 0.062970 0.014228 0.222544 -0.011312 -0.027752 0.085858 0.094250 -0.036835 0.215390 0.085919 0.262756 -0.001935 0.139083 -0.300699 -0.129115 0.002471 -0.339552 -0.118074 -0.306375 -0.387755 0.316385 0.229930 -0.077605 -0.223995 0.292622 0.152772 -0.331147 -0.011204 0.392545 -0.052520 -0.062176 0.189727 0.127899 0.224901 0.076431 0.317618 -0.290748 -0.052751 0.090128 0.108436 
O:4099754:6.0 -0.269381 -0.065698 0.254061 -0.067125 0.375276 -0.122323 -0.073987 -0.272918 -0.221782 0.300561 -0.095725 0.289777 -0.120825 -0.231512 -0.266757 0.427047 0.296946 0.161435 0.221004 0.250790 -0.480666 0.032617 -0.102298 -0.372223 -0.046347 -0.023532 0.015812 0.290360 0.108706 0.041419 -0.047956 0.036384 -0.421024 0.353166 -0.002312 0.224843 0.043024 0.174143 0.260413 -0.342587 0.060764 0.125412 -0.284674 0.134286 0.242216 0.126255 -0.127438 0.104517 0.192477 0.006424 0.297007 -0.020552 0.003049 0.048826 -0.196577 -0.132753 -0.165638 0.251610 -0.257525 -0.370366 0.080511 0.024468 0.256858 -0.007932 -0.014699 0.112669 0.114451 -0.046719 0.247437 0.102030 0.308276 0.012666 0.142538 -0.360868 -0.141627 -0.002932 -0.395348 -0.158936 -0.364700 -0.471036 0.368047 0.284488 -0.095214 -0.272554 0.352954 0.189365 -0.387221 -0.010567 0.445504 -0.052201 -0.072588 0.222034 0.126267 0.271811 0.096873 0.374613 -0.350407 -0.068188 0.100485 0.117347 
O:4087187:12.0 -0.194640 -0.068326 0.195990 -0.070612 0.281804 -0.107702 -0.063912 -0.184539 -0.182125 0.228122 -0.075085 0.208219 -0.084306 -0.161006 -0.193447 0.318945 0.219952 0.137679 0.156004 0.216263 -0.362516 0.014210 -0.081596 -0.282362 -0.044036 -0.002382 -0.001153 0.208678 0.075087 0.062451 -0.024712 0.032361 -0.329461 0.270294 -0.017734 0.163394 0.048785 0.127555 0.185150 -0.269657 0.044924 0.081775 -0.209933 0.096662 0.161718 0.108217 -0.105427 0.082920 0.132662 0.025507 0.215316 -0.000612 0.011958 0.034844 -0.132970 -0.089061 -0.121555 0.182885 -0.194962 -0.265206 0.061153 0.011213 0.191724 -0.014803 -0.030592 0.077942 0.089438 -0.025507 0.186911 0.074918 0.233260 -0.015973 0.130171 -0.270170 -0.116886 0.007805 -0.308260 -0.107210 -0.278475 -0.343886 0.290003 0.205407 -0.062363 -0.194568 0.270288 0.135532 -0.291154 -0.002948 0.354524 -0.038888 -0.053316 0.175254 0.118100 0.205403 0.064775 0.284924 -0.273437 -0.050839 0.075206 0.102191 
O:4099754:12.0 -0.301780 -0.088861 0.288472 -0.083569 0.432656 -0.146637 -0.084881 -0.297385 -0.264895 0.345144 -0.110222 0.330817 -0.135579 -0.265767 -0.292513 0.481264 0.337457 0.192838 0.258029 0.292772 -0.551421 0.045887 -0.113343 -0.425710 -0.062054 -0.018607 0.005979 0.328721 0.123353 0.058531 -0.046081 0.041616 -0.489188 0.415390 -0.017761 0.266025 0.064710 0.189332 0.295975 -0.401472 0.064854 0.129941 -0.319117 0.148552 0.271809 0.154036 -0.158837 0.123335 0.220158 0.016921 0.332182 -0.021365 -0.001093 0.049891 -0.216652 -0.134765 -0.186902 0.296935 -0.300611 -0.422785 0.082687 0.012739 0.307626 -0.006517 -0.034564 0.125132 0.120871 -0.047784 0.285611 0.115640 0.357834 -0.006136 0.178709 -0.416629 -0.167273 0.002881 -0.466751 -0.175396 -0.411258 -0.539563 0.426237 0.313812 -0.101621 -0.312739 0.404877 0.216590 -0.451963 -0.007458 0.532062 -0.063122 -0.082354 0.256177 0.154133 0.318763 0.109760 0.419131 -0.397574 -0.072222 0.117002 0.136537 
I:3674270:1 -0.276722 -0.122408 0.361900 -0.158340 0.486320 -0.216106 -0.105188 -0.289771 -0.283326 0.332238 -0.144529 0.352001 -0.114538 -0.270502 -0.279664 0.565546 0.343138 0.278126 0.220968 0.433281 -0.583572 0.068070 -0.173258 -0.497826 -0.080327 0.056467 -0.023484 0.374467 0.062770 0.154280 -0.058545 0.050158 -0.533944 0.457120 -0.044439 0.275550 0.107069 0.238057 0.288654 -0.501923 0.061035 0.131335 -0.381983 0.126033 0.261808 0.247918 -0.215963 0.184407 0.274608 0.065314 0.374000 -0.019099 0.022150 0.034382 -0.252482 -0.155204 -0.188360 0.252755 -0.375938 -0.427243 0.143347 0.000910 0.349028 0.019484 -0.095553 0.109382 0.185728 -0.063434 0.328921 0.117460 0.418478 -0.035680 0.207061 -0.494295 -0.182223 0.010461 -0.584546 -0.126376 -0.442847 -0.555387 0.515546 0.302224 -0.067759 -0.322085 0.456050 0.200330 -0.473716 -0.023272 0.662703 -0.035542 -0.082974 0.336118 0.219496 0.365462 0.113137 0.497739 -0.451270 -0.042400 0.145518 0.183564 
O:4087191:26.0 -0.240056 -0.072067 0.241748 -0.066875 0.339232 -0.126830 -0.072241 -0.237245 -0.206950 0.276406 -0.093511 0.258532 -0.105828 -0.206354 -0.240922 0.393160 0.271456 0.156444 0.210445 0.248340 -0.445999 0.034164 -0.096325 -0.340410 -0.047299 -0.023764 0.001996 0.271017 0.097624 0.045553 -0.049185 0.031483 -0.394670 0.335620 -0.017404 0.208473 0.059436 0.157485 0.224627 -0.322802 0.058381 0.104503 -0.252195 0.116314 0.214134 0.137698 -0.121870 0.094456 0.176818 0.014696 0.267057 -0.007485 0.002782 0.038657 -0.174887 -0.115592 -0.148280 0.224544 -0.247226 -0.342132 0.068925 0.014019 0.235544 -0.011091 -0.023951 0.104746 0.100816 -0.042872 0.237811 0.086433 0.280789 -0.002595 0.145298 -0.327308 -0.138163 -0.007551 -0.375060 -0.147914 -0.331064 -0.421758 0.350692 0.259118 -0.074380 -0.243844 0.316647 0.173705 -0.352386 -0.011404 0.419132 -0.043834 -0.074424 0.197970 0.130296 0.253513 0.091927 0.340241 -0.315310 -0.055951 0.096673 0.104306 
O:4087178:absti-_nence -0.179461 -0.059782 0.179379 -0.051775 0.270390 -0.088144 -0.057992 -0.187081 -0.164408 0.207697 -0.067524 0.208362 -0.087721 -0.169892 -0.181679 0.300775 0.210904 0.119564 0.163532 0.189926 -0.347762 0.027049 -0.076168 -0.268176 -0.037942 -0.010458 0.007912 0.209135 0.077400 0.037040 -0.026818 0.019391 -0.300292 0.253749 -0.010514 0.159986 0.043321 0.114673 0.184056 -0.250937 0.043694 0.089177 -0.202072 0.092447 0.165510 0.096127 -0.099532 0.075442 0.131769 0.013101 0.203008 -0.010133 -0.001484 0.028457 -0.143345 -0.085854 -0.106933 0.176576 -0.190467 -0.265221 0.053346 0.013395 0.192687 -0.007343 -0.023432 0.070550 0.076079 -0.032792 0.181728 0.077696 0.227661 -0.004183 0.112319 -0.259405 -0.109173 -0.005329 -0.288163 -0.105030 -0.263651 -0.335725 0.272045 0.195069 -0.061221 -0.193786 0.248990 0.134352 -0.278651 -0.011629 0.333304 -0.039863 -0.047379 0.154629 0.100826 0.191943 0.074228 0.265664 -0.249439 -0.042700 0.074903 0.088017 
I:3675611:1 -0.429260 -0.151847 0.468661 -0.147228 0.674709 -0.231000 -0.162632 -0.455374 -0.430085 0.519086 -0.162594 0.496923 -0.204220 -0.382887 -0.437887 0.762708 0.505274 0.327704 0.372857 0.476548 -0.843840 0.069187 -0.176276 -0.658203 -0.102659 -0.023736 0.004157 0.496160 0.165486 0.115184 -0.065575 0.048071 -0.783650 0.622228 -0.031150 0.367708 0.106006 0.317993 0.435950 -0.621972 0.096982 0.185855 -0.474269 0.212818 0.389693 0.256014 -0.238208 0.210975 0.337241 0.048412 0.516521 -0.021826 -0.002179 0.103592 -0.305854 -0.185502 -0.272390 0.411766 -0.481913 -0.622794 0.163247 0.022118 0.450049 -0.002633 -0.074472 0.173002 0.213666 -0.079849 0.453899 0.189184 0.561118 -0.037559 0.272589 -0.646833 -0.258735 0.005391 -0.754880 -0.253082 -0.627571 -0.806561 0.687017 0.465822 -0.126695 -0.479976 0.606794 0.344231 -0.665986 -0.010429 0.831645 -0.078488 -0.139480 0.408734 0.249077 0.492492 0.150250 0.639712 -0.608700 -0.115427 0.192707 0.233821 
O:4087191:52.0 -0.159866 -0.052867 0.168124 -0.057068 0.244145 -0.085805 -0.052107 -0.159917 -0.154824 0.188970 -0.061908 0.170529 -0.077354 -0.141811 -0.165947 0.271232 0.192076 0.116220 0.134753 0.179518 -0.303311 0.015063 -0.068145 -0.235695 -0.031187 -0.003116 0.002519 0.184926 0.054691 0.042596 -0.018471 0.019538 -0.280449 0.228895 -0.017281 0.141404 0.039865 0.107517 0.159704 -0.223399 0.029817 0.072596 -0.181425 0.082408 0.147161 0.090297 -0.084017 0.070431 0.125675 0.011493 0.185399 -0.009278 0.003836 0.032428 -0.117916 -0.070557 -0.105938 0.158596 -0.165811 -0.231026 0.053616 0.006021 0.167894 -0.012667 -0.018263 0.065750 0.077509 -0.029174 0.155009 0.058340 0.204854 -0.008439 0.099311 -0.227716 -0.100366 0.003831 -0.267605 -0.094605 -0.235251 -0.296379 0.237499 0.173910 -0.060487 -0.172883 0.223412 0.122870 -0.253026 -0.008237 0.305377 -0.030709 -0.039744 0.144590 0.088366 0.178860 0.056821 0.237827 -0.225694 -0.038293 0.063308 0.079587 
O:4087189:27.0 -0.186130 -0.055901 0.195909 -0.049700 0.273663 -0.099126 -0.055379 -0.192995 -0.166504 0.219137 -0.067221 0.212270 -0.091002 -0.169151 -0.193836 0.311154 0.211871 0.122656 0.165690 0.187495 -0.355309 0.026477 -0.079202 -0.265703 -0.037480 -0.011426 0.012834 0.216659 0.070573 0.031607 -0.037843 0.022724 -0.311561 0.270583 -0.011626 0.166139 0.038996 0.125422 0.189785 -0.259550 0.046569 0.084057 -0.211003 0.103548 0.172509 0.102084 -0.104073 0.082933 0.143688 0.007205 0.210642 -0.007012 -0.003773 0.029870 -0.148354 -0.089133 -0.117975 0.185879 -0.199127 -0.272399 0.060789 0.017906 0.199774 -0.002336 -0.016013 0.072830 0.081211 -0.034956 0.185936 0.076957 0.229199 0.002442 0.104445 -0.263534 -0.112486 -0.006459 -0.296526 -0.116591 -0.268014 -0.347600 0.279471 0.210819 -0.062006 -0.205703 0.263501 0.138431 -0.286507 -0.003429 0.344434 -0.039665 -0.049664 0.165710 0.101210 0.204299 0.079403 0.278271 -0.255543 -0.054183 0.079477 0.088307 
O:4087188:24.0 -0.158934 -0.051616 0.167063 -0.053183 0.241784 -0.089871 -0.059404 -0.164470 -0.144003 0.191882 -0.068136 0.175169 -0.070284 -0.142320 -0.165934 0.260110 0.183394 0.111099 0.132634 0.166228 -0.300281 0.015714 -0.073427 -0.237464 -0.035362 -0.007651 -0.000001 0.174063 0.063044 0.045383 -0.027839 0.020972 -0.275694 0.224365 -0.011108 0.130934 0.040242 0.107871 0.158741 -0.224913 0.034046 0.071008 -0.174002 0.083124 0.146270 0.089550 -0.080931 0.068802 0.115739 0.018762 0.177128 -0.001790 0.006012 0.022254 -0.110288 -0.080838 -0.102934 0.154881 -0.163106 -0.226309 0.055662 0.011181 0.169064 -0.004337 -0.019211 0.066194 0.077278 -0.021756 0.155154 0.058860 0.199548 -0.007453 0.103983 -0.228203 -0.092338 0.000780 -0.252302 -0.089320 -0.225773 -0.289598 0.239271 0.169086 -0.055190 -0.165382 0.220769 0.113740 -0.249307 -0.010226 0.294078 -0.030336 -0.043664 0.139495 0.096681 0.176898 0.054675 0.231121 -0.225929 -0.048855 0.068337 0.076545 
O:4099754:6-month -0.279850 -0.092881 0.278896 -0.089171 0.400325 -0.141782 -0.091297 -0.280579 -0.254586 0.317060 -0.109886 0.300214 -0.125303 -0.246872 -0.274458 0.455316 0.312245 0.190409 0.229509 0.286094 -0.517313 0.034092 -0.109947 -0.394658 -0.064143 -0.014431 -0.004042 0.309668 0.104218 0.060441 -0.044666 0.037183 -0.466889 0.392713 -0.013644 0.238464 0.067779 0.182267 0.267010 -0.372448 0.061584 0.133787 -0.302190 0.141539 0.245303 0.155645 -0.150063 0.123865 0.202565 0.026586 0.315787 -0.018883 0.003116 0.046542 -0.200218 -0.119852 -0.172508 0.266041 -0.287149 -0.391572 0.085508 0.010339 0.285955 -0.014744 -0.036243 0.107459 0.121550 -0.041051 0.265198 0.099690 0.330775 -0.011038 0.172338 -0.389549 -0.162614 -0.002266 -0.438442 -0.160783 -0.398590 -0.503160 0.404982 0.297621 -0.088625 -0.290461 0.381036 0.205412 -0.422890 -0.011229 0.503310 -0.053414 -0.074289 0.240099 0.160117 0.300774 0.096584 0.399885 -0.374732 -0.070686 0.117152 0.136297 
O:4087191:81.0 -0.174220 -0.066423 0.185695 -0.072300 0.266243 -0.093362 -0.060468 -0.179120 -0.163107 0.216741 -0.075985 0.200756 -0.083826 -0.163359 -0.183871 0.297323 0.214183 0.131114 0.148471 0.205169 -0.351437 0.020229 -0.083771 -0.262070 -0.035767 -0.003327 -0.008467 0.210746 0.065618 0.053515 -0.017318 0.026260 -0.317299 0.262955 -0.016921 0.159105 0.049830 0.127596 0.179865 -0.258444 0.031898 0.083573 -0.202534 0.084287 0.163345 0.119690 -0.097882 0.083730 0.145509 0.020164 0.216695 -0.017375 0.006549 0.033045 -0.141477 -0.076053 -0.115668 0.186003 -0.189858 -0.260235 0.065306 0.006300 0.192638 -0.005517 -0.031596 0.072991 0.084382 -0.023230 0.175034 0.074639 0.232611 -0.015294 0.118300 -0.261210 -0.102707 0.002220 -0.312254 -0.106387 -0.266331 -0.340186 0.270831 0.191456 -0.065147 -0.184310 0.251715 0.134620 -0.279244 -0.008378 0.343609 -0.044050 -0.048731 0.167178 0.107350 0.197109 0.061543 0.268836 -0.254724 -0.044967 0.078711 0.100867 
O:4087187:1.0 -0.201935 -0.064614 0.205443 -0.061725 0.296889 -0.097263 -0.068044 -0.207931 -0.180506 0.232963 -0.070755 0.218438 -0.086301 -0.183159 -0.198974 0.333892 0.230597 0.127786 0.167387 0.208510 -0.378412 0.023229 -0.083806 -0.282703 -0.041232 -0.017980 0.000592 0.221600 0.077693 0.040018 -0.041419 0.029715 -0.335973 0.282807 -0.012123 0.169889 0.040675 0.134630 0.197142 -0.267331 0.050456 0.091289 -0.216175 0.096128 0.178581 0.111038 -0.108937 0.080322 0.143429 0.011542 0.229771 -0.007733 -0.001818 0.040037 -0.148045 -0.096477 -0.117089 0.194570 -0.208369 -0.286798 0.059053 0.017785 0.200448 -0.011024 -0.015521 0.077298 0.087121 -0.033204 0.197031 0.078491 0.245858 -0.000197 0.115820 -0.285623 -0.117720 0.002952 -0.313286 -0.125349 -0.274966 -0.360589 0.285858 0.211306 -0.072614 -0.211528 0.269371 0.147394 -0.299957 -0.008154 0.357513 -0.042338 -0.063232 0.166812 0.105799 0.212129 0.079758 0.284616 -0.268759 -0.055568 0.072800 0.088763 
O:4087187:9.0 -0.250103 -0.073516 0.242576 -0.056226 0.353683 -0.118635 -0.069695 -0.258514 -0.217699 0.283902 -0.091374 0.272589 -0.104270 -0.217764 -0.249751 0.407414 0.275054 0.136063 0.210751 0.232724 -0.445296 0.041528 -0.093961 -0.335926 -0.048267 -0.019661 0.019835 0.269112 0.098485 0.031742 -0.051200 0.019489 -0.387095 0.335991 -0.002064 0.212414 0.042775 0.151266 0.244095 -0.325086 0.068431 0.112974 -0.272952 0.135684 0.228776 0.126719 -0.122070 0.098369 0.177153 0.001216 0.267658 -0.016944 0.001477 0.036108 -0.187622 -0.123080 -0.144666 0.239092 -0.242200 -0.349774 0.067837 0.022461 0.243095 -0.012371 -0.012090 0.104659 0.107161 -0.035619 0.238373 0.093419 0.283624 0.011172 0.136788 -0.334404 -0.131287 -0.008788 -0.369140 -0.156527 -0.333407 -0.440744 0.348048 0.263195 -0.080350 -0.266066 0.325136 0.184691 -0.358438 -0.005253 0.424859 -0.056148 -0.076231 0.200273 0.117373 0.257706 0.097071 0.350502 -0.323301 -0.061324 0.090612 0.110021 
O:4087188:12.0 -0.186595 -0.057639 0.190215 -0.051141 0.270691 -0.100235 -0.063362 -0.192822 -0.166849 0.211277 -0.076200 0.206245 -0.078843 -0.170551 -0.191677 0.302213 0.218231 0.117581 0.161173 0.184826 -0.349536 0.030111 -0.070173 -0.266510 -0.043335 -0.003910 0.001868 0.211092 0.068175 0.034694 -0.034588 0.020116 -0.308138 0.256238 -0.013665 0.159432 0.036041 0.123215 0.184774 -0.252028 0.046889 0.091019 -0.207676 0.092769 0.167413 0.104832 -0.092388 0.083258 0.139511 0.011341 0.206481 -0.010289 0.002377 0.027456 -0.140585 -0.084875 -0.116360 0.176669 -0.188898 -0.259615 0.051915 0.017491 0.197785 -0.002460 -0.022164 0.079876 0.086517 -0.026254 0.173957 0.075001 0.230174 -0.003840 0.109735 -0.259405 -0.110821 -0.008616 -0.287988 -0.110470 -0.263806 -0.336575 0.272537 0.201708 -0.064159 -0.190367 0.259683 0.134132 -0.283618 -0.008669 0.329895 -0.044344 -0.047631 0.158312 0.094146 0.196401 0.067466 0.273776 -0.255174 -0.051294 0.071685 0.091331 
O:4087191:24.0 -0.187602 -0.051269 0.185445 -0.049620 0.268376 -0.089836 -0.057449 -0.188645 -0.166896 0.212232 -0.073974 0.201289 -0.080986 -0.162262 -0.187180 0.300741 0.206520 0.117644 0.159401 0.182511 -0.335091 0.031559 -0.076089 -0.261696 -0.044695 -0.005134 0.007748 0.199946 0.061971 0.038750 -0.034129 0.019665 -0.303596 0.258685 -0.015867 0.164945 0.045146 0.115601 0.174032 -0.246197 0.046011 0.087937 -0.199373 0.090061 0.164903 0.097957 -0.098140 0.083352 0.128538 0.008649 0.198224 -0.009371 0.005190 0.031030 -0.137582 -0.086812 -0.115197 0.177056 -0.193028 -0.253332 0.052210 0.011829 0.194317 -0.010749 -0.024304 0.074770 0.085681 -0.031410 0.172930 0.065998 0.222222 0.000076 0.104246 -0.250397 -0.101389 0.003000 -0.285434 -0.103279 -0.259236 -0.333234 0.267078 0.198749 -0.059046 -0.193552 0.245617 0.136933 -0.277550 -0.004976 0.322219 -0.038008 -0.044134 0.159127 0.093780 0.194108 0.076060 0.258279 -0.247339 -0.049293 0.071071 0.080120 
O:4087178:Abstinence -0.158111 -0.044085 0.162689 -0.046427 0.237920 -0.078719 -0.049979 -0.169998 -0.140918 0.190516 -0.060882 0.177940 -0.075060 -0.143715 -0.166299 0.257113 0.182658 0.098946 0.135849 0.160190 -0.297596 0.019068 -0.064980 -0.220963 -0.035124 -0.013220 0.005500 0.177763 0.062100 0.031591 -0.027952 0.016082 -0.271392 0.224392 -0.010639 0.145473 0.037374 0.100594 0.156709 -0.216384 0.042659 0.069446 -0.177554 0.086102 0.138922 0.088688 -0.079394 0.066380 0.123663 0.006124 0.175789 -0.007498 0.003560 0.030206 -0.122105 -0.073686 -0.097384 0.159950 -0.159771 -0.233174 0.052242 0.012116 0.160652 -0.006559 -0.016745 0.060228 0.066355 -0.024742 0.155053 0.062755 0.189968 -0.004060 0.089368 -0.227821 -0.086540 -0.006193 -0.246385 -0.092622 -0.227796 -0.285522 0.230808 0.167022 -0.053423 -0.173974 0.211311 0.123104 -0.236715 -0.007163 0.287504 -0.039710 -0.042634 0.131427 0.080801 0.172667 0.058002 0.226927 -0.208349 -0.042089 0.057204 0.077294 
O:4087191:135.0 -0.176626 -0.050447 0.172757 -0.053836 0.247500 -0.083861 -0.048371 -0.172277 -0.152438 0.202766 -0.070229 0.189234 -0.083707 -0.148637 -0.173799 0.284000 0.194675 0.105044 0.151390 0.174287 -0.324185 0.019068 -0.063441 -0.246685 -0.034854 -0.009365 0.009471 0.190751 0.066540 0.034881 -0.031403 0.016118 -0.287521 0.242249 -0.007159 0.150227 0.040440 0.109644 0.169586 -0.229596 0.040740 0.078559 -0.186078 0.093583 0.156460 0.092439 -0.093383 0.077095 0.128244 0.017626 0.193475 -0.014918 0.002161 0.026018 -0.121907 -0.076899 -0.100356 0.164599 -0.180355 -0.243097 0.048855 0.008836 0.170700 -0.004926 -0.020448 0.071720 0.081070 -0.033390 0.159786 0.068908 0.208811 0.004985 0.103778 -0.233524 -0.096836 -0.003559 -0.271111 -0.098504 -0.245212 -0.318406 0.247497 0.187772 -0.057277 -0.176291 0.240425 0.130532 -0.260732 -0.004406 0.306530 -0.037299 -0.053041 0.144507 0.097547 0.176444 0.063744 0.250258 -0.235437 -0.048367 0.072432 0.076811 
C:4507526:1 -0.150764 -0.033897 0.170042 -0.059400 0.242345 -0.098217 -0.057655 -0.184190 -0.167612 0.202122 -0.044135 0.186268 -0.051221 -0.156648 -0.157088 0.292425 0.176904 0.114626 0.127968 0.206855 -0.321785 0.044274 -0.066077 -0.254916 -0.022153 0.005439 -0.004963 0.207409 0.047794 0.053263 -0.022602 0.014454 -0.288705 0.247206 0.008592 0.128170 0.055971 0.098154 0.156614 -0.241394 0.055482 0.084440 -0.208790 0.084174 0.145949 0.100553 -0.067230 0.065923 0.143900 0.042311 0.211224 -0.008666 0.018319 0.048972 -0.120180 -0.082581 -0.091743 0.183984 -0.148397 -0.221361 0.056119 0.028016 0.174670 0.019208 -0.009673 0.069774 0.091453 -0.030249 0.183464 0.053457 0.182793 -0.001780 0.112581 -0.232334 -0.079589 0.019485 -0.279642 -0.076345 -0.215271 -0.315875 0.246288 0.148009 -0.071512 -0.177787 0.221156 0.134421 -0.269666 0.013814 0.303369 -0.055815 -0.021386 0.142865 0.106145 0.146633 0.046429 0.256393 -0.222318 -0.056423 0.048754 0.107276 
O:4087186:saliva -0.244126 -0.075627 0.239402 -0.069082 0.347806 -0.125586 -0.076554 -0.244815 -0.206563 0.279571 -0.095087 0.257331 -0.108639 -0.216205 -0.236344 0.389596 0.269011 0.151008 0.200868 0.240972 -0.443127 0.029116 -0.095633 -0.335679 -0.055191 -0.008195 0.007588 0.261269 0.089977 0.048876 -0.045371 0.033439 -0.392685 0.333592 -0.011035 0.208004 0.052284 0.154624 0.227493 -0.323734 0.060590 0.110587 -0.265784 0.123077 0.212712 0.131711 -0.127663 0.106960 0.167857 0.017900 0.271854 -0.007336 0.003069 0.044484 -0.174773 -0.115972 -0.147829 0.234209 -0.244623 -0.339220 0.077850 0.019400 0.246861 -0.005969 -0.017776 0.092661 0.108334 -0.036834 0.229926 0.093087 0.285801 0.001333 0.141894 -0.335597 -0.132539 -0.007472 -0.366407 -0.140738 -0.328809 -0.429670 0.350163 0.254247 -0.085973 -0.251222 0.325421 0.172713 -0.359563 -0.012888 0.426086 -0.055723 -0.065213 0.201984 0.130537 0.258768 0.095113 0.340150 -0.322851 -0.064251 0.099145 0.110370 
I:3730876:1 -0.214491 -0.093749 0.259606 -0.128176 0.381353 -0.131544 -0.062915 -0.270145 -0.207644 0.252996 -0.105423 0.296644 -0.092197 -0.228771 -0.234147 0.396557 0.294561 0.218549 0.213415 0.265019 -0.494202 0.022064 -0.088445 -0.366373 -0.026549 0.021141 -0.005012 0.247330 0.106358 0.062528 -0.019340 0.032431 -0.467582 0.351490 -0.049674 0.235933 0.083141 0.185796 0.249983 -0.354377 0.062550 0.102602 -0.282617 0.090488 0.237011 0.144025 -0.158061 0.113819 0.214236 0.009944 0.282901 -0.000393 0.026834 0.058706 -0.213142 -0.064795 -0.136621 0.245445 -0.246292 -0.378909 0.070261 -0.020438 0.282762 -0.007163 -0.063465 0.065293 0.094391 -0.005120 0.270283 0.120697 0.337289 -0.061047 0.178848 -0.372504 -0.117207 0.043604 -0.461840 -0.166067 -0.389326 -0.430888 0.354057 0.232843 -0.045691 -0.254510 0.342830 0.185999 -0.398142 0.006650 0.506989 -0.018253 -0.050702 0.233446 0.183912 0.298212 0.070558 0.350438 -0.334984 -0.063999 0.131454 0.134306 
O:4087187:8.0 -0.186061 -0.057317 0.197702 -0.048854 0.280852 -0.100099 -0.052261 -0.189830 -0.175465 0.222583 -0.071237 0.211567 -0.085552 -0.174862 -0.185383 0.316139 0.211604 0.120599 0.168486 0.196706 -0.350357 0.025374 -0.067885 -0.276821 -0.037441 -0.014022 0.008169 0.207874 0.080457 0.040864 -0.038381 0.018677 -0.322884 0.263497 -0.014657 0.161598 0.047888 0.131567 0.186494 -0.263317 0.043710 0.093639 -0.207933 0.098077 0.178830 0.105124 -0.099991 0.075275 0.142683 0.015897 0.219895 -0.013699 -0.004017 0.032683 -0.135788 -0.093054 -0.117939 0.184914 -0.196265 -0.274746 0.057345 0.015462 0.189497 -0.011420 -0.022312 0.082218 0.079082 -0.029253 0.181705 0.074705 0.233587 0.003723 0.114607 -0.270897 -0.112203 -0.008479 -0.301876 -0.118307 -0.265651 -0.339990 0.279176 0.201997 -0.060098 -0.196780 0.256142 0.137793 -0.286038 -0.006587 0.337396 -0.037216 -0.050376 0.169145 0.107504 0.206361 0.070669 0.274733 -0.254773 -0.053696 0.077551 0.090725 
O:4087189:54.0 -0.119082 -0.034100 0.119072 -0.033267 0.178252 -0.063581 -0.037883 -0.118211 -0.100427 0.135466 -0.048804 0.133088 -0.053599 -0.106114 -0.124252 0.197044 0.136287 0.075079 0.100478 0.115997 -0.225968 0.015735 -0.044187 -0.167385 -0.023338 -0.006108 0.000454 0.129077 0.051460 0.021800 -0.015448 0.018666 -0.195716 0.170896 -0.001888 0.099203 0.025838 0.083574 0.111783 -0.157512 0.028234 0.054358 -0.130182 0.055478 0.105106 0.063975 -0.058511 0.049219 0.092315 0.008828 0.129280 -0.011425 0.006862 0.019025 -0.090526 -0.049812 -0.076644 0.120134 -0.117917 -0.170497 0.035565 0.001687 0.121861 -0.007517 -0.017952 0.050729 0.054993 -0.016028 0.118045 0.047749 0.142746 -0.007927 0.068847 -0.166973 -0.069534 0.004946 -0.190642 -0.072802 -0.170096 -0.209873 0.170593 0.131278 -0.040799 -0.126613 0.166422 0.089506 -0.181286 -0.005375 0.217383 -0.027294 -0.026944 0.104317 0.070571 0.131001 0.044772 0.165672 -0.158816 -0.029124 0.046941 0.058074 
O:4087186:urine -0.219491 -0.059875 0.216192 -0.060049 0.322725 -0.116014 -0.065115 -0.220933 -0.198376 0.257974 -0.085133 0.244607 -0.093521 -0.198347 -0.223768 0.364024 0.253352 0.133266 0.180782 0.211847 -0.404468 0.031280 -0.083692 -0.313838 -0.044617 -0.012747 0.005775 0.237553 0.080599 0.040049 -0.041149 0.031279 -0.354302 0.299611 -0.009331 0.191324 0.049472 0.144742 0.212618 -0.303151 0.053501 0.098993 -0.238157 0.107713 0.197139 0.112791 -0.115465 0.094222 0.153973 0.007917 0.237627 -0.014180 -0.000376 0.032434 -0.158901 -0.106231 -0.135881 0.214554 -0.219800 -0.310231 0.068777 0.016082 0.231431 -0.011293 -0.020177 0.087602 0.096106 -0.031031 0.212868 0.078765 0.255929 0.003121 0.127899 -0.302201 -0.129488 -0.001837 -0.334198 -0.123988 -0.307410 -0.388927 0.312519 0.230375 -0.066174 -0.229851 0.292051 0.153955 -0.324998 -0.006920 0.392665 -0.040089 -0.059937 0.183935 0.112659 0.237898 0.080627 0.309290 -0.294266 -0.059740 0.080665 0.099353 
O:4087187:end_of_pregnancy -0.181972 -0.056129 0.175671 -0.049427 0.264530 -0.089971 -0.052129 -0.183728 -0.157620 0.208497 -0.067808 0.195943 -0.079384 -0.166287 -0.183137 0.293127 0.200294 0.114925 0.158445 0.174060 -0.332765 0.032063 -0.077141 -0.257243 -0.044079 -0.002905 0.009626 0.199018 0.063701 0.039172 -0.035746 0.019298 -0.295316 0.246948 -0.006145 0.162001 0.032957 0.118463 0.180116 -0.240967 0.043186 0.088962 -0.198112 0.089012 0.168202 0.097766 -0.097742 0.075146 0.127653 0.014232 0.205050 -0.004710 0.000317 0.031071 -0.139571 -0.083543 -0.106766 0.177139 -0.188072 -0.251987 0.059205 0.010253 0.191518 -0.006441 -0.018329 0.078801 0.083310 -0.031168 0.171749 0.065652 0.219482 0.000151 0.100949 -0.253313 -0.105822 -0.005957 -0.283268 -0.111756 -0.249734 -0.323478 0.257298 0.188498 -0.064433 -0.194760 0.242255 0.127058 -0.268228 -0.007739 0.319485 -0.039915 -0.043892 0.153474 0.097357 0.192498 0.066398 0.265142 -0.241438 -0.045840 0.072480 0.079014 
I:3673300:1 -0.348548 -0.110160 0.352288 -0.121776 0.507684 -0.190654 -0.116008 -0.359566 -0.322183 0.409332 -0.134459 0.384131 -0.166417 -0.325226 -0.363681 0.588657 0.400135 0.243775 0.311154 0.369467 -0.662446 0.056288 -0.145624 -0.508114 -0.067742 -0.007981 0.016653 0.402944 0.137104 0.091201 -0.045801 0.044746 -0.603375 0.490306 -0.031739 0.304257 0.095586 0.226905 0.333459 -0.489170 0.074724 0.160682 -0.402410 0.174846 0.319495 0.210109 -0.181252 0.159044 0.256055 0.036768 0.403636 -0.016673 0.001314 0.054960 -0.266967 -0.171951 -0.211848 0.354650 -0.372927 -0.497689 0.121506 0.009723 0.377584 -0.005987 -0.034530 0.136129 0.155187 -0.054304 0.360338 0.146317 0.426782 -0.009815 0.222463 -0.511062 -0.210777 0.003012 -0.566124 -0.204012 -0.497796 -0.647691 0.518152 0.393001 -0.110875 -0.377293 0.489967 0.257110 -0.530336 -0.010946 0.656437 -0.078784 -0.103257 0.306554 0.190016 0.374780 0.129061 0.520600 -0.482801 -0.100125 0.142302 0.172881 
O:4087187:18.0 -0.186730 -0.058939 0.182041 -0.048946 0.270685 -0.092337 -0.063659 -0.195866 -0.172464 0.214182 -0.071921 0.200094 -0.085888 -0.163555 -0.189567 0.303320 0.214966 0.115697 0.166250 0.190375 -0.343987 0.019233 -0.074093 -0.271376 -0.039153 -0.016058 0.001504 0.214986 0.070054 0.041325 -0.035702 0.024927 -0.314639 0.264530 -0.007469 0.164874 0.044883 0.120786 0.183242 -0.256953 0.044775 0.084678 -0.202944 0.100231 0.171499 0.099629 -0.102638 0.079632 0.139205 0.014069 0.214766 -0.014517 -0.000228 0.030390 -0.137009 -0.093689 -0.112211 0.188935 -0.188624 -0.271203 0.061107 0.012381 0.190689 -0.003759 -0.020357 0.079464 0.080326 -0.031272 0.180476 0.072887 0.221533 -0.001362 0.116159 -0.263053 -0.106407 0.002869 -0.288166 -0.106240 -0.269681 -0.336145 0.277539 0.200888 -0.061129 -0.194349 0.256406 0.136748 -0.286454 -0.006899 0.330588 -0.044422 -0.047373 0.164519 0.101846 0.203649 0.066844 0.273031 -0.253587 -0.047647 0.079529 0.091903 
O:4087187:end_of_treatment -0.161245 -0.049955 0.162216 -0.044196 0.234034 -0.085995 -0.056369 -0.166909 -0.149491 0.183585 -0.061184 0.179019 -0.078275 -0.141278 -0.160585 0.266655 0.185380 0.106970 0.136926 0.159081 -0.294813 0.022830 -0.063287 -0.224163 -0.032862 -0.011847 0.002363 0.180596 0.065194 0.032194 -0.033353 0.020736 -0.269435 0.225178 -0.010918 0.139947 0.041851 0.111811 0.150249 -0.213655 0.038507 0.073073 -0.177135 0.088161 0.143913 0.091057 -0.078645 0.074251 0.114456 0.007368 0.175913 -0.010886 0.000599 0.028146 -0.116035 -0.077653 -0.098635 0.151154 -0.168219 -0.223192 0.046588 0.015036 0.167795 -0.007836 -0.020296 0.061003 0.074057 -0.023505 0.157810 0.061139 0.194836 0.003898 0.100950 -0.227263 -0.095778 -0.002091 -0.249398 -0.091022 -0.221512 -0.290888 0.236157 0.177793 -0.053464 -0.168634 0.215252 0.118355 -0.241086 -0.001082 0.287310 -0.027437 -0.041495 0.139330 0.087324 0.169653 0.066114 0.233956 -0.219112 -0.038698 0.056510 0.073003 
I:3673271:1 -0.497638 -0.145858 0.493202 -0.149304 0.713098 -0.257440 -0.154771 -0.502408 -0.443238 0.568881 -0.193054 0.535696 -0.226940 -0.435687 -0.496747 0.794323 0.565049 0.317080 0.424681 0.505234 -0.911648 0.067235 -0.192963 -0.698299 -0.110788 -0.021892 0.011064 0.539103 0.184053 0.098779 -0.079594 0.056503 -0.804082 0.688655 -0.030674 0.433129 0.099823 0.323616 0.474786 -0.665320 0.121575 0.219517 -0.540208 0.252046 0.447905 0.268886 -0.250521 0.206050 0.357482 0.037302 0.557438 -0.030276 0.007942 0.093395 -0.364461 -0.224408 -0.299436 0.474428 -0.496259 -0.701481 0.150721 0.025198 0.508806 -0.025477 -0.047808 0.201876 0.216701 -0.074828 0.474093 0.195798 0.594018 0.000408 0.292381 -0.684505 -0.272332 -0.008294 -0.772088 -0.280849 -0.685351 -0.889517 0.713333 0.518218 -0.165908 -0.507211 0.671295 0.351354 -0.742533 -0.020555 0.872532 -0.108358 -0.130817 0.416165 0.266411 0.514244 0.187108 0.707882 -0.659967 -0.129000 0.189525 0.227366 
O:4087187:2.0 -0.160506 -0.051849 0.157366 -0.040974 0.222359 -0.077294 -0.051256 -0.169027 -0.145398 0.185154 -0.060683 0.176533 -0.072932 -0.144263 -0.159056 0.261396 0.183239 0.094066 0.132906 0.150235 -0.287394 0.029191 -0.063225 -0.219384 -0.027730 -0.004912 0.011997 0.172957 0.063717 0.023602 -0.027683 0.020105 -0.261755 0.213370 -0.001228 0.138938 0.034819 0.103685 0.156404 -0.215623 0.042719 0.071745 -0.177217 0.086363 0.142810 0.079618 -0.086047 0.070657 0.110833 0.002325 0.172194 -0.008740 0.000678 0.023872 -0.121647 -0.074374 -0.098829 0.154320 -0.156732 -0.228072 0.047657 0.009823 0.162445 -0.006236 -0.007193 0.070273 0.061675 -0.021170 0.152587 0.062126 0.182622 0.006104 0.090539 -0.214515 -0.093692 0.001039 -0.244822 -0.090576 -0.221501 -0.286237 0.226085 0.174817 -0.059452 -0.161368 0.212092 0.117263 -0.230895 -0.003777 0.275844 -0.029517 -0.047111 0.134629 0.082808 0.169343 0.069018 0.227471 -0.206150 -0.040702 0.061208 0.071000 
O:4087189:12.0 -0.157652 -0.050235 0.149206 -0.044110 0.225615 -0.083957 -0.049540 -0.159281 -0.138009 0.180350 -0.053805 0.167195 -0.064729 -0.139053 -0.155372 0.257368 0.172708 0.098733 0.136970 0.148512 -0.282151 0.019058 -0.063784 -0.222123 -0.028626 -0.005791 -0.000405 0.168433 0.063968 0.034238 -0.025294 0.020395 -0.257771 0.216136 -0.009463 0.134510 0.033429 0.097534 0.144965 -0.212714 0.039594 0.076540 -0.174067 0.079917 0.139440 0.085633 -0.081707 0.069793 0.107878 0.005936 0.173472 -0.003564 0.000201 0.021470 -0.110330 -0.076524 -0.087824 0.149503 -0.156695 -0.226041 0.049846 0.005665 0.157091 -0.001964 -0.017742 0.068049 0.065316 -0.020943 0.149936 0.055508 0.184479 0.000393 0.094075 -0.218029 -0.092484 0.002146 -0.235553 -0.088180 -0.211135 -0.280274 0.219563 0.161499 -0.047944 -0.158931 0.215099 0.106820 -0.226368 -0.004496 0.270731 -0.035557 -0.042014 0.127253 0.085515 0.160353 0.063065 0.221132 -0.211065 -0.034625 0.064395 0.071844 
O:4087191:58.5 -0.130124 -0.033938 0.126272 -0.031619 0.183347 -0.067595 -0.039025 -0.131009 -0.114332 0.154881 -0.045683 0.138544 -0.062047 -0.115554 -0.130220 0.207971 0.149829 0.082791 0.113618 0.123245 -0.239909 0.019341 -0.052621 -0.182275 -0.021876 -0.002192 0.005157 0.144330 0.048701 0.027314 -0.028905 0.017903 -0.209745 0.180520 -0.001926 0.115620 0.026113 0.080499 0.127623 -0.170404 0.028833 0.061482 -0.143128 0.065684 0.116682 0.071959 -0.072519 0.058806 0.091883 0.001260 0.150608 -0.012110 0.005392 0.024608 -0.095432 -0.063920 -0.083010 0.130637 -0.126603 -0.183653 0.036965 0.009269 0.134977 -0.000357 -0.006031 0.056521 0.058439 -0.020179 0.126877 0.053063 0.150620 0.000070 0.079760 -0.182957 -0.072311 -0.000605 -0.200146 -0.072981 -0.177115 -0.231613 0.192535 0.139608 -0.042462 -0.139228 0.174699 0.098442 -0.195800 -0.005699 0.226899 -0.032422 -0.030855 0.106339 0.068867 0.132911 0.054341 0.187937 -0.176601 -0.028711 0.050696 0.053910 
I:3673779:1 -0.265659 -0.100128 0.257159 -0.074035 0.390179 -0.133950 -0.090060 -0.269838 -0.234440 0.315974 -0.100768 0.271895 -0.113541 -0.230627 -0.276731 0.443847 0.305948 0.194161 0.230936 0.292099 -0.483169 0.034293 -0.103212 -0.393748 -0.039797 -0.010996 0.006563 0.291640 0.095649 0.082380 -0.033176 0.044888 -0.433551 0.366370 -0.010077 0.204004 0.068883 0.179253 0.256791 -0.365945 0.070813 0.126191 -0.285958 0.134707 0.237494 0.151342 -0.153956 0.122933 0.188031 0.023341 0.300525 -0.014968 -0.010911 0.051865 -0.188725 -0.125540 -0.168802 0.249023 -0.288694 -0.358215 0.104029 0.020097 0.269886 -0.004085 -0.037539 0.108090 0.107120 -0.050008 0.261292 0.112956 0.320690 -0.005436 0.157878 -0.383335 -0.159752 0.008638 -0.423974 -0.154872 -0.371336 -0.463419 0.401948 0.292511 -0.091058 -0.269596 0.363923 0.192255 -0.403525 -0.007623 0.486927 -0.053112 -0.058105 0.232376 0.144802 0.276077 0.101794 0.399260 -0.366671 -0.068327 0.111924 0.117089 
O:4087188:54.0 -0.084064 -0.025175 0.077821 -0.025905 0.122864 -0.040821 -0.026768 -0.080259 -0.072730 0.096898 -0.030645 0.087662 -0.035431 -0.076926 -0.083523 0.138340 0.090882 0.049755 0.069780 0.083301 -0.148926 0.009050 -0.034550 -0.119146 -0.012050 -0.001230 0.001985 0.094909 0.034195 0.013699 -0.016645 0.014876 -0.137846 0.112775 -0.007733 0.071503 0.015046 0.056254 0.077366 -0.111578 0.020476 0.043092 -0.093318 0.037626 0.074053 0.045172 -0.047864 0.036683 0.063010 0.007298 0.090797 -0.004758 0.000570 0.019177 -0.063206 -0.037844 -0.050253 0.077331 -0.082193 -0.117412 0.025716 0.006305 0.082174 -0.005309 -0.008233 0.034991 0.037258 -0.013335 0.082299 0.035357 0.099034 -0.000877 0.051482 -0.119463 -0.048305 -0.004176 -0.133115 -0.051189 -0.119328 -0.151480 0.117650 0.084614 -0.028853 -0.091836 0.109109 0.058476 -0.130230 -0.008679 0.144942 -0.022703 -0.017979 0.074992 0.043838 0.083728 0.032409 0.123480 -0.109641 -0.016546 0.036421 0.035176 
O:4087189:36.0 -0.135149 -0.040883 0.129598 -0.042227 0.198273 -0.074149 -0.047892 -0.128637 -0.123738 0.148693 -0.058777 0.145970 -0.053444 -0.116185 -0.136366 0.217613 0.149545 0.092704 0.103517 0.143749 -0.240593 0.018089 -0.057842 -0.192466 -0.030260 -0.005078 0.001384 0.148870 0.056816 0.040084 -0.019792 0.027757 -0.225205 0.179706 -0.006888 0.104221 0.027349 0.093506 0.129269 -0.182130 0.024830 0.061907 -0.144007 0.062163 0.117973 0.067966 -0.065654 0.060213 0.091096 0.013454 0.153481 -0.007515 0.007946 0.022942 -0.092079 -0.065050 -0.085593 0.122991 -0.136987 -0.189884 0.039968 0.015042 0.133488 -0.011435 -0.012599 0.052165 0.061228 -0.017624 0.123831 0.047346 0.158696 -0.009933 0.079360 -0.191221 -0.079857 -0.002668 -0.207248 -0.078221 -0.183388 -0.241090 0.190992 0.138671 -0.044663 -0.136428 0.179676 0.086836 -0.205007 -0.004987 0.238349 -0.029686 -0.038186 0.115099 0.076295 0.141566 0.046611 0.193566 -0.180254 -0.033335 0.049197 0.072322 
C:4507424:English_speaking -0.034883 -0.007563 0.041313 -0.009115 0.050245 -0.021902 -0.008782 -0.040371 -0.034436 0.044854 -0.014710 0.044710 -0.011620 -0.028631 -0.042965 0.058786 0.041634 0.023505 0.031437 0.041723 -0.070709 0.006160 -0.018497 -0.054181 -0.003112 -0.006488 0.004920 0.042325 0.014095 0.010540 -0.007792 0.003572 -0.064173 0.047624 0.002432 0.031067 0.004781 0.021688 0.039507 -0.047051 0.007427 0.012647 -0.039677 0.022633 0.037802 0.018767 -0.020261 0.014551 0.025591 0.003066 0.039442 0.000327 0.001194 0.001385 -0.027809 -0.017224 -0.023694 0.035725 -0.035326 -0.051636 0.009695 0.004536 0.033835 -0.005499 -0.000874 0.011131 0.015605 -0.008862 0.034549 0.009573 0.043587 0.001593 0.020393 -0.054781 -0.022828 -0.004348 -0.054633 -0.020441 -0.053682 -0.065546 0.053272 0.040841 -0.011703 -0.035818 0.053555 0.024154 -0.058265 -0.005782 0.071450 -0.007912 -0.012957 0.028069 0.017952 0.038516 0.012521 0.050458 -0.052725 -0.005563 0.015917 0.017999 
O:4087187:4.0 -0.132103 -0.038846 0.136345 -0.034470 0.194815 -0.071993 -0.040463 -0.136227 -0.117232 0.158906 -0.046091 0.148122 -0.061204 -0.121650 -0.134275 0.220786 0.146704 0.082392 0.118708 0.136416 -0.249089 0.020908 -0.054588 -0.187854 -0.029085 -0.002739 0.000482 0.149757 0.058470 0.027101 -0.027211 0.012812 -0.215889 0.182327 -0.010926 0.113364 0.029524 0.083779 0.128884 -0.181881 0.038349 0.064592 -0.155686 0.070153 0.123208 0.074688 -0.065001 0.050419 0.096416 0.001933 0.151735 -0.000128 -0.002089 0.017720 -0.094875 -0.058346 -0.080824 0.125596 -0.136825 -0.196048 0.042163 0.004863 0.138884 -0.011188 -0.014134 0.054788 0.057270 -0.018216 0.132975 0.056006 0.164514 0.004201 0.071882 -0.188292 -0.074618 -0.000312 -0.205565 -0.083490 -0.192705 -0.247711 0.197673 0.147424 -0.046428 -0.145160 0.187310 0.101153 -0.204726 -0.005487 0.240159 -0.029125 -0.039096 0.111056 0.068147 0.142320 0.051631 0.190460 -0.176756 -0.034744 0.048983 0.056406 
O:4087188:13.0 -0.140871 -0.049188 0.153087 -0.045204 0.212603 -0.072188 -0.042128 -0.149623 -0.138010 0.168648 -0.055536 0.160975 -0.069563 -0.132489 -0.148686 0.237621 0.169713 0.094648 0.129547 0.146771 -0.269415 0.016361 -0.053279 -0.210511 -0.035108 -0.008496 0.006154 0.166505 0.053836 0.029953 -0.022940 0.017016 -0.248720 0.205665 -0.011243 0.123938 0.033962 0.094682 0.144674 -0.201841 0.032856 0.065824 -0.157457 0.070108 0.135320 0.081551 -0.082349 0.059585 0.108959 0.009874 0.162188 -0.012110 -0.002163 0.031585 -0.112692 -0.071586 -0.084747 0.139076 -0.149594 -0.207477 0.049800 0.014668 0.151769 -0.010178 -0.015238 0.061423 0.063955 -0.024491 0.147085 0.056392 0.172786 -0.001103 0.092368 -0.210733 -0.084684 -0.004606 -0.235767 -0.085221 -0.208795 -0.265862 0.215890 0.156188 -0.053418 -0.155507 0.200163 0.107063 -0.219754 -0.009939 0.269957 -0.035314 -0.044728 0.131099 0.080407 0.157778 0.050029 0.208085 -0.202654 -0.037039 0.054039 0.075605 
O:4087189:13.5 -0.122799 -0.038172 0.123021 -0.036598 0.170268 -0.057309 -0.033564 -0.121467 -0.111079 0.138326 -0.050515 0.125666 -0.053692 -0.108207 -0.119637 0.188591 0.138720 0.079406 0.105064 0.116940 -0.215549 0.016514 -0.050187 -0.171067 -0.029398 -0.002651 -0.000176 0.131913 0.047224 0.022359 -0.022680 0.017464 -0.193699 0.160734 -0.006696 0.099879 0.028880 0.074667 0.116998 -0.164145 0.030372 0.052968 -0.131488 0.057022 0.107402 0.067276 -0.061492 0.056459 0.085222 0.002062 0.133952 -0.002458 0.006080 0.023393 -0.083267 -0.061022 -0.068536 0.120663 -0.117796 -0.173091 0.033271 0.011562 0.117110 -0.002096 -0.014675 0.049602 0.050925 -0.020934 0.112340 0.045378 0.137621 -0.004623 0.070508 -0.161784 -0.069158 -0.002788 -0.183189 -0.071165 -0.171580 -0.217816 0.176964 0.132738 -0.036408 -0.122102 0.156909 0.080773 -0.182833 -0.008413 0.212509 -0.021418 -0.038089 0.096082 0.066760 0.122924 0.044315 0.167900 -0.156704 -0.036001 0.041517 0.060305 
C:4507413:African_American -0.071094 -0.019588 0.059844 -0.020884 0.093402 -0.036361 -0.016144 -0.061125 -0.054883 0.076091 -0.029100 0.074354 -0.028612 -0.055081 -0.062790 0.110268 0.071101 0.047148 0.059200 0.065028 -0.120202 0.010696 -0.023078 -0.094348 -0.013475 -0.003597 -0.000582 0.077716 0.024313 0.010494 -0.014787 0.010733 -0.104756 0.090004 -0.002482 0.060125 0.011963 0.040818 0.067635 -0.083413 0.010368 0.031633 -0.068647 0.036017 0.056066 0.034147 -0.036988 0.026726 0.047300 0.006088 0.069398 -0.006089 0.000109 0.007657 -0.052374 -0.027267 -0.042133 0.062578 -0.063995 -0.096784 0.016253 0.002087 0.071032 0.001715 -0.006806 0.021740 0.029555 -0.008492 0.059692 0.022696 0.078381 -0.003380 0.036233 -0.089815 -0.042333 0.003659 -0.096520 -0.034871 -0.094439 -0.121220 0.097421 0.068223 -0.026937 -0.070781 0.088572 0.048233 -0.102806 -0.000473 0.111191 -0.017198 -0.014858 0.053887 0.038661 0.065301 0.021556 0.092362 -0.088845 -0.016068 0.024178 0.034209 
C:4507427:M_(51)_F_(49) -0.011149 -0.006726 0.010400 -0.000338 0.013306 -0.006754 0.001269 -0.009195 -0.004734 0.005648 -0.000478 0.007209 -0.007294 -0.004700 -0.008170 0.014961 0.009789 0.007787 0.007325 0.012382 -0.010759 0.004151 -0.004552 -0.016149 0.000039 0.002091 -0.004366 0.005461 0.000632 0.005549 -0.000918 0.000071 -0.014888 0.013196 -0.000945 0.007083 -0.002958 0.007854 0.005539 -0.013520 0.003437 0.000244 -0.005209 0.006890 0.008337 0.009014 -0.003898 0.001175 0.007489 0.002995 0.009635 -0.001067 0.004174 -0.001886 -0.005664 -0.008956 -0.004242 0.004965 -0.009108 -0.015025 -0.000512 -0.004070 0.006898 -0.003279 -0.000571 -0.000790 0.006152 0.000044 0.007926 -0.001302 0.006566 -0.000539 0.005073 -0.006590 -0.003944 -0.000486 -0.017099 0.000320 -0.015458 -0.017828 0.015663 0.009911 -0.006857 -0.011443 0.015427 0.005028 -0.015042 -0.001920 0.014641 -0.002037 -0.003570 0.007900 0.001180 0.013177 0.005548 0.009977 -0.008979 -0.004405 0.003973 0.000275 
C:4507490:outpatient -0.047417 -0.015157 0.043448 -0.007870 0.061422 -0.019121 -0.008718 -0.043178 -0.035741 0.052755 -0.019449 0.047193 -0.023151 -0.040724 -0.045007 0.067659 0.053182 0.025421 0.036797 0.045562 -0.077918 0.006565 -0.011980 -0.061863 -0.011139 -0.000609 0.002940 0.049532 0.022408 0.004994 -0.013262 0.009535 -0.066853 0.055028 0.000555 0.039218 0.008938 0.024062 0.043048 -0.052224 0.007657 0.019545 -0.042372 0.017869 0.038121 0.023360 -0.017029 0.021096 0.026339 -0.000842 0.045640 0.001681 0.002090 0.005862 -0.036990 -0.021987 -0.026137 0.038996 -0.046776 -0.060569 0.010657 -0.001177 0.038113 -0.006847 -0.004929 0.021696 0.016250 -0.004869 0.041939 0.015741 0.045774 0.001872 0.028569 -0.053265 -0.027510 -0.006243 -0.061824 -0.021653 -0.061823 -0.075188 0.058243 0.050560 -0.011494 -0.048915 0.059583 0.026807 -0.061510 0.000153 0.075303 -0.007669 -0.015947 0.036270 0.024492 0.048681 0.017149 0.059473 -0.060801 -0.010875 0.016973 0.014446 
O:4087188:2.0 -0.093878 -0.028739 0.102201 -0.027031 0.142352 -0.052332 -0.035235 -0.101983 -0.090162 0.117108 -0.042192 0.108109 -0.042926 -0.086826 -0.095548 0.160771 0.114805 0.063674 0.087371 0.094908 -0.175972 0.016767 -0.035990 -0.133054 -0.022798 -0.007449 0.004331 0.104933 0.041367 0.023392 -0.019556 0.015683 -0.164811 0.134462 -0.005148 0.088294 0.020042 0.061361 0.093596 -0.128819 0.025279 0.047977 -0.107960 0.045197 0.091874 0.054972 -0.053714 0.041274 0.067377 0.011790 0.110635 -0.007193 -0.001398 0.019635 -0.067392 -0.043936 -0.056736 0.095257 -0.101475 -0.141797 0.031153 0.001315 0.100249 -0.001330 -0.010320 0.036224 0.042666 -0.015707 0.091109 0.034860 0.114707 0.000792 0.055035 -0.134810 -0.056595 0.001038 -0.153986 -0.054118 -0.138080 -0.173423 0.140971 0.100733 -0.038189 -0.102286 0.133442 0.071732 -0.144185 -0.001560 0.171058 -0.018176 -0.026548 0.083895 0.052195 0.098835 0.036586 0.135297 -0.128193 -0.022723 0.034143 0.044420 
O:4087188:4.5 -0.131702 -0.032028 0.128945 -0.031337 0.187391 -0.068510 -0.032625 -0.126559 -0.109807 0.150597 -0.043931 0.135162 -0.051237 -0.117687 -0.123002 0.202559 0.139230 0.075656 0.113400 0.128762 -0.229284 0.019161 -0.052422 -0.182060 -0.025830 -0.002340 0.008550 0.144134 0.046751 0.019159 -0.024610 0.017262 -0.209416 0.175139 -0.000642 0.108079 0.026456 0.080669 0.129549 -0.174800 0.027239 0.058890 -0.143177 0.071091 0.114414 0.069178 -0.066325 0.048418 0.092658 0.007776 0.145472 -0.005582 0.003511 0.018538 -0.091263 -0.064442 -0.076233 0.125438 -0.124255 -0.177654 0.039476 0.006573 0.124606 -0.008416 -0.012560 0.055150 0.055067 -0.026271 0.117208 0.048041 0.152670 0.003821 0.076415 -0.179819 -0.067352 -0.007187 -0.190284 -0.076523 -0.177570 -0.232118 0.179173 0.140912 -0.046960 -0.133546 0.171224 0.094630 -0.188584 -0.004604 0.224190 -0.022225 -0.036797 0.111685 0.062297 0.131674 0.047515 0.176303 -0.170956 -0.028934 0.052072 0.053900 
O:4087189:6.0 -0.067377 -0.020566 0.066388 -0.018302 0.090655 -0.033178 -0.021715 -0.063888 -0.056956 0.075907 -0.030032 0.071159 -0.025062 -0.051449 -0.066923 0.104641 0.069739 0.038726 0.048747 0.060634 -0.113316 0.005001 -0.025660 -0.089572 -0.010280 -0.006893 -0.001602 0.068388 0.024573 0.017877 -0.009965 0.008266 -0.100481 0.084743 -0.002474 0.059322 0.010341 0.042188 0.058856 -0.088125 0.010148 0.024647 -0.072587 0.032518 0.056572 0.038750 -0.030868 0.026220 0.043310 0.003404 0.068148 0.001452 -0.002769 0.010066 -0.049899 -0.029488 -0.039804 0.064449 -0.062951 -0.086948 0.022610 0.005007 0.068681 -0.005850 -0.003015 0.027349 0.031427 -0.010923 0.063980 0.024620 0.077710 -0.003837 0.041757 -0.092865 -0.032656 0.002571 -0.101497 -0.036893 -0.086444 -0.117996 0.088623 0.065735 -0.019006 -0.068623 0.084986 0.042586 -0.096486 -0.001314 0.110407 -0.017745 -0.014651 0.055222 0.031072 0.064470 0.024801 0.089088 -0.081116 -0.020771 0.028534 0.029222 
O:4087191:104.0 -0.086037 -0.027652 0.088384 -0.023545 0.126762 -0.040215 -0.030777 -0.091083 -0.081185 0.106242 -0.033926 0.093939 -0.041980 -0.080199 -0.083379 0.145029 0.099979 0.060189 0.071216 0.083512 -0.156368 0.009741 -0.037927 -0.122254 -0.018190 -0.002356 -0.001672 0.097563 0.039649 0.015958 -0.017483 0.012085 -0.141740 0.124925 -0.006946 0.072459 0.017155 0.057440 0.079612 -0.112474 0.016284 0.038033 -0.092978 0.048819 0.076032 0.047607 -0.042959 0.037890 0.057902 0.004792 0.098681 0.001570 0.004790 0.012716 -0.064063 -0.045961 -0.049454 0.087746 -0.092099 -0.125774 0.022897 0.004319 0.085597 -0.009304 -0.007997 0.033815 0.036891 -0.016930 0.079777 0.038141 0.103265 -0.005293 0.046292 -0.121377 -0.049690 0.000787 -0.135094 -0.054704 -0.116342 -0.153957 0.127439 0.095753 -0.028172 -0.095195 0.120059 0.059179 -0.135160 0.000643 0.153225 -0.013425 -0.022501 0.070963 0.044232 0.088495 0.036450 0.128208 -0.117555 -0.022059 0.029604 0.041975 
C:4507490:patients -0.040919 -0.014113 0.036124 -0.011619 0.049995 -0.020510 -0.008489 -0.035077 -0.031922 0.041897 -0.011105 0.038514 -0.021130 -0.029723 -0.042579 0.062203 0.045313 0.029181 0.030402 0.041940 -0.065520 0.007427 -0.011585 -0.054019 -0.007445 0.000470 0.005612 0.047386 0.014960 0.008949 -0.007828 0.001736 -0.065020 0.051364 0.002565 0.029497 0.004171 0.021045 0.039400 -0.053304 0.013478 0.016133 -0.044096 0.014599 0.036269 0.023918 -0.023668 0.014598 0.030447 0.001695 0.039354 -0.004659 0.001119 0.005419 -0.027828 -0.021894 -0.019769 0.034208 -0.036818 -0.054390 0.013227 0.002145 0.036095 -0.005772 -0.006024 0.012534 0.011386 -0.009659 0.033718 0.016152 0.042763 0.005116 0.020119 -0.055539 -0.024620 -0.003813 -0.060226 -0.021296 -0.050778 -0.069037 0.058424 0.042890 -0.012519 -0.035273 0.048772 0.031141 -0.053915 0.003202 0.064382 -0.008779 -0.005290 0.029120 0.024302 0.036617 0.015612 0.053062 -0.051471 -0.004985 0.016570 0.018077 
C:4507524:pregnancy -0.056671 -0.022464 0.053717 -0.021728 0.083558 -0.024818 -0.015024 -0.055990 -0.054163 0.060851 -0.018370 0.064473 -0.030750 -0.045244 -0.057432 0.095112 0.068204 0.033577 0.048201 0.054641 -0.102666 0.006435 -0.020492 -0.082887 -0.016035 -0.001343 0.000935 0.066705 0.023111 0.012098 -0.005644 0.004532 -0.090661 0.075442 0.001361 0.048048 0.009092 0.035687 0.058544 -0.077892 0.017488 0.026437 -0.060097 0.028681 0.047004 0.033547 -0.024442 0.021680 0.043298 0.001969 0.058054 -0.000491 -0.002207 0.007994 -0.044843 -0.024840 -0.035560 0.059375 -0.062013 -0.076866 0.021889 0.006638 0.059419 -0.007402 -0.010830 0.018849 0.019531 -0.013367 0.055212 0.022439 0.068166 -0.003183 0.036541 -0.075481 -0.028099 -0.000315 -0.087217 -0.032398 -0.084143 -0.098185 0.083004 0.056374 -0.013688 -0.057630 0.078651 0.035037 -0.088827 -0.004126 0.104017 -0.016813 -0.018920 0.052477 0.028116 0.064095 0.015510 0.080710 -0.076371 -0.019805 0.025229 0.023497 
I:3675714:1 -0.438907 -0.133019 0.444181 -0.130525 0.638562 -0.215934 -0.131914 -0.432419 -0.381464 0.490871 -0.165265 0.480661 -0.197116 -0.374189 -0.438912 0.714904 0.488523 0.291075 0.369819 0.445877 -0.814415 0.065556 -0.168491 -0.626015 -0.086534 -0.012595 0.014938 0.495173 0.173727 0.099509 -0.079770 0.055775 -0.716057 0.607944 -0.021117 0.373681 0.103989 0.289147 0.415806 -0.589683 0.095404 0.199110 -0.468651 0.205235 0.388684 0.238353 -0.228148 0.184224 0.305159 0.044657 0.493853 -0.018080 0.014521 0.082702 -0.332072 -0.204365 -0.277502 0.427012 -0.452188 -0.608908 0.132647 0.012965 0.458054 -0.031469 -0.047744 0.170212 0.201453 -0.075633 0.425461 0.163074 0.520061 -0.012786 0.271695 -0.607064 -0.247001 0.000699 -0.687803 -0.247070 -0.621567 -0.775688 0.640463 0.452898 -0.148268 -0.460798 0.589563 0.309239 -0.649053 -0.020980 0.789552 -0.098704 -0.122210 0.368559 0.228232 0.458494 0.156700 0.641064 -0.588469 -0.105054 0.183798 0.214238 
O:4087188:3.0 -0.127714 -0.036148 0.135051 -0.033031 0.187569 -0.066003 -0.035042 -0.134914 -0.114129 0.156068 -0.049961 0.140499 -0.057580 -0.110215 -0.130142 0.213136 0.152540 0.082324 0.108871 0.130754 -0.246236 0.021008 -0.056267 -0.184570 -0.024445 -0.008912 0.003372 0.141409 0.050568 0.022053 -0.026232 0.012826 -0.208214 0.185204 -0.002318 0.111118 0.031618 0.083678 0.129503 -0.176677 0.037222 0.064003 -0.148452 0.068373 0.119333 0.069331 -0.068490 0.053367 0.094828 0.008322 0.140404 -0.005141 0.005003 0.023763 -0.099191 -0.063986 -0.080497 0.122620 -0.127532 -0.184053 0.035267 0.008905 0.132050 -0.010730 -0.013685 0.059439 0.057675 -0.025766 0.126529 0.055318 0.152385 -0.003158 0.070510 -0.179784 -0.073721 -0.006651 -0.202567 -0.080972 -0.178821 -0.239804 0.187306 0.142692 -0.042498 -0.139248 0.175653 0.097526 -0.190815 -0.001592 0.226674 -0.021532 -0.033234 0.112486 0.063342 0.137809 0.046323 0.184135 -0.175699 -0.029952 0.053558 0.057832 
O:4087188:31.5 -0.185569 -0.051619 0.174638 -0.040745 0.259112 -0.093423 -0.055042 -0.190180 -0.160900 0.213711 -0.068922 0.204949 -0.083879 -0.161818 -0.181796 0.299588 0.203956 0.110859 0.154632 0.168025 -0.328712 0.025548 -0.068525 -0.250611 -0.041282 -0.016813 0.005104 0.207048 0.077209 0.030956 -0.032438 0.026177 -0.297341 0.252886 -0.002288 0.154291 0.038161 0.118228 0.182392 -0.240563 0.045937 0.088524 -0.206590 0.092498 0.163391 0.086343 -0.096678 0.074399 0.126936 0.004153 0.198648 -0.006305 0.005875 0.030634 -0.130844 -0.090220 -0.113274 0.182219 -0.176790 -0.256967 0.049579 0.008980 0.177978 -0.005786 -0.017740 0.078551 0.080634 -0.031358 0.167123 0.073808 0.217989 0.002981 0.103626 -0.244577 -0.108706 -0.003302 -0.279984 -0.110446 -0.253890 -0.326374 0.264808 0.199674 -0.062880 -0.187602 0.247915 0.134088 -0.269641 -0.009229 0.311975 -0.043015 -0.053844 0.155153 0.093592 0.189918 0.076069 0.261563 -0.236103 -0.046037 0.070803 0.077876 
O:4087189:108.0 -0.118300 -0.034306 0.117260 -0.041082 0.177077 -0.058528 -0.036810 -0.120982 -0.112013 0.140530 -0.042661 0.131810 -0.049646 -0.110815 -0.122342 0.190877 0.139810 0.083098 0.104691 0.121555 -0.221224 0.012269 -0.053774 -0.172183 -0.027957 -0.004383 -0.000370 0.132784 0.049091 0.023654 -0.014032 0.013165 -0.203538 0.169689 -0.006345 0.104413 0.033030 0.076682 0.120436 -0.160219 0.022423 0.058330 -0.132897 0.058808 0.110467 0.063572 -0.058688 0.048396 0.093301 0.010503 0.140155 -0.005054 0.007234 0.021381 -0.088221 -0.058588 -0.071283 0.118250 -0.124689 -0.172738 0.042463 0.007584 0.125642 -0.004331 -0.010790 0.045065 0.049137 -0.024113 0.112094 0.048628 0.144963 -0.008076 0.071147 -0.165922 -0.074334 -0.001172 -0.195109 -0.073939 -0.176053 -0.222812 0.170115 0.123596 -0.042756 -0.124094 0.162140 0.084327 -0.182384 -0.008720 0.215753 -0.029246 -0.036019 0.100890 0.062103 0.121503 0.038111 0.171458 -0.162129 -0.028680 0.047879 0.063929 
O:4087189:38.0 -0.102576 -0.026567 0.104276 -0.028128 0.148667 -0.054947 -0.032824 -0.101296 -0.095785 0.121077 -0.038709 0.110446 -0.047994 -0.089081 -0.105484 0.167386 0.117083 0.073523 0.080492 0.108170 -0.193765 0.014737 -0.044813 -0.146972 -0.024300 -0.007873 0.006326 0.110738 0.037837 0.019384 -0.019150 0.011481 -0.174039 0.137865 -0.005453 0.090691 0.024613 0.071140 0.099230 -0.142790 0.021677 0.043991 -0.106299 0.045824 0.091958 0.056503 -0.058637 0.048516 0.067795 0.007959 0.112201 -0.004809 0.008409 0.014394 -0.078373 -0.051260 -0.064868 0.094085 -0.104987 -0.143188 0.027933 0.003032 0.105256 -0.003662 -0.009820 0.045176 0.050378 -0.019641 0.091679 0.033695 0.128105 0.001261 0.065343 -0.142220 -0.057757 0.004793 -0.156185 -0.057263 -0.148192 -0.183530 0.151314 0.111528 -0.029236 -0.107873 0.143101 0.070783 -0.156881 -0.005953 0.187584 -0.017457 -0.028805 0.084958 0.061113 0.103680 0.038021 0.148696 -0.142965 -0.026816 0.044749 0.054980 
O:4087189:52.0 -0.147888 -0.047697 0.141621 -0.047393 0.216415 -0.074042 -0.053306 -0.147987 -0.133594 0.168389 -0.052341 0.161261 -0.068559 -0.122857 -0.153003 0.242814 0.164877 0.096996 0.118503 0.149910 -0.275381 0.015819 -0.064112 -0.214217 -0.026262 -0.002171 -0.001958 0.162521 0.061100 0.030407 -0.025689 0.027504 -0.235427 0.196827 -0.006988 0.122853 0.030136 0.098631 0.144876 -0.194815 0.037721 0.061917 -0.161775 0.078735 0.133965 0.078382 -0.072007 0.059965 0.103194 0.008846 0.164485 -0.004873 0.004976 0.023590 -0.104517 -0.071388 -0.086503 0.135147 -0.151363 -0.209391 0.045737 0.011334 0.145219 -0.011096 -0.015601 0.062007 0.069476 -0.025438 0.140801 0.052738 0.172606 -0.001959 0.085933 -0.203722 -0.088481 -0.001430 -0.225241 -0.084236 -0.206890 -0.261857 0.215948 0.160215 -0.043532 -0.156580 0.191364 0.104700 -0.224035 0.001049 0.266641 -0.025394 -0.039007 0.129435 0.075546 0.155813 0.049598 0.213401 -0.193525 -0.041129 0.057809 0.071006 
O:4087191:108.0 -0.103377 -0.038706 0.098207 -0.028415 0.150102 -0.047573 -0.033452 -0.099222 -0.091396 0.119628 -0.044436 0.108015 -0.041777 -0.090514 -0.105318 0.159330 0.114877 0.075232 0.081544 0.109095 -0.190736 0.013135 -0.047885 -0.147964 -0.025859 -0.002988 -0.002961 0.116076 0.036553 0.027684 -0.018175 0.019093 -0.165410 0.139813 -0.011121 0.085477 0.024568 0.070194 0.097241 -0.131794 0.017619 0.043378 -0.105852 0.046166 0.092633 0.058985 -0.055234 0.041170 0.069854 0.012118 0.111949 -0.001842 -0.000497 0.022479 -0.070393 -0.045558 -0.058681 0.096067 -0.108894 -0.143267 0.029827 0.008425 0.107889 -0.002067 -0.014930 0.038904 0.041011 -0.018515 0.092613 0.040245 0.127468 -0.006951 0.059334 -0.141947 -0.057713 -0.000919 -0.163518 -0.054554 -0.138823 -0.177727 0.151319 0.104211 -0.032038 -0.102729 0.137693 0.072783 -0.157917 -0.008939 0.186410 -0.018648 -0.025805 0.089718 0.063239 0.109753 0.033836 0.148507 -0.140688 -0.025265 0.045793 0.050362 
O:4099754:12-month -0.197567 -0.046598 0.188996 -0.037648 0.275741 -0.097808 -0.053068 -0.214739 -0.171446 0.236348 -0.070319 0.220818 -0.087287 -0.177805 -0.194212 0.330356 0.229435 0.093325 0.189317 0.164244 -0.361046 0.038478 -0.070502 -0.273465 -0.034984 -0.018052 0.020563 0.214577 0.093445 0.016551 -0.052551 0.022841 -0.301503 0.274276 0.000501 0.176606 0.022892 0.118699 0.194256 -0.259586 0.064023 0.090239 -0.230934 0.118137 0.192899 0.090385 -0.097495 0.070075 0.135814 -0.009457 0.215428 -0.007954 0.000768 0.022209 -0.146233 -0.102765 -0.113198 0.190497 -0.198119 -0.288672 0.055314 0.015809 0.192469 -0.004500 0.005188 0.086807 0.087040 -0.031385 0.182271 0.080315 0.224689 0.029594 0.093624 -0.260619 -0.106613 -0.016877 -0.287259 -0.125017 -0.264742 -0.351985 0.275730 0.222083 -0.070229 -0.222055 0.267196 0.143539 -0.283858 -0.004906 0.326749 -0.039786 -0.066192 0.158507 0.085549 0.209032 0.089110 0.277502 -0.254851 -0.053279 0.071669 0.074778 
C:4507424:spoke_English -0.121977 -0.038379 0.119087 -0.028228 0.175764 -0.064498 -0.038157 -0.121313 -0.110202 0.141664 -0.050028 0.131411 -0.058424 -0.103811 -0.114555 0.191412 0.132314 0.072383 0.100078 0.113455 -0.220132 0.021367 -0.043416 -0.174074 -0.023470 -0.002870 0.002490 0.129345 0.048773 0.019336 -0.025195 0.017590 -0.195814 0.165262 -0.006856 0.104389 0.022628 0.075049 0.120449 -0.165725 0.024920 0.055532 -0.132920 0.062796 0.109332 0.064084 -0.065763 0.050336 0.086210 0.009684 0.133991 -0.009529 0.003687 0.024887 -0.092102 -0.055096 -0.071567 0.121202 -0.116751 -0.166032 0.038464 0.011915 0.117467 -0.008421 -0.007821 0.047906 0.054421 -0.022396 0.117862 0.042170 0.147390 0.003860 0.065937 -0.170861 -0.071641 0.002932 -0.188428 -0.073932 -0.163748 -0.220731 0.174790 0.125440 -0.043537 -0.124352 0.165355 0.089929 -0.174121 -0.003385 0.213312 -0.022116 -0.038043 0.105843 0.067228 0.126750 0.045531 0.175840 -0.163481 -0.033428 0.049938 0.053890 
C:4507426:1 -0.190733 -0.048432 0.190645 -0.048820 0.271396 -0.102918 -0.057211 -0.189249 -0.161601 0.227806 -0.086071 0.221313 -0.096954 -0.169581 -0.194105 0.308535 0.202748 0.126810 0.158501 0.203273 -0.346487 0.024183 -0.070764 -0.282100 -0.050479 0.002954 0.004485 0.198516 0.073995 0.053833 -0.033913 0.032678 -0.325959 0.263480 -0.005507 0.158190 0.041283 0.123832 0.187979 -0.254554 0.046901 0.101130 -0.196264 0.084589 0.172530 0.108263 -0.108281 0.081656 0.129457 0.026445 0.210384 -0.015986 -0.011601 0.020886 -0.128985 -0.077356 -0.120727 0.173497 -0.207544 -0.273234 0.044803 0.007619 0.196030 -0.008606 -0.034167 0.086546 0.080257 -0.015956 0.189846 0.070800 0.246267 0.009922 0.115698 -0.281755 -0.116509 0.007966 -0.314219 -0.111304 -0.267602 -0.338400 0.279718 0.197667 -0.053218 -0.210907 0.256578 0.134850 -0.285653 0.002224 0.351920 -0.054580 -0.058991 0.154131 0.107791 0.208958 0.060141 0.276135 -0.247023 -0.063174 0.081068 0.105942 
C:4507455:High_148_(100)Middle_1529_(100)Low_137_(100) -0.231724 -0.073530 0.225475 -0.064641 0.336170 -0.111837 -0.074745 -0.238374 -0.206934 0.267983 -0.088973 0.256653 -0.099275 -0.210618 -0.230383 0.380257 0.268229 0.148473 0.195054 0.226809 -0.438770 0.037757 -0.098320 -0.337223 -0.052224 -0.009504 0.004320 0.264967 0.095839 0.039217 -0.039794 0.027893 -0.386215 0.327362 -0.008519 0.204361 0.044500 0.155709 0.231217 -0.311946 0.053544 0.110372 -0.262158 0.121895 0.212104 0.121082 -0.118836 0.102874 0.163739 0.011883 0.268366 -0.010475 0.003169 0.039017 -0.176299 -0.112829 -0.139077 0.232659 -0.242941 -0.332796 0.074266 0.020098 0.234092 -0.004963 -0.018465 0.102462 0.104558 -0.035675 0.220055 0.086001 0.284341 -0.002230 0.141974 -0.317886 -0.137214 0.001222 -0.357652 -0.134395 -0.323261 -0.421945 0.336354 0.248669 -0.082336 -0.245731 0.313095 0.174696 -0.356245 -0.014368 0.413126 -0.050565 -0.066156 0.198495 0.127054 0.249072 0.084575 0.341164 -0.316810 -0.066017 0.091468 0.105483 
O:4087178:not_smoking -0.169598 -0.056033 0.173646 -0.049274 0.249807 -0.093371 -0.052693 -0.173303 -0.155463 0.193974 -0.063517 0.185543 -0.072767 -0.144771 -0.170076 0.281333 0.192222 0.111834 0.143251 0.179168 -0.317051 0.029217 -0.067851 -0.237439 -0.028119 0.001627 0.002558 0.183289 0.066518 0.036417 -0.021316 0.019105 -0.287761 0.239923 -0.011894 0.138521 0.041960 0.106196 0.155281 -0.233994 0.033362 0.082987 -0.182005 0.079598 0.150031 0.093712 -0.096320 0.071882 0.121515 0.008487 0.186919 -0.010463 -0.003710 0.028967 -0.119485 -0.076933 -0.106861 0.158437 -0.173882 -0.236221 0.052875 0.014153 0.180351 -0.009210 -0.022476 0.067860 0.072679 -0.028688 0.166603 0.068982 0.208359 -0.002421 0.104917 -0.244770 -0.092824 0.005511 -0.277143 -0.098796 -0.242574 -0.312443 0.242503 0.172840 -0.060518 -0.174400 0.226205 0.125889 -0.249254 -0.007881 0.307841 -0.035519 -0.047127 0.150174 0.088942 0.183526 0.061127 0.250265 -0.226004 -0.043436 0.069279 0.077707 
C:4507427:M_(60)_F_(40) -0.030637 -0.010703 0.024802 -0.011627 0.041942 -0.019043 -0.011213 -0.023683 -0.021620 0.031775 -0.007113 0.028758 -0.010232 -0.021939 -0.031549 0.047200 0.027010 0.018603 0.023812 0.029632 -0.051877 0.000001 -0.010635 -0.037492 -0.003301 0.003629 -0.002411 0.032274 0.006579 0.001567 -0.003583 0.000839 -0.049524 0.041743 -0.005904 0.020467 0.005250 0.022084 0.025602 -0.040346 0.007661 0.010441 -0.033754 0.016589 0.025954 0.013245 -0.010991 0.015564 0.015405 -0.000125 0.034131 -0.005633 0.005190 0.009007 -0.021503 -0.014477 -0.017060 0.024716 -0.026105 -0.037582 0.008069 0.000820 0.024048 -0.001319 -0.005339 0.015182 0.012847 -0.006401 0.024656 0.009950 0.037910 0.003482 0.017230 -0.035363 -0.021405 0.000277 -0.044349 -0.015587 -0.043862 -0.052856 0.037453 0.033331 -0.009218 -0.025391 0.036675 0.019272 -0.039969 -0.004150 0.050472 -0.007854 -0.003645 0.020953 0.019384 0.031602 0.005453 0.037755 -0.038659 -0.003390 0.011771 0.017337 
C:4507427:M_(64)_F_(36) -0.003120 0.003413 -0.004473 0.004480 -0.001429 -0.001433 -0.000454 0.001007 -0.000355 0.001661 0.003966 -0.003824 -0.002239 -0.002774 0.002692 -0.004231 0.003074 0.002292 0.002131 -0.001933 -0.001759 -0.003608 0.001189 0.003851 -0.001583 0.001556 0.001273 -0.003597 0.001260 0.002316 -0.003712 0.001503 -0.003076 -0.004297 0.002641 -0.002566 -0.001932 0.001248 -0.000761 0.004976 -0.000154 0.000983 -0.002514 -0.002589 -0.000085 -0.000562 0.001291 0.000520 -0.001569 0.003645 -0.002942 0.002583 -0.001949 0.003135 0.003694 0.004383 0.003930 -0.000060 0.002606 -0.000799 0.003726 -0.001409 -0.002301 0.002817 -0.002407 -0.003882 -0.004619 0.003513 -0.001810 0.002054 0.004556 0.002071 0.000671 -0.001571 -0.003368 0.001771 0.002693 -0.000225 -0.004486 -0.001604 0.004412 0.003122 -0.002390 0.000225 -0.001515 -0.001997 0.001824 -0.001960 0.000068 -0.003551 -0.000436 -0.004877 -0.003184 0.002990 0.004735 -0.002745 -0.001113 0.004658 0.003745 0.002717 
C:4507433:21 -0.035651 -0.008529 0.028197 -0.006214 0.050966 -0.012097 -0.008209 -0.035591 -0.033040 0.037610 -0.018287 0.037225 -0.014101 -0.029995 -0.030424 0.055793 0.038767 0.021252 0.024880 0.037004 -0.065908 0.005729 -0.011203 -0.043381 -0.006708 -0.007765 -0.001394 0.042850 0.015117 0.006355 -0.008703 -0.001245 -0.054663 0.044913 0.001230 0.026808 0.010277 0.020122 0.036256 -0.044724 0.008464 0.020646 -0.036588 0.021472 0.029878 0.013773 -0.021927 0.019547 0.025950 0.002978 0.043823 0.002228 0.004784 0.009529 -0.025731 -0.020178 -0.015931 0.029922 -0.039499 -0.053550 0.013348 -0.002401 0.032070 -0.001216 -0.000279 0.017402 0.018302 -0.003546 0.028418 0.013111 0.038957 0.004957 0.023993 -0.047150 -0.017791 -0.000065 -0.055614 -0.021319 -0.044231 -0.059009 0.051783 0.038486 -0.011713 -0.038372 0.048162 0.029409 -0.046470 0.000259 0.058505 -0.002273 -0.010399 0.027810 0.013519 0.034981 0.015938 0.047190 -0.040107 -0.012046 0.015930 0.016430 
C:4507435:54.4 -0.060028 -0.019290 0.059222 -0.017528 0.087304 -0.027851 -0.020528 -0.059486 -0.048679 0.071543 -0.028352 0.066786 -0.031205 -0.054738 -0.059790 0.100808 0.069313 0.044119 0.053544 0.061300 -0.116210 0.009685 -0.025796 -0.089188 -0.012505 -0.002150 0.004374 0.068058 0.020812 0.011198 -0.014251 0.012903 -0.095839 0.081827 -0.006578 0.053052 0.009723 0.043452 0.059957 -0.075864 0.017957 0.030726 -0.061230 0.025361 0.053524 0.038242 -0.034947 0.030373 0.044267 0.004767 0.066881 -0.002279 0.002528 0.007407 -0.040293 -0.031648 -0.031834 0.058629 -0.061870 -0.089153 0.021242 0.001047 0.066842 -0.002338 -0.008643 0.027620 0.025003 -0.006342 0.060112 0.025562 0.072303 0.000663 0.039924 -0.083914 -0.036643 0.001882 -0.090393 -0.036728 -0.086533 -0.113989 0.087975 0.060049 -0.020716 -0.066248 0.080904 0.043681 -0.096627 -0.003329 0.108185 -0.016799 -0.013499 0.055339 0.029691 0.058932 0.021249 0.086379 -0.077150 -0.017718 0.022699 0.029219 
C:4507524:pregnant -0.080457 -0.023897 0.081126 -0.021698 0.118744 -0.042783 -0.025137 -0.079034 -0.071347 0.091585 -0.034781 0.087900 -0.034640 -0.071046 -0.084137 0.132928 0.085925 0.052152 0.068736 0.074568 -0.151484 0.012631 -0.032384 -0.107613 -0.014870 -0.003045 0.001519 0.089571 0.031031 0.016504 -0.011217 0.009110 -0.133036 0.115007 -0.001937 0.073259 0.021656 0.053526 0.082567 -0.102368 0.023295 0.036010 -0.087822 0.040510 0.073422 0.042747 -0.043247 0.028980 0.061683 0.005510 0.093072 -0.009251 0.002967 0.008816 -0.055348 -0.038942 -0.051327 0.083001 -0.085193 -0.115710 0.020641 0.006401 0.082990 -0.001705 -0.011828 0.030290 0.030546 -0.013024 0.071342 0.034322 0.090837 -0.000249 0.047379 -0.112704 -0.047604 0.000910 -0.119406 -0.046288 -0.116028 -0.144254 0.117661 0.083266 -0.025661 -0.085373 0.106195 0.054073 -0.117422 -0.006803 0.144429 -0.020239 -0.024863 0.072447 0.045814 0.083744 0.026938 0.110827 -0.101592 -0.021064 0.028503 0.036367 
I:3675715:1 -0.233365 -0.070205 0.245096 -0.083907 0.332120 -0.106173 -0.074428 -0.246775 -0.224737 0.269636 -0.095744 0.238150 -0.103347 -0.193230 -0.222457 0.384910 0.258042 0.159680 0.181654 0.244100 -0.430491 0.019901 -0.079776 -0.343969 -0.045574 -0.014464 -0.004324 0.249658 0.094405 0.060768 -0.019005 0.040552 -0.397040 0.338483 -0.000083 0.200584 0.075313 0.146300 0.232461 -0.301990 0.044550 0.124029 -0.263708 0.100339 0.208835 0.135041 -0.117073 0.118144 0.183210 0.039691 0.256213 -0.014813 0.000015 0.034356 -0.176232 -0.097072 -0.144282 0.232195 -0.257350 -0.333207 0.090421 -0.000902 0.254905 -0.024779 -0.021419 0.092735 0.113798 -0.054848 0.233771 0.093727 0.276066 -0.025346 0.151764 -0.338845 -0.134731 0.005050 -0.378601 -0.131576 -0.343382 -0.412011 0.352701 0.250312 -0.064313 -0.245255 0.316726 0.181830 -0.363345 -0.016736 0.429669 -0.039977 -0.069337 0.217903 0.123355 0.256922 0.085756 0.325074 -0.319746 -0.074295 0.084427 0.136689 
O:4087178:abstinence. -0.167087 -0.047830 0.165616 -0.044469 0.238139 -0.083238 -0.048137 -0.176303 -0.144945 0.192089 -0.064288 0.183892 -0.072858 -0.155133 -0.162178 0.271178 0.182924 0.097570 0.143991 0.159775 -0.312211 0.021493 -0.069429 -0.233735 -0.036918 -0.013185 0.000688 0.181488 0.071840 0.026831 -0.036340 0.014247 -0.272062 0.230045 -0.012588 0.142758 0.036183 0.108928 0.158609 -0.229460 0.037161 0.075061 -0.180515 0.085539 0.155174 0.082860 -0.083496 0.068037 0.115002 0.004158 0.182879 -0.003282 -0.001986 0.021179 -0.126295 -0.076538 -0.101234 0.162969 -0.164598 -0.236484 0.047869 0.012521 0.172485 -0.007007 -0.013102 0.064265 0.068658 -0.030253 0.157908 0.063284 0.197084 0.001769 0.092563 -0.224835 -0.099047 -0.005398 -0.252091 -0.104158 -0.226389 -0.306348 0.233705 0.179666 -0.052405 -0.177221 0.223866 0.124981 -0.251201 -0.008885 0.294519 -0.034550 -0.050262 0.139569 0.079393 0.177076 0.068089 0.235869 -0.221304 -0.041892 0.059981 0.075922 
O:4087184:telephone -0.183533 -0.055667 0.177402 -0.041166 0.266935 -0.093393 -0.051040 -0.186854 -0.157325 0.211375 -0.066007 0.209549 -0.086394 -0.166208 -0.189928 0.303710 0.210264 0.108863 0.164179 0.180034 -0.345925 0.027914 -0.073197 -0.258982 -0.035412 -0.015019 0.006204 0.203328 0.076951 0.034473 -0.034929 0.019984 -0.297322 0.255461 -0.008890 0.166877 0.041013 0.120146 0.185739 -0.245901 0.044196 0.088869 -0.208509 0.095905 0.168192 0.087300 -0.090446 0.079269 0.135481 0.006167 0.209033 -0.003861 0.000816 0.022952 -0.133807 -0.085384 -0.112256 0.184046 -0.184969 -0.261844 0.057818 0.008360 0.187077 -0.008986 -0.014591 0.080341 0.074272 -0.035213 0.174660 0.072735 0.221859 0.008869 0.102320 -0.254828 -0.107302 -0.002485 -0.280598 -0.111370 -0.249676 -0.331601 0.258038 0.203728 -0.063797 -0.197940 0.252479 0.133131 -0.269707 -0.003241 0.315815 -0.042164 -0.056763 0.152351 0.087787 0.199972 0.068499 0.263119 -0.249643 -0.043422 0.070421 0.082508 
O:4087187:54.0 -0.117083 -0.042388 0.120858 -0.048256 0.182476 -0.061485 -0.039237 -0.121492 -0.109236 0.146284 -0.048561 0.132322 -0.058165 -0.104526 -0.123678 0.192049 0.140176 0.089883 0.102066 0.135293 -0.234497 0.010819 -0.052683 -0.177718 -0.027407 -0.002272 -0.007023 0.136626 0.048116 0.034329 -0.016412 0.017575 -0.211319 0.170293 -0.011357 0.110633 0.027391 0.084143 0.123600 -0.163573 0.019858 0.052480 -0.138757 0.061784 0.109304 0.076371 -0.069185 0.052764 0.087632 0.017788 0.144710 -0.013260 0.008726 0.023157 -0.093179 -0.050171 -0.075158 0.119142 -0.127770 -0.176350 0.042941 0.003517 0.123651 -0.005331 -0.023432 0.049771 0.056095 -0.016838 0.119339 0.049412 0.150038 -0.009337 0.077648 -0.179865 -0.068249 0.001914 -0.203836 -0.071761 -0.177027 -0.226099 0.183189 0.133562 -0.040163 -0.123045 0.174845 0.086756 -0.185687 -0.007856 0.224057 -0.026600 -0.027134 0.109898 0.076433 0.126182 0.037651 0.175562 -0.165588 -0.036480 0.054828 0.059618 
O:4087187:6.0 -0.084226 -0.026899 0.082326 -0.027835 0.120658 -0.038172 -0.025969 -0.084757 -0.070580 0.094423 -0.030843 0.092941 -0.037504 -0.070924 -0.085164 0.134791 0.094958 0.055682 0.071543 0.078937 -0.147644 0.014540 -0.030406 -0.109177 -0.011809 -0.004503 0.004295 0.093325 0.031304 0.013637 -0.015087 0.012437 -0.131432 0.114973 -0.006305 0.065528 0.017199 0.051328 0.076442 -0.109962 0.017338 0.041744 -0.085140 0.045464 0.069194 0.038967 -0.038356 0.038730 0.053863 0.002567 0.086184 -0.001735 -0.003127 0.015804 -0.054591 -0.033490 -0.043090 0.076610 -0.078259 -0.108818 0.022941 0.000706 0.083980 -0.001711 -0.010599 0.029164 0.036873 -0.012170 0.083081 0.033751 0.090826 -0.005911 0.051652 -0.116726 -0.041574 -0.004913 -0.131202 -0.048092 -0.112833 -0.143997 0.113435 0.085835 -0.027112 -0.087899 0.111304 0.059120 -0.117057 -0.007904 0.139949 -0.015776 -0.020361 0.067633 0.039501 0.089260 0.030271 0.119633 -0.103002 -0.021552 0.032043 0.035221 
O:4087188:4.0 -0.126986 -0.035304 0.126729 -0.035073 0.188669 -0.061627 -0.042101 -0.128933 -0.109994 0.149149 -0.049116 0.140538 -0.057967 -0.112394 -0.132559 0.206729 0.144832 0.080728 0.106971 0.131632 -0.240273 0.015515 -0.045848 -0.188468 -0.029337 -0.008063 0.004435 0.142499 0.051498 0.025995 -0.027323 0.014809 -0.217259 0.174149 -0.003045 0.116887 0.028549 0.085340 0.123363 -0.174157 0.034469 0.059251 -0.146318 0.066903 0.117390 0.072398 -0.068600 0.052886 0.090319 0.009668 0.141661 -0.008293 0.003471 0.027361 -0.091269 -0.063624 -0.081582 0.127997 -0.131533 -0.184976 0.040055 0.003117 0.127761 -0.002023 -0.019838 0.055774 0.053032 -0.021669 0.123289 0.045271 0.150512 0.000958 0.081971 -0.182696 -0.076494 -0.002922 -0.208901 -0.079097 -0.183178 -0.228516 0.191891 0.140525 -0.039292 -0.136065 0.170209 0.091612 -0.194575 -0.004965 0.228103 -0.021154 -0.041394 0.111231 0.069250 0.140052 0.050379 0.184234 -0.168315 -0.032847 0.046107 0.057600 
O:4087188:9.0 -0.103686 -0.033144 0.097848 -0.033498 0.140113 -0.046718 -0.026813 -0.104287 -0.089923 0.117323 -0.038795 0.109414 -0.041416 -0.084047 -0.095690 0.165685 0.112094 0.066455 0.081421 0.098819 -0.186731 0.018086 -0.045983 -0.147095 -0.022899 -0.006952 0.004142 0.110324 0.040201 0.027404 -0.016142 0.011265 -0.169984 0.139350 -0.009125 0.081483 0.019604 0.063728 0.094354 -0.136929 0.027401 0.041078 -0.109559 0.052244 0.090218 0.057411 -0.051015 0.045233 0.077862 0.007832 0.116496 -0.009397 0.002038 0.021121 -0.071872 -0.042103 -0.063432 0.096618 -0.102341 -0.138000 0.033626 0.002750 0.102021 -0.002071 -0.015968 0.038408 0.043776 -0.019363 0.094549 0.038212 0.116355 0.000713 0.060742 -0.142306 -0.052614 -0.002362 -0.155512 -0.058071 -0.136522 -0.178761 0.145873 0.103568 -0.039096 -0.104958 0.139210 0.071217 -0.147987 0.001118 0.177783 -0.021989 -0.023580 0.084416 0.057831 0.103035 0.041797 0.142896 -0.137797 -0.029322 0.039241 0.050045 
O:4099754:26.0 -0.159452 -0.045923 0.158460 -0.042268 0.225710 -0.082538 -0.052608 -0.158519 -0.138441 0.189750 -0.058099 0.169797 -0.074600 -0.137289 -0.158186 0.265571 0.177561 0.103283 0.137802 0.155927 -0.294804 0.020627 -0.060816 -0.228495 -0.029037 -0.014086 0.001334 0.178111 0.061539 0.031707 -0.023921 0.017710 -0.265764 0.220054 -0.006458 0.141728 0.034832 0.108053 0.158054 -0.218213 0.042149 0.070499 -0.179624 0.084723 0.149463 0.082812 -0.076125 0.072396 0.114986 0.004036 0.181653 -0.011953 0.004387 0.032033 -0.123203 -0.076488 -0.092952 0.160825 -0.159771 -0.224378 0.047221 0.005693 0.167193 -0.007389 -0.013847 0.060903 0.064376 -0.031064 0.150599 0.062163 0.194163 0.001324 0.087611 -0.222399 -0.096394 -0.000740 -0.245523 -0.095310 -0.218473 -0.292182 0.233888 0.169616 -0.053835 -0.171181 0.220954 0.114930 -0.244011 -0.009994 0.276422 -0.035621 -0.040806 0.134335 0.085963 0.166504 0.061808 0.230255 -0.210174 -0.041595 0.058358 0.076395 
C:4507413:Caucasian67.3% -0.029532 -0.004498 0.026728 -0.011744 0.035690 -0.016370 -0.007835 -0.021504 -0.024565 0.033338 -0.013849 0.030010 -0.013036 -0.028433 -0.022073 0.043989 0.027762 0.020122 0.022814 0.030236 -0.050540 0.006136 -0.008725 -0.038810 -0.009028 -0.003168 0.002623 0.029948 0.008790 0.008948 -0.000210 0.006649 -0.047851 0.032312 0.002718 0.019926 0.006156 0.022245 0.026506 -0.034595 0.003195 0.014281 -0.032902 0.012496 0.028263 0.017073 -0.009364 0.009829 0.021405 0.005064 0.031360 -0.006772 0.002518 0.008310 -0.024480 -0.010871 -0.015763 0.021893 -0.027714 -0.037343 0.013234 0.005365 0.023251 -0.004223 -0.007878 0.006058 0.013856 -0.004293 0.029459 0.009862 0.028856 0.000151 0.012402 -0.037595 -0.013966 0.001212 -0.041216 -0.017781 -0.038052 -0.049858 0.034384 0.030673 -0.011705 -0.027368 0.031916 0.022440 -0.035309 -0.003969 0.042069 -0.003704 -0.004612 0.025810 0.015913 0.031571 0.014122 0.041697 -0.030562 -0.002818 0.007717 0.008929 
C:4507413:White76All_other25 -0.037405 -0.006677 0.034010 -0.006931 0.047342 -0.013456 -0.008820 -0.040439 -0.033891 0.042114 -0.013171 0.040460 -0.015137 -0.031621 -0.035705 0.055953 0.040282 0.023430 0.029816 0.031007 -0.064838 0.001800 -0.012871 -0.050737 -0.008737 -0.001511 -0.001035 0.042398 0.008890 0.007142 -0.010176 0.000169 -0.054690 0.044544 -0.005165 0.028762 0.004399 0.020813 0.032519 -0.043872 0.013850 0.018498 -0.042589 0.016306 0.028930 0.013725 -0.020733 0.013944 0.020979 -0.001646 0.039076 -0.003418 -0.003867 0.004384 -0.021182 -0.018012 -0.024786 0.030100 -0.039017 -0.054576 0.006834 0.007302 0.038197 -0.003009 -0.004954 0.009809 0.014620 -0.009221 0.032143 0.013024 0.042557 0.005388 0.023265 -0.047403 -0.021593 -0.003270 -0.051639 -0.022078 -0.048151 -0.060314 0.052425 0.038425 -0.016113 -0.033779 0.050379 0.024869 -0.047905 -0.000079 0.067001 -0.008388 -0.008096 0.031544 0.016285 0.034937 0.017169 0.054929 -0.042338 -0.005632 0.011930 0.014932 
C:4507418:37 -0.034438 -0.011432 0.031467 -0.011484 0.051056 -0.017982 -0.014042 -0.034834 -0.030127 0.039490 -0.013140 0.037552 -0.017576 -0.027186 -0.036872 0.056986 0.038269 0.019789 0.028559 0.031149 -0.058767 0.005452 -0.011213 -0.046902 -0.007073 -0.003675 0.000872 0.041197 0.014032 0.006207 -0.003047 0.007595 -0.053539 0.043790 -0.000173 0.025428 0.008359 0.026717 0.033006 -0.050322 0.005422 0.015932 -0.032823 0.018553 0.035519 0.021607 -0.013034 0.018368 0.022238 0.007092 0.039534 -0.006571 0.003803 0.006436 -0.027128 -0.012188 -0.017839 0.029979 -0.032372 -0.053092 0.008532 0.005529 0.037622 0.000116 -0.008044 0.016233 0.014742 -0.009572 0.033326 0.011848 0.039362 0.004296 0.016144 -0.048977 -0.015060 0.004880 -0.050597 -0.018655 -0.050387 -0.063572 0.044420 0.035934 -0.014137 -0.038098 0.049956 0.022773 -0.051085 -0.002621 0.056689 -0.003770 -0.008561 0.029262 0.014599 0.031507 0.010629 0.051721 -0.046916 -0.012203 0.018055 0.015797 
C:4507427:M_(54.3)_F_(45.7) -0.062508 -0.018807 0.068121 -0.022681 0.098513 -0.028921 -0.019290 -0.063639 -0.056713 0.071898 -0.029341 0.066771 -0.022810 -0.053784 -0.064023 0.109043 0.077325 0.046385 0.051237 0.062503 -0.118506 0.008536 -0.021289 -0.093852 -0.008232 -0.005740 0.000983 0.068374 0.028145 0.013152 -0.006902 0.004323 -0.102301 0.089945 0.000057 0.056787 0.018326 0.040754 0.064343 -0.086296 0.015188 0.031961 -0.071939 0.028894 0.062651 0.038363 -0.035804 0.028259 0.042920 0.002304 0.072875 -0.004208 -0.003710 0.011957 -0.043763 -0.030942 -0.034690 0.056238 -0.069295 -0.086079 0.018096 0.003393 0.066065 -0.006753 -0.001758 0.024592 0.027444 -0.011418 0.065767 0.025297 0.076344 0.004054 0.036878 -0.084956 -0.036876 -0.000116 -0.096082 -0.033559 -0.088128 -0.113339 0.092041 0.069086 -0.021521 -0.063451 0.087767 0.049324 -0.097962 0.002769 0.119186 -0.010563 -0.019154 0.060860 0.038458 0.065909 0.026710 0.091024 -0.089484 -0.010962 0.025495 0.031463 
C:4507427:M_(91.6)_F_(8.4) -0.055527 -0.017142 0.061224 -0.017199 0.085752 -0.034501 -0.013508 -0.062068 -0.057777 0.069967 -0.023100 0.060802 -0.025678 -0.051634 -0.056888 0.098344 0.064200 0.042384 0.048974 0.063023 -0.106148 0.004295 -0.027875 -0.086368 -0.012774 0.001023 -0.000500 0.071597 0.022915 0.011680 -0.012600 0.002813 -0.102491 0.083000 -0.002677 0.051307 0.012858 0.044030 0.053777 -0.082084 0.010236 0.023500 -0.069754 0.033903 0.058042 0.031793 -0.027837 0.028561 0.046609 0.005067 0.062594 -0.000546 -0.003595 0.009978 -0.043221 -0.033061 -0.040365 0.057021 -0.060077 -0.080243 0.022883 0.005640 0.060487 0.000797 -0.008521 0.019878 0.030418 -0.007798 0.058114 0.024470 0.074200 0.000836 0.034549 -0.083202 -0.038946 0.004060 -0.094660 -0.038417 -0.084814 -0.111406 0.087440 0.060290 -0.023469 -0.065468 0.078213 0.043595 -0.089800 -0.007340 0.110280 -0.011529 -0.017061 0.046361 0.030765 0.065427 0.020197 0.090016 -0.080101 -0.014416 0.027838 0.025604 
C:4507427:M_(97)_F_(3) -0.084823 -0.030471 0.091640 -0.028309 0.129171 -0.042083 -0.025496 -0.091307 -0.074938 0.101668 -0.034532 0.099311 -0.041428 -0.077691 -0.083892 0.146077 0.099214 0.056647 0.069344 0.086366 -0.160376 0.014151 -0.031912 -0.123046 -0.014638 -0.003148 0.004100 0.095308 0.037319 0.022207 -0.014821 0.006425 -0.149284 0.122772 -0.001657 0.073886 0.024567 0.059695 0.089566 -0.113001 0.018483 0.044043 -0.100112 0.048888 0.075454 0.050494 -0.048302 0.042424 0.066734 0.002845 0.093903 -0.000224 0.001184 0.016749 -0.063002 -0.040873 -0.055133 0.084056 -0.088444 -0.119160 0.023761 0.009927 0.090671 -0.006297 -0.010511 0.036832 0.033296 -0.014386 0.082500 0.033952 0.106424 0.004581 0.056765 -0.116810 -0.051967 -0.002549 -0.142043 -0.049099 -0.127685 -0.162415 0.122682 0.096810 -0.028343 -0.087748 0.119418 0.062330 -0.134852 -0.002602 0.151064 -0.016036 -0.026643 0.079717 0.049474 0.097126 0.029168 0.128906 -0.114648 -0.021417 0.040121 0.037021 
C:4507428:41 -0.018847 -0.011102 0.025410 -0.008871 0.032996 -0.007448 -0.010176 -0.017466 -0.024081 0.026108 -0.008217 0.027523 -0.009767 -0.023053 -0.018368 0.031858 0.024672 0.018457 0.017043 0.017724 -0.039134 -0.000837 -0.011431 -0.033777 -0.007949 0.000705 -0.000926 0.024740 0.005870 0.003656 -0.004117 0.007500 -0.038090 0.031093 0.000818 0.023101 0.002898 0.015595 0.022137 -0.025519 0.000648 0.006751 -0.023282 0.014136 0.024777 0.010131 -0.010255 0.011549 0.015920 -0.001878 0.029612 0.002470 -0.000435 0.001179 -0.012080 -0.006429 -0.011038 0.018327 -0.026410 -0.029396 0.009703 0.006080 0.022166 -0.004144 0.001944 0.011754 0.006022 0.000077 0.016663 0.004470 0.026159 -0.003077 0.010009 -0.029277 -0.016905 -0.004441 -0.034502 -0.014818 -0.026575 -0.039222 0.033551 0.022003 -0.010571 -0.018317 0.027685 0.012779 -0.036869 0.002054 0.038326 -0.004082 -0.006452 0.014342 0.010307 0.022159 0.003782 0.033672 -0.028788 -0.002286 0.004866 0.006333 
C:4507431:28 -0.020682 -0.008010 0.029130 -0.004338 0.034599 -0.008761 -0.010689 -0.023754 -0.025719 0.024900 -0.006180 0.029250 -0.008316 -0.023792 -0.020595 0.039107 0.024262 0.020812 0.025107 0.021181 -0.050314 0.005438 -0.011328 -0.032607 -0.000501 -0.000448 -0.002280 0.028220 0.007356 0.007585 -0.002983 0.004975 -0.037948 0.036057 0.003531 0.023722 0.006208 0.021130 0.027976 -0.033223 0.009070 0.013762 -0.029816 0.009582 0.017712 0.009500 -0.015706 0.006230 0.013607 0.001734 0.025240 0.000328 0.003536 0.005961 -0.015230 -0.008054 -0.013494 0.025101 -0.021169 -0.033533 0.003150 0.000549 0.027940 -0.000756 0.000210 0.011092 0.011633 0.000117 0.027636 0.013227 0.026312 0.002277 0.015126 -0.038490 -0.016730 -0.005058 -0.040751 -0.012795 -0.038722 -0.049020 0.031679 0.030395 -0.012014 -0.025836 0.035287 0.017758 -0.033997 -0.003956 0.043824 -0.006205 -0.009424 0.017862 0.017468 0.030622 0.008346 0.038024 -0.030328 -0.007563 0.012541 0.011570 
